tree
version=v4
num_class=1
num_tree_per_iteration=1
label_index=0
max_feature_idx=46
objective=regression
feature_names=Column_0 Column_1 Column_2 Column_3 Column_4 Column_5 Column_6 Column_7 Column_8 Column_9 Column_10 Column_11 Column_12 Column_13 Column_14 Column_15 Column_16 Column_17 Column_18 Column_19 Column_20 Column_21 Column_22 Column_23 Column_24 Column_25 Column_26 Column_27 Column_28 Column_29 Column_30 Column_31 Column_32 Column_33 Column_34 Column_35 Column_36 Column_37 Column_38 Column_39 Column_40 Column_41 Column_42 Column_43 Column_44 Column_45 Column_46
feature_infos=[-1.0954451150103366:0.91287092917527257] [-1.5728843934232588:2.0493424080733411] [-1.7240296372067836:2.1116654240177821] [-2.0311755118042312:1.5614757009272506] [-1.1985333056242382:2.5682856549090709] [-1.2018504251546631:0.83205029433784405] [-1.5491933384829668:1.5491933384829668] [-1.5491933384829668:1.5491933384829668] [-1.0954451150103366:0.91287092917527257] none [-0.24444636711903703:5.7791817973033526] [-1.095445115010333:0.91287092917527612] [-1.095445115010333:0.91287092917527612] [-1.5825008890654744:1.8661567088036253] [-1.0954451150103324:0.91287092917527701] [-1.6035674514745464:1.6035674514745464] [-1.5528246291133827:2.1053758589239795] [-7.2899981642686926:2.7155611013344467] [-1.8958912193332664:1.6449510467164303] [-2.9038116294229961:3.4475051609988694] [-0.83396372487354054:4.7183857690975328] [-0.85203452603933361:4.6841985002421014] none none none none none none none none none [0:1] [0:1] [0:1] none none none none [0:1] none none none none [0:1] [0:1] [0:1] none
tree_sizes=722 600 623 685 626 779 633 641 692 600 637 664 697 723 556 723 556 644 645 638 603 639 620 644 704 716 748 617 751 640 645 756 704 755 683 705 756 687 708 757 688 689 713 709 690 763 627 626 641 690 627 767 713 621 683 624 561 629 539 702 628 645 584 625 645 627 541 646 643 541 606 625 646 543 541 631 611 542 555 553 552 624 607 553 631 629 540 555 556 630 607 546 555 558 629 607 628 545 669 604 672 613 605 452 613 602 522 672 613 455 670 611 452 603 588 542 523 524 545 456

Tree=0
num_leaves=7
num_cat=0
split_feature=13 19 19 16 2 13
split_gain=21.4439 5.20097 3.70622 0.642098 0.0418474 0.0911651
threshold=1.0000000180025095e-35 0.92484227768801885 -0.19768235459862812 -0.67743778524497211 -0.65488959212684328 0.51132693821219333
decision_type=2 2 2 2 2 2
left_child=2 3 -1 -2 -5 -6
right_child=1 -3 -4 4 5 -7
leaf_value=0.77659574691078104 0.79259664604811675 0.80162127587249099 0.7868753164252148 0.7868753164252148 0.7868753164252148 0.7888729085354016
leaf_weight=118 34 56 38 20 26 24
leaf_count=118 34 56 38 20 26 24
internal_value=0.786875 0.794453 0.77911 0.789454 0.786875 0.787695
internal_weight=0 160 156 104 70 50
internal_count=316 160 156 104 70 50
is_linear=0
shrinkage=1


Tree=1
num_leaves=6
num_cat=0
split_feature=13 19 19 13 1
split_gain=20.2923 4.90708 3.50564 0.510137 0.518108
threshold=1.0000000180025095e-35 1.0214035363793434 -0.19768235459862812 0.51132693821219333 -0.83709672674673052
decision_type=2 2 2 2 2
left_child=2 3 -1 -2 -5
right_child=1 -3 -4 4 -6
leaf_value=-0.0099861042872409229 0 0.014651223360481908 0 0 0.0058234113906784095
leaf_weight=118 42 53 38 20 45
leaf_count=118 42 53 38 20 45
internal_value=0 0.00738468 -0.00754021 0.00266757 0.00421804
internal_weight=0 160 156 107 65
internal_count=316 160 156 107 65
is_linear=0
shrinkage=0.03


Tree=2
num_leaves=6
num_cat=0
split_feature=19 20 19 19 19
split_gain=19.254 7.7661 3.27983 1.00385 0.00520541
threshold=0.5023867709134745 1.6954399334910593 -0.11319125324371916 1.0214035363793434 0.2489134668487476
decision_type=2 2 2 2 2
left_child=1 2 -1 -2 -4
right_child=3 -3 4 -5 -6
leaf_value=-0.0095563178703499327 0.003711517077278007 0.0074849115746716648 -0.00036074277712032197 0.014142063750374701 0
leaf_weight=138 38 30 30 56 24
leaf_count=138 38 30 30 56 24
internal_value=0 -0.00478762 -0.00717695 0.0110011 0
internal_weight=0 222 192 94 54
internal_count=316 222 192 94 54
is_linear=0
shrinkage=0.03


Tree=3
num_leaves=7
num_cat=0
split_feature=13 19 19 16 2 13
split_gain=18.2881 4.30719 3.13162 0.468039 0.0738245 0.11987
threshold=1.0000000180025095e-35 1.0214035363793434 -0.19768235459862812 -0.67743778524497211 -0.65488959212684328 0.51132693821219333
decision_type=2 2 2 2 2 2
left_child=2 3 -1 -2 -5 -6
right_child=1 -3 -4 4 5 -7
leaf_value=-0.0094405683392899155 0.0053910961459041574 0.013875269021018075 0 0 0 0.0023153596557676792
leaf_weight=118 34 53 38 20 26 27
leaf_count=118 34 53 38 20 26 27
internal_value=0 0.0070396 -0.00712887 0.00256578 0.000180881 0.00108164
internal_weight=0 160 156 107 73 53
internal_count=316 160 156 107 73 53
is_linear=0
shrinkage=0.03


Tree=4
num_leaves=6
num_cat=0
split_feature=19 20 19 19 19
split_gain=17.376 7.15559 2.89244 0.816676 0.00539142
threshold=0.5023867709134745 1.6954399334910593 -0.11319125324371916 1.0938244803978363 0.2489134668487476
decision_type=2 2 2 2 2
left_child=1 2 -1 -2 -4
right_child=3 -3 4 -5 -6
leaf_value=-0.0090586043071622657 0.0039724807254970075 0.0072315103498597939 -0.00036713142724086842 0.013746592705619745 0
leaf_weight=138 42 30 30 52 24
leaf_count=138 42 30 30 52 24
internal_value=0 -0.00451886 -0.00682139 0.0104798 0
internal_weight=0 222 192 94 54
internal_count=316 222 192 94 54
is_linear=0
shrinkage=0.03


Tree=5
num_leaves=8
num_cat=0
split_feature=13 19 19 16 19 2 1
split_gain=16.4913 3.80949 2.79874 0.623629 0.0113984 0.00396052 0.089033
threshold=1.0000000180025095e-35 0.86449149100594103 -0.24596298394429039 -0.67743778524497211 0.067861106802514087 -0.65488959212684328 -0.24096078346831795
decision_type=2 2 2 2 2 2 2
left_child=2 3 -1 -2 -4 -5 -7
right_child=1 -3 4 5 -6 6 -8
leaf_value=-0.0090731917670927933 0.0051579592403140848 0.012653946346961535 -0.00050644012597890996 0 0.00035807229911110228 0.001592541147362102 0
leaf_weight=114 34 59 20 20 22 27 20
leaf_count=114 34 59 20 20 22 27 20
internal_value=0 0.00671374 -0.00674027 0.00216798 0 0 0.000259334
internal_weight=0 160 156 101 42 67 47
internal_count=316 160 156 101 42 67 47
is_linear=0
shrinkage=0.03


Tree=6
num_leaves=6
num_cat=0
split_feature=19 20 19 19 19
split_gain=15.6697 6.6028 2.72635 0.680126 0.164723
threshold=0.5023867709134745 1.1196407267088742 -0.3678715730420874 1.0938244803978363 0.17649252283025421
decision_type=2 2 2 2 2
left_child=1 2 -1 -2 -4
right_child=3 -3 4 -5 -6
leaf_value=-0.0095711867813557637 0.0037572582857683299 0.0064608752068418722 -0.0021464186424522526 0.013055589394322756 0
leaf_weight=112 42 33 50 52 27
leaf_count=112 42 33 50 52 27
internal_value=0 -0.00426696 -0.00658893 0.00997573 -0.0011499
internal_weight=0 222 189 94 77
internal_count=316 222 189 94 77
is_linear=0
shrinkage=0.03


Tree=7
num_leaves=6
num_cat=0
split_feature=13 19 21 19 19
split_gain=14.8766 4.90296 1.89325 1.03258 0.495161
threshold=-0.43294835644244112 0.73171976030536967 1.8512002316722735 -0.24596298394429039 0.17649252283025421
decision_type=2 2 2 2 2
left_child=3 2 4 -1 -2
right_child=1 -3 -4 -5 -6
leaf_value=-0.0091705868393182743 -0.0029306798544110218 0.010971471711441321 0.0072916204808279872 0 0.00058596690888813841
leaf_weight=100 52 75 26 22 41
leaf_count=100 52 75 26 22 41
internal_value=0 0.00519791 0.000727143 -0.0078984 -0.000832717
internal_weight=0 194 119 122 93
internal_count=316 194 119 122 93
is_linear=0
shrinkage=0.03


Tree=8
num_leaves=7
num_cat=0
split_feature=13 19 21 19 19 19
split_gain=14.0978 4.65329 1.57718 0.956586 0.688541 0.0229556
threshold=-0.43294835644244112 0.86449149100594103 1.9402259114641314 -0.28217345595353693 0.2489134668487476 0.46617629890422768
decision_type=2 2 2 2 2 2
left_child=3 2 4 -1 -2 -6
right_child=1 -3 -4 -5 5 -7
leaf_value=-0.0089535762986966538 -0.0025436192363988428 0.011658532172441482 0.0073759609609842297 0 0 0.0024748045911914423
leaf_weight=99 57 61 24 23 20 32
leaf_count=99 57 61 24 23 20 32
internal_value=0 0.0050653 0.00123697 -0.00768346 0 0.0019122
internal_weight=0 194 133 122 109 52
internal_count=316 194 133 122 109 52
is_linear=0
shrinkage=0.03


Tree=9
num_leaves=6
num_cat=0
split_feature=13 19 19 13 1
split_gain=13.3783 3.02583 2.25192 0.410441 0.394471
threshold=1.0000000180025095e-35 1.0938244803978363 -0.089050938570888014 0.51132693821219333 -0.83709672674673052
decision_type=2 2 2 2 2
left_child=2 3 -1 -2 -5
right_child=1 -3 -4 4 -6
leaf_value=-0.0078402417849446088 0 0.01221140614693815 0 0 0.0050159675852734257
leaf_weight=123 42 49 33 20 49
leaf_count=123 42 49 33 20 49
internal_value=0 0.00608061 -0.00603632 0.00237396 0.00370364
internal_weight=0 160 156 111 69
internal_count=316 160 156 111 69
is_linear=0
shrinkage=0.03


Tree=10
num_leaves=6
num_cat=0
split_feature=19 20 19 19 19
split_gain=12.7317 5.70346 1.99459 0.627187 0.108331
threshold=0.46617629890422768 1.1196407267088742 -0.3678715730420874 1.0938244803978363 0.17649252283025421
decision_type=2 2 2 2 2
left_child=1 2 -1 -2 -4
right_child=3 -3 4 -5 -6
leaf_value=-0.0086480716030287019 0.0032622733799850239 0.0060126570798456668 -0.0018793894959214543 0.011797978978218703 0
leaf_weight=112 45 33 50 52 24
leaf_count=112 45 33 50 52 24
internal_value=0 -0.00389136 -0.00609401 0.00884135 -0.00111971
internal_weight=0 219 186 97 74
internal_count=316 219 186 97 74
is_linear=0
shrinkage=0.03


Tree=11
num_leaves=6
num_cat=0
split_feature=13 19 21 19 19
split_gain=12.1124 3.88349 1.50156 0.802898 0.469623
threshold=-0.43294835644244112 0.82828101899669426 1.9402259114641314 -0.29545062902359398 0.17649252283025421
decision_type=2 2 2 2 2
left_child=3 2 4 -1 -2
right_child=1 -3 -4 -5 -6
leaf_value=-0.0085421559777186847 -0.0024494341402314605 0.010299480654097892 0.0069772030487656594 -0.00028240773128345608 0.001129712359721048
leaf_weight=92 54 68 24 30 48
leaf_count=92 54 68 24 30 48
internal_value=0 0.00472758 0.000934504 -0.00708827 -0.000240385
internal_weight=0 194 126 122 102
internal_count=316 194 126 122 102
is_linear=0
shrinkage=0.03


Tree=12
num_leaves=7
num_cat=0
split_feature=13 19 21 19 19 19
split_gain=11.4962 3.66837 1.34311 0.743529 0.553875 0.0156963
threshold=-0.43294835644244112 0.86449149100594103 1.9402259114641314 -0.24596298394429039 0.2489134668487476 0.46617629890422768
decision_type=2 2 2 2 2 2
left_child=3 2 4 -1 -2 -6
right_child=1 -3 -4 -5 5 -7
leaf_value=-0.0079899387753937616 -0.0022869320497626348 0.010486624231979028 0.0068097502291202547 0 0 0.0021952131468998761
leaf_weight=100 57 61 24 22 20 32
leaf_count=100 57 61 24 22 20 32
internal_value=0 0.00460911 0.00114546 -0.00690209 0 0.00170695
internal_weight=0 194 133 122 109 52
internal_count=316 194 133 122 109 52
is_linear=0
shrinkage=0.03


Tree=13
num_leaves=7
num_cat=0
split_feature=13 19 21 19 19 19
split_gain=10.908 3.46401 1.56179 0.692241 0.366698 0.0676012
threshold=-0.43294835644244112 0.65929881628687659 1.6676484642155198 -0.29545062902359398 0.11493472041453487 1.2748768404440696
decision_type=2 2 2 2 2 2
left_child=3 2 4 -1 -2 -3
right_child=1 5 -4 -5 -6 -7
leaf_value=-0.0080765582393018554 -0.0030221130351098823 0.0038572936964795944 0.0061184514111706188 -0.00022208132936308781 0 0.01188973143696785
leaf_weight=92 43 41 29 30 41 40
leaf_count=92 43 41 29 30 41 40
internal_value=0 0.00449766 0.000431194 -0.00671483 -0.0011426 0.00906001
internal_weight=0 194 113 122 84 81
internal_count=316 194 113 122 84 81
is_linear=0
shrinkage=0.03


Tree=14
num_leaves=5
num_cat=0
split_feature=19 20 19 19
split_gain=10.4005 4.97804 1.28346 0.654612
threshold=0.39375535488573415 0.89343389547301544 -0.089050938570888014 1.0938244803978363
decision_type=2 2 2 2
left_child=1 2 -1 -2
right_child=3 -3 -4 -5
leaf_value=-0.0073021419326375634 0.0028169459829989231 0.0049908367873624316 0 0.010664650474129051
leaf_weight=134 51 37 42 52
leaf_count=134 51 37 42 52
internal_value=0 -0.00363939 -0.00588809 0.00769831
internal_weight=0 213 176 103
internal_count=316 213 176 103
is_linear=0
shrinkage=0.03


Tree=15
num_leaves=7
num_cat=0
split_feature=13 19 21 19 19 19
split_gain=9.8575 3.11135 1.4243 0.612731 0.280059 0.0244019
threshold=-0.43294835644244112 0.65929881628687659 1.8512002316722735 -0.29545062902359398 0.11493472041453487 1.2748768404440696
decision_type=2 2 2 2 2 2
left_child=3 2 4 -1 -2 -3
right_child=1 5 -4 -5 -6 -7
leaf_value=-0.0076472067507934206 -0.002543051686997597 0.0036275265508509697 0.0061687827925197775 -0.00013509690451125306 0 0.011301356353189634
leaf_weight=92 46 41 26 30 41 40
leaf_count=92 46 41 26 30 41 40
internal_value=0 0.00429624 0.000410849 -0.00636164 -0.00095172 0.00862478
internal_weight=0 194 113 122 87 81
internal_count=316 194 113 122 87 81
is_linear=0
shrinkage=0.03


Tree=16
num_leaves=5
num_cat=0
split_feature=19 20 19 19
split_gain=9.40566 4.54787 1.01672 0.545898
threshold=0.39375535488573415 1.6954399334910593 1.0000000180025095e-35 1.2748768404440696
decision_type=2 2 2 2
left_child=1 2 -1 -2
right_child=3 -3 -4 -5
leaf_value=-0.0064971003525179658 0.0033892876282334327 0.0057325044274330137 0 0.011006538258946459
leaf_weight=146 63 30 37 40
leaf_count=146 63 30 37 40
internal_value=0 -0.00343974 -0.00539509 0.00734093
internal_weight=0 213 183 103
internal_count=316 213 183 103
is_linear=0
shrinkage=0.03


Tree=17
num_leaves=6
num_cat=0
split_feature=13 19 21 19 19
split_gain=8.93236 2.79058 1.28508 0.555682 0.242775
threshold=-0.43294835644244112 0.65929881628687659 1.8512002316722735 -0.40287502931769242 0.11493472041453487
decision_type=2 2 2 2 2
left_child=3 2 4 -1 -2
right_child=1 -3 -4 -5 -6
leaf_value=-0.0072904908265342414 -0.0023542932455445855 0.0082178848776324042 0.0058786887489259239 -0.00013047631804806155 0
leaf_weight=91 46 81 26 31 41
leaf_count=91 46 81 26 31 41
internal_value=0 0.00411275 0.000399943 -0.00603129 -0.000865858
internal_weight=0 194 113 122 87
internal_count=316 194 113 122 87
is_linear=0
shrinkage=0.03


Tree=18
num_leaves=6
num_cat=0
split_feature=13 19 21 19 19
split_gain=8.47525 2.62714 1.15958 0.508432 0.247668
threshold=-0.43294835644244112 0.73171976030536967 1.9402259114641314 -0.24596298394429039 0.17649252283025421
decision_type=2 2 2 2 2
left_child=3 2 4 -1 -2
right_child=1 -3 -4 -5 -6
leaf_value=-0.0067818873008836135 -0.0020032795949373396 0.0082650282675469349 0.0059529736116528511 0 0.00028475790304389407
leaf_weight=100 54 75 24 22 41
leaf_count=100 54 75 24 22 41
internal_value=0 0.00400622 0.000574208 -0.00587485 -0.000463497
internal_weight=0 194 119 122 95
internal_count=316 194 119 122 95
is_linear=0
shrinkage=0.03


Tree=19
num_leaves=6
num_cat=0
split_feature=19 20 19 19 19
split_gain=8.0399 4.01649 0.985485 0.502004 0.0659885
threshold=0.39375535488573415 0.89343389547301544 -0.51150644534543244 1.2748768404440696 0.11493472041453487
decision_type=2 2 2 2 2
left_child=1 2 -1 -2 -4
right_child=3 -3 4 -5 -6
leaf_value=-0.0074189821810132879 0.0030214412202653677 0.004521629944765875 -0.0020300020523849995 0.010289422293072161 0
leaf_weight=96 63 37 56 40 24
leaf_count=96 63 37 56 40 24
internal_value=0 -0.0031606 -0.00520111 0.00680544 -0.00151007
internal_weight=0 213 176 103 80
internal_count=316 213 176 103 80
is_linear=0
shrinkage=0.03


Tree=20
num_leaves=6
num_cat=0
split_feature=13 19 19 13 1
split_gain=7.63712 1.63604 1.26658 0.249466 0.198162
threshold=1.0000000180025095e-35 1.214526053761992 1.0000000180025095e-35 0.51132693821219333 -0.97189044597675578
decision_type=2 2 2 2 2
left_child=2 3 -1 -2 -5
right_child=1 -3 -4 4 -6
leaf_value=-0.0057196073730323297 0 0.0096476944863796224 0 0 0.0038306208288875114
leaf_weight=128 43 44 28 21 52
leaf_count=128 43 44 28 21 52
internal_value=0 0.00467605 -0.00447472 0.00191672 0.00291814
internal_weight=0 160 156 116 73
internal_count=316 160 156 116 73
is_linear=0
shrinkage=0.03


Tree=21
num_leaves=6
num_cat=0
split_feature=19 20 19 19 19
split_gain=7.27622 3.71199 0.877813 0.407848 0.0536998
threshold=0.39375535488573415 0.89343389547301544 -0.51150644534543244 1.2748768404440696 0.11493472041453487
decision_type=2 2 2 2 2
left_child=1 2 -1 -2 -4
right_child=3 -3 4 -5 -6
leaf_value=-0.0070609124877270965 0.002874404102887796 0.00437675561230673 -0.0018827523086820878 0.0097756151466265959 0
leaf_weight=96 63 37 56 40 24
leaf_count=96 63 37 56 40 24
internal_value=0 -0.00298374 -0.00495406 0.00649552 -0.00141193
internal_weight=0 213 176 103 80
internal_count=316 213 176 103 80
is_linear=0
shrinkage=0.03


Tree=22
num_leaves=6
num_cat=0
split_feature=19 20 19 19 20
split_gain=6.90965 3.53964 0.854763 0.377924 0.226742
threshold=0.39375535488573415 0.60553429208192233 -0.11319125324371916 1.0938244803978363 2.2095463681180112
decision_type=2 2 2 2 2
left_child=1 2 -1 -2 -3
right_child=3 4 -4 -5 -6
leaf_value=-0.0061511361521126616 0.0021491031289884916 0 0 0.0087646543748419858 0.0059774584910617431
leaf_weight=128 51 20 45 52 20
leaf_count=128 51 20 45 52 20
internal_value=0 -0.00289862 -0.00490172 0.00633806 0.00396976
internal_weight=0 213 173 103 40
internal_count=316 213 173 103 40
is_linear=0
shrinkage=0.03


Tree=23
num_leaves=6
num_cat=0
split_feature=13 19 21 19 19
split_gain=6.54854 1.99903 1.01647 0.415475 0.212911
threshold=-0.43294835644244112 0.65929881628687659 1.6676484642155198 -0.43908550132693919 0.067861106802514087
decision_type=2 2 2 2 2
left_child=3 2 4 -1 -2
right_child=1 -3 -4 -5 -6
leaf_value=-0.0063245796442272205 -0.0023459885647500178 0.007056805260222533 0.0049757567940812023 -0.00015506204058666052 0
leaf_weight=87 40 81 29 35 44
leaf_count=87 40 81 29 35 44
internal_value=0 0.00356833 0.000333822 -0.00511362 -0.000826963
internal_weight=0 194 113 122 84
internal_count=316 194 113 122 84
is_linear=0
shrinkage=0.03


Tree=24
num_leaves=7
num_cat=0
split_feature=19 20 19 19 20 19
split_gain=6.22107 3.25286 0.764436 0.352019 0.201032 0.0427548
threshold=0.39375535488573415 0.60553429208192233 -0.51150644534543244 1.2748768404440696 2.2095463681180112 0.15235220815742306
decision_type=2 2 2 2 2 2
left_child=1 2 -1 -2 -3 -4
right_child=3 4 5 -5 -6 -7
leaf_value=-0.0066693064279854299 0.0025767622143030165 0 -0.0016748731361613386 0.0091078656749880825 0.0057246917966180125 0
leaf_weight=94 63 20 57 40 20 22
leaf_count=94 63 20 57 40 20 22
internal_value=0 -0.00273802 -0.00466667 0.00602531 0.0038197 -0.00127532
internal_weight=0 213 173 103 40 79
internal_count=316 213 173 103 40 79
is_linear=0
shrinkage=0.03


Tree=25
num_leaves=7
num_cat=0
split_feature=13 19 21 19 19 19
split_gain=5.9046 1.8039 0.75014 0.344319 0.278186 0.0170462
threshold=-0.43294835644244112 1.0214035363793434 2.1372118997928848 -0.43908550132693919 0.30926425353082537 0.11493472041453487
decision_type=2 2 2 2 2 2
left_child=3 2 4 -1 5 -2
right_child=1 -3 -4 -5 -6 -7
leaf_value=-0.0059690487420847333 -0.001512731049503935 0.007894621254479298 0.0054659991130594984 -0.00012186717378293595 0.0015975973129553616 0
leaf_weight=87 51 55 21 35 47 20
leaf_count=87 51 55 21 35 47 20
internal_value=0 0.00339843 0.000952517 -0.00484467 0 -0.00122259
internal_weight=0 194 139 122 118 71
internal_count=316 194 139 122 118 71
is_linear=0
shrinkage=0.03


Tree=26
num_leaves=8
num_cat=0
split_feature=13 19 19 21 1 16 19
split_gain=5.62509 1.52373 0.634144 0.520744 0.104521 0.0929088 0.012473
threshold=0.30604970024379435 0.067861106802514087 1.3955784138082252 -0.014932212139100818 -0.97189044597675578 0.29449939097076588 0.46617629890422768
decision_type=2 2 2 2 2 2 2
left_child=1 3 4 -1 -2 -6 -3
right_child=2 6 -4 -5 5 -7 -8
leaf_value=-0.00529128127803023 0 0 0.0090061400905251509 0 0.0040071540402815391 0 0.00120962375568019
leaf_weight=124 22 22 34 22 40 31 21
leaf_count=124 22 22 34 22 40 31 21
internal_value=0 -0.00306171 0.00493159 -0.0045675 0.00238037 0.00291663 0.000759705
internal_weight=0 189 127 146 93 71 43
internal_count=316 189 127 146 93 71 43
is_linear=0
shrinkage=0.03


Tree=27
num_leaves=6
num_cat=0
split_feature=19 20 19 19 20
split_gain=5.3717 2.90615 0.647099 0.254321 0.1585
threshold=0.39375535488573415 0.60553429208192233 -0.089050938570888014 1.2748768404440696 2.2095463681180112
decision_type=2 2 2 2 2
left_child=1 2 -1 -2 -3
right_child=3 4 -4 -5 -6
leaf_value=-0.0053787675624998813 0.0023845687670552211 0 0 0.008458063116540078 0.0053970906888851184
leaf_weight=131 63 20 42 40 20
leaf_count=131 63 20 42 40 20
internal_value=0 -0.00251055 -0.00434618 0.00562941 0.00365553
internal_weight=0 213 173 103 40
internal_count=316 213 173 103 40
is_linear=0
shrinkage=0.03


Tree=28
num_leaves=8
num_cat=0
split_feature=13 19 19 21 1 16 19
split_gain=5.09829 1.36677 0.537926 0.48738 0.102541 0.068062 0.0189783
threshold=0.30604970024379435 0.031650634793267379 1.4438590431538876 -0.014932212139100818 -0.97189044597675578 0.49499522754723618 0.46617629890422768
decision_type=2 2 2 2 2 2 2
left_child=1 3 4 -1 -2 -6 -3
right_child=2 6 -4 -5 5 -7 -8
leaf_value=-0.0050750129587772324 0 0 0.0088232081323056603 0 0.0037429851024913096 0 0.001092017644809352
leaf_weight=121 22 25 31 22 46 28 21
leaf_count=121 22 25 31 22 46 28 21
internal_value=0 -0.00287996 0.00472655 -0.00435993 0.00237424 0.00288804 0.000539178
internal_weight=0 189 127 143 96 74 46
internal_count=316 189 127 143 96 74 46
is_linear=0
shrinkage=0.03


Tree=29
num_leaves=6
num_cat=0
split_feature=19 20 19 19 19
split_gain=4.871 2.58644 0.674583 0.0976284 0.0745632
threshold=0.46617629890422768 1.6954399334910593 -0.62134487710681419 1.0938244803978363 0.17649252283025421
decision_type=2 2 2 2 2
left_child=1 2 -1 -2 -4
right_child=3 -3 4 -5 -6
leaf_value=-0.0058097291313307852 0.0017400154931580319 0.0045287189578327039 -0.0015532645504785384 0.0074011790688181742 0
leaf_weight=89 45 30 76 52 24
leaf_count=89 45 30 76 52 24
internal_value=0 -0.00225159 -0.00374175 0.00561174 -0.00111054
internal_weight=0 219 189 97 100
internal_count=316 219 189 97 100
is_linear=0
shrinkage=0.03


Tree=30
num_leaves=6
num_cat=0
split_feature=13 19 21 19 19
split_gain=4.63301 1.36936 0.773883 0.309453 0.142732
threshold=-0.43294835644244112 0.65929881628687659 1.6676484642155198 -0.51150644534543244 0.17649252283025421
decision_type=2 2 2 2 2
left_child=3 2 4 -1 -2
right_child=1 -3 -4 -5 -6
leaf_value=-0.0053397005411485827 -0.0017432857232845642 0.0059744490991378652 0.0043668372455452171 -1.2513201006434181e-05 0
leaf_weight=84 49 81 29 38 35
leaf_count=84 49 81 29 38 35
internal_value=0 0.00306804 0.000284296 -0.00422753 -0.000655645
internal_weight=0 194 113 122 84
internal_count=316 194 113 122 84
is_linear=0
shrinkage=0.03


Tree=31
num_leaves=8
num_cat=0
split_feature=13 19 19 21 1 16 19
split_gain=4.40902 1.18332 0.459959 0.459535 0.0890617 0.0596811 0.0344684
threshold=0.30604970024379435 1.0000000180025095e-35 1.4438590431538876 -0.014932212139100818 -0.97189044597675578 0.49499522754723618 0.30926425353082537
decision_type=2 2 2 2 2 2 2
left_child=1 3 4 -1 -2 -6 -3
right_child=2 6 -4 -5 5 -7 -8
leaf_value=-0.004810508562297356 0 0 0.0082652376753252904 0 0.0034417756435532981 0 0.0010278170742094516
leaf_weight=117 22 22 31 22 46 28 28
leaf_count=117 22 22 31 22 46 28 28
internal_value=0 -0.00265317 0.00441782 -0.00409605 0.00217408 0.00265111 0.000295693
internal_weight=0 189 127 139 96 74 50
internal_count=316 189 127 139 96 74 50
is_linear=0
shrinkage=0.03


Tree=32
num_leaves=7
num_cat=0
split_feature=19 20 19 19 20 19
split_gain=4.20762 2.39582 0.535266 0.161601 0.12251 0.0284298
threshold=0.39375535488573415 0.60553429208192233 -0.62134487710681419 1.4438590431538876 2.2095463681180112 0.15235220815742306
decision_type=2 2 2 2 2 2
left_child=1 2 -1 -2 -3 -4
right_child=3 4 5 -5 -6 -7
leaf_value=-0.0058153450610430053 0.0023219678100002438 0 -0.0014578039345104952 0.0079977980141456313 0.0049429086488313395 0
leaf_weight=83 70 20 68 33 20 22
leaf_count=83 70 20 68 33 20 22
internal_value=0 -0.00216711 -0.00385474 0.00503104 0.00337826 -0.00117117
internal_weight=0 213 173 103 40 90
internal_count=316 213 173 103 40 90
is_linear=0
shrinkage=0.03


Tree=33
num_leaves=8
num_cat=0
split_feature=13 19 21 19 1 16 19
split_gain=4.00057 1.06656 0.399289 0.380828 0.0799354 0.0505522 0.00428955
threshold=0.30604970024379435 0.067861106802514087 -0.014932212139100818 1.4438590431538876 -0.97189044597675578 0.49499522754723618 0.46617629890422768
decision_type=2 2 2 2 2 2 2
left_child=1 2 -1 4 -2 -6 -3
right_child=3 6 -4 -5 5 -7 -8
leaf_value=-0.004406181944104341 0 0 0 0.0078564638745140386 0.003279030931970248 0 0.00081187535077333452
leaf_weight=124 22 22 22 31 46 28 21
leaf_count=124 22 22 22 31 46 28 21
internal_value=0 -0.00249979 -0.00377362 0.00423263 0.00208088 0.00253379 0.000533304
internal_weight=0 189 146 127 96 74 43
internal_count=316 189 146 127 96 74 43
is_linear=0
shrinkage=0.03


Tree=34
num_leaves=7
num_cat=0
split_feature=19 20 19 19 20 19
split_gain=3.8244 2.21753 0.490609 0.129058 0.108868 0.02092
threshold=0.39375535488573415 0.60553429208192233 -0.62134487710681419 0.65929881628687659 2.2095463681180112 0.15235220815742306
decision_type=2 2 2 2 2 2
left_child=1 2 -1 -2 -3 -4
right_child=3 4 5 -5 -6 -7
leaf_value=-0.0055501651529515725 0 0 -0.0013206992112100124 0.0054882913269102569 0.0047720889718486708 0
leaf_weight=83 21 20 68 82 20 22
leaf_count=83 21 20 68 82 20 22
internal_value=0 -0.00203689 -0.00366951 0.00482209 0.00327744 -0.00107163
internal_weight=0 213 173 103 40 90
internal_count=316 213 173 103 40 90
is_linear=0
shrinkage=0.03


Tree=35
num_leaves=7
num_cat=0
split_feature=19 20 19 19 20 19
split_gain=3.62072 2.12475 0.449182 0.121172 0.0995097 0.0194538
threshold=0.39375535488573415 0.60553429208192233 -0.62134487710681419 1.4438590431538876 2.2095463681180112 0.15235220815742306
decision_type=2 2 2 2 2 2
left_child=1 2 -1 -2 -3 -4
right_child=3 4 5 -5 -6 -7
leaf_value=-0.0053948851955238353 0.002117088212582626 0 -0.0012842907180153841 0.0074668635313327493 0.0046619638227499444 0
leaf_weight=83 70 20 68 33 20 22
leaf_count=83 70 20 68 33 20 22
internal_value=0 -0.00197456 -0.00357725 0.00469822 0.00321519 -0.00104357
internal_weight=0 213 173 103 40 90
internal_count=316 213 173 103 40 90
is_linear=0
shrinkage=0.03


Tree=36
num_leaves=8
num_cat=0
split_feature=13 19 21 19 1 16 19
split_gain=3.44639 0.918662 0.384213 0.31891 0.0718383 0.0315303 0.0218727
threshold=0.30604970024379435 1.0000000180025095e-35 -0.014932212139100818 1.5645606165180432 -0.97189044597675578 0.49499522754723618 0.30926425353082537
decision_type=2 2 2 2 2 2 2
left_child=1 2 -1 4 -2 -6 -3
right_child=3 6 -4 -5 5 -7 -8
leaf_value=-0.0042178659622625608 0 0 0 0.0075881045706131869 0.0030658335378393529 0 0.00080405807341722886
leaf_weight=117 22 22 22 28 48 29 28
leaf_count=117 22 22 22 28 48 29 28
internal_value=0 -0.00228476 -0.0035646 0.00395958 0.00198694 0.00240278 0.00020248
internal_weight=0 189 139 127 99 77 50
internal_count=316 189 139 127 99 77 50
is_linear=0
shrinkage=0.03


Tree=37
num_leaves=7
num_cat=0
split_feature=19 20 19 19 20 19
split_gain=3.29458 1.96967 0.406065 0.101064 0.0876816 0.0138821
threshold=0.39375535488573415 0.60553429208192233 -0.62134487710681419 0.65929881628687659 2.2095463681180112 0.15235220815742306
decision_type=2 2 2 2 2 2
left_child=1 2 -1 -2 -3 -4
right_child=3 4 5 -5 -6 -7
leaf_value=-0.0051458488103379016 0 0 -0.0011680514748032029 0.0051157411293719299 0.004501317564684611 0
leaf_weight=83 21 20 68 82 20 22
leaf_count=83 21 20 68 82 20 22
internal_value=0 -0.00185662 -0.00340859 0.00450491 0.00312039 -0.000959967
internal_weight=0 213 173 103 40 90
internal_count=316 213 173 103 40 90
is_linear=0
shrinkage=0.03


Tree=38
num_leaves=7
num_cat=0
split_feature=19 20 19 19 20 19
split_gain=3.11946 1.88821 0.371405 0.0978537 0.0795292 0.00942484
threshold=0.39375535488573415 0.60553429208192233 -0.57185723202751026 1.0938244803978363 2.2095463681180112 0.15235220815742306
decision_type=2 2 2 2 2 2
left_child=1 2 -1 -2 -3 -4
right_child=3 4 5 -5 -6 -7
leaf_value=-0.0049139109746583051 0.0012119203962777788 0 -0.0010318092222192457 0.0060236450027802892 0.0043974410814161483 0
leaf_weight=87 51 20 64 52 20 22
leaf_count=87 51 20 64 52 20 22
internal_value=0 -0.00179956 -0.0033237 0.00438946 0.00306168 -0.000847257
internal_weight=0 213 173 103 40 86
internal_count=316 213 173 103 40 86
is_linear=0
shrinkage=0.03


Tree=39
num_leaves=8
num_cat=0
split_feature=13 19 21 19 1 16 19
split_gain=2.97438 0.784061 0.347464 0.27292 0.0594211 0.0264496 0.0157071
threshold=0.30604970024379435 1.0000000180025095e-35 -0.014932212139100818 1.5645606165180432 -0.97189044597675578 0.49499522754723618 0.30926425353082537
decision_type=2 2 2 2 2 2 2
left_child=1 2 -1 4 -2 -6 -3
right_child=3 6 -4 -5 5 -7 -8
leaf_value=-0.0038986622496712492 0 0 0 0.0071254251722027264 0.0028002121097718677 0 0.00066718914819990883
leaf_weight=117 22 22 22 28 48 29 28
leaf_count=117 22 22 22 28 48 29 28
internal_value=0 -0.00209048 -0.0032767 0.00370607 0.00181565 0.00219424 0.000133523
internal_weight=0 189 139 127 99 77 50
internal_count=316 189 139 127 99 77 50
is_linear=0
shrinkage=0.03


Tree=40
num_leaves=7
num_cat=0
split_feature=19 20 19 19 20 19
split_gain=2.83729 1.75219 0.335723 0.0717914 0.06935 0.00841863
threshold=0.39375535488573415 0.60553429208192233 -0.62134487710681419 0.65929881628687659 2.2095463681180112 0.15235220815742306
decision_type=2 2 2 2 2 2
left_child=1 2 -1 -2 -3 -4
right_child=3 4 5 -5 -6 -7
leaf_value=-0.0047737248080751199 0 0 -0.0010263807376897013 0.0047608544669029383 0.0042474964547615781 0
leaf_weight=83 21 20 68 82 20 22
leaf_count=83 21 20 68 82 20 22
internal_value=0 -0.00169081 -0.00316793 0.00420787 0.00297328 -0.000856222
internal_weight=0 213 173 103 40 90
internal_count=316 213 173 103 40 90
is_linear=0
shrinkage=0.03


Tree=41
num_leaves=7
num_cat=0
split_feature=13 19 21 19 1 16
split_gain=2.69114 0.707504 0.304621 0.246186 0.051151 0.024843
threshold=0.30604970024379435 0.067861106802514087 -0.014932212139100818 1.5645606165180432 -0.97189044597675578 0.53056337328643532
decision_type=2 2 2 2 2 2
left_child=1 2 -1 4 -2 -6
right_child=3 -3 -4 -5 5 -7
leaf_value=-0.0035728822293189851 0 0.00031746074783007552 0 0.0068317642282037169 0.0025843489313099001 0
leaf_weight=124 22 43 22 28 50 27
leaf_count=124 22 43 22 28 50 27
internal_value=0 -0.00196578 -0.00301897 0.00354449 0.00170607 0.00205836
internal_weight=0 189 146 127 99 77
internal_count=316 189 146 127 99 77
is_linear=0
shrinkage=0.03


Tree=42
num_leaves=7
num_cat=0
split_feature=19 21 19 20 19 19
split_gain=2.57543 1.62752 0.250781 0.162434 0.0595943 0.00404549
threshold=0.39375535488573415 1.6676484642155198 -0.62134487710681419 -0.26022094382986333 0.86449149100594103 0.15235220815742306
decision_type=2 2 2 2 2 2
left_child=1 2 3 -1 -2 -4
right_child=4 -3 5 -5 -6 -7
leaf_value=-0.0050009947894392786 0.00061197231662400221 0.0036486887373030187 -0.00089469139952248387 0 0.0051518656861256149 0
leaf_weight=68 41 30 72 21 62 22
leaf_count=68 41 30 72 21 62 22
internal_value=0 -0.00158782 -0.00285231 -0.00423587 0.00402834 -0.000766785
internal_weight=0 213 183 89 103 94
internal_count=316 213 183 89 103 94
is_linear=0
shrinkage=0.03


Tree=43
num_leaves=7
num_cat=0
split_feature=19 20 19 20 19 19
split_gain=2.45348 1.55736 0.279543 0.0609647 0.0554482 0.00398632
threshold=0.39375535488573415 0.60553429208192233 -0.62134487710681419 2.2095463681180112 1.5645606165180432 0.15235220815742306
decision_type=2 2 2 2 2 2
left_child=1 2 -1 -3 -2 -4
right_child=4 3 5 -5 -6 -7
leaf_value=-0.0044424386605034383 0.0017548161484301089 0 -0.00089544705241113094 0.0040205477865842675 0.0065248307500566753 0
leaf_weight=83 74 20 68 20 29 22
leaf_count=83 74 20 68 20 29 22
internal_value=0 -0.00154741 -0.0029527 0.00281848 0.00393353 -0.000762038
internal_weight=0 213 173 40 103 90
internal_count=316 213 173 40 103 90
is_linear=0
shrinkage=0.03


Tree=44
num_leaves=7
num_cat=0
split_feature=19 20 19 20 19 19
split_gain=2.33509 1.49432 0.252624 0.0546289 0.0435098 0.00161069
threshold=0.39375535488573415 0.60553429208192233 -0.57185723202751026 2.2095463681180112 0.65929881628687659 0.15235220815742306
decision_type=2 2 2 2 2 2
left_child=1 2 -1 -3 -2 -4
right_child=4 3 5 -5 -6 -7
leaf_value=-0.0042399728184025131 0 0 -0.00077763238868543074 0.003927765938525017 0.0043317148305306377 0
leaf_weight=87 21 20 64 20 82 22
leaf_count=87 21 20 64 20 82 22
internal_value=0 -0.00149957 -0.00288069 0.00276604 0.00384571 -0.000666596
internal_weight=0 213 173 40 103 86
internal_count=316 213 173 40 103 86
is_linear=0
shrinkage=0.03


Tree=45
num_leaves=8
num_cat=0
split_feature=13 13 19 1 19 16 19
split_gain=2.212 0.586738 0.195242 0.0409581 0.0250097 0.0241946 0.0109509
threshold=0.30604970024379435 -0.76139193719187903 1.5645606165180432 -0.97189044597675578 0.2489134668487476 0.53056337328643532 -0.57185723202751026
decision_type=2 2 2 2 2 2 2
left_child=1 6 3 -2 -3 -5 -1
right_child=2 4 -4 5 -6 -7 -8
leaf_value=-0.0039408730645345089 0 -0.00046639025523901391 0.0062674777297412644 0.002301549153385817 0.00040212203196261255 0 0
leaf_weight=67 22 67 28 50 35 27 20
leaf_count=67 22 67 28 50 35 27 20
internal_value=0 -0.00174797 0.00324193 0.00150555 0 0.00181978 -0.00347629
internal_weight=0 189 127 99 102 77 87
internal_count=316 189 127 99 102 77 87
is_linear=0
shrinkage=0.03


Tree=46
num_leaves=6
num_cat=0
split_feature=19 21 19 21 19
split_gain=2.12979 1.40114 0.179712 0.102616 0.0340768
threshold=0.39375535488573415 1.6676484642155198 -0.089050938570888014 -0.014932212139100818 0.92484227768801885
decision_type=2 2 2 2 2
left_child=1 2 3 -1 -2
right_child=4 -3 -4 -5 -6
leaf_value=-0.0035128051149845123 0.00060172947049140924 0.003395114936865866 0 0 0.0047875701424020985
leaf_weight=119 44 30 42 22 59
leaf_count=119 44 30 42 22 59
internal_value=0 -0.00142117 -0.0026109 -0.00314082 0.00368145
internal_weight=0 213 183 141 103
internal_count=316 213 183 141 103
is_linear=0
shrinkage=0.03


Tree=47
num_leaves=6
num_cat=0
split_feature=19 21 19 21 19
split_gain=2.02529 1.33603 0.165343 0.080034 0.0351341
threshold=0.39375535488573415 1.6676484642155198 0.031650634793267379 -0.014932212139100818 1.5645606165180432
decision_type=2 2 2 2 2
left_child=1 2 3 -1 -2
right_child=4 -3 -4 -5 -6
leaf_value=-0.0032711598146706821 0.0015316038227174431 0.0033102370395014682 0 0 0.0059851985488619114
leaf_weight=129 74 30 32 22 29
leaf_count=129 74 30 32 22 29
internal_value=0 -0.00137786 -0.00254455 -0.00295673 0.00359642
internal_weight=0 213 183 151 103
internal_count=316 213 183 151 103
is_linear=0
shrinkage=0.03


Tree=48
num_leaves=6
num_cat=0
split_feature=19 20 19 20 19
split_gain=1.92787 1.27353 0.169673 0.132549 0.0233604
threshold=0.39375535488573415 1.6954399334910593 -0.62134487710681419 -0.26022094382986333 1.5645606165180432
decision_type=2 2 2 2 2
left_child=1 2 3 -1 -2
right_child=4 -3 -4 -5 -6
leaf_value=-0.0043439912916840738 0.0014891018187627196 0.003228825417657693 -0.00059991926463771959 0 0.0058364235673631932
leaf_weight=68 74 30 94 21 29
leaf_count=68 74 30 94 21 29
internal_value=0 -0.00133366 -0.00247783 -0.0036665 0.00351746
internal_weight=0 213 183 89 103
internal_count=316 213 183 89 103
is_linear=0
shrinkage=0.03


Tree=49
num_leaves=7
num_cat=0
split_feature=19 21 19 20 19 19
split_gain=1.84084 1.21885 0.223089 0.0627483 0.0221893 0.00223908
threshold=0.39375535488573415 0.47401380907017565 -0.69376582112530738 2.2095463681180112 0.65929881628687659 0.15235220815742306
decision_type=2 2 2 2 2 2
left_child=1 2 -1 -3 -2 -4
right_child=4 3 5 -5 -6 -7
leaf_value=-0.004118318362633073 0 0 -0.00081557553045724228 0.0035691166726442482 0.0038586414099501618 0
leaf_weight=73 21 22 76 20 82 22
leaf_count=73 21 22 76 20 82 22
internal_value=0 -0.00129874 -0.00259468 0.00239239 0.00344055 -0.000710689
internal_weight=0 213 171 42 103 98
internal_count=316 213 171 42 103 98
is_linear=0
shrinkage=0.03


Tree=50
num_leaves=6
num_cat=0
split_feature=19 21 19 21 19
split_gain=1.74451 1.17057 0.142562 0.0757158 0.0228303
threshold=0.39375535488573415 1.6676484642155198 -0.089050938570888014 -0.014932212139100818 1.4438590431538876
decision_type=2 2 2 2 2
left_child=1 2 3 -1 -2
right_child=4 -3 -4 -5 -6
leaf_value=-0.0031664343421161172 0.0012641479530812877 0.0030899659257071711 0 0 0.0053705635265662117
leaf_weight=119 70 30 42 22 33
leaf_count=119 70 30 42 22 33
internal_value=0 -0.00125884 -0.00236469 -0.0028394 0.00335346
internal_weight=0 213 183 141 103
internal_count=316 213 183 141 103
is_linear=0
shrinkage=0.03


Tree=51
num_leaves=8
num_cat=0
split_feature=13 13 19 1 16 19 19
split_gain=1.66301 0.440634 0.122564 0.0170093 0.02023 0.0166527 0.00891138
threshold=0.30604970024379435 -0.76139193719187903 1.6249114032001211 -0.97189044597675578 0.49499522754723618 -0.69376582112530738 0.2489134668487476
decision_type=2 2 2 2 2 2 2
left_child=1 5 3 -2 -5 -1 -3
right_child=2 6 -4 4 -6 -7 -8
leaf_value=-0.0035865507332536462 0 -0.00028404088008332333 0.0056051984662190074 0.0019881748250271713 0 0 0.00022796336453544293
leaf_weight=59 24 67 26 48 29 28 35
leaf_count=59 24 67 26 48 29 28 35
internal_value=0 -0.00147554 0.00284303 0.00129679 0.00153374 -0.00297142 0
internal_weight=0 189 127 101 77 87 102
internal_count=316 189 127 101 77 87 102
is_linear=0
shrinkage=0.03


Tree=52
num_leaves=7
num_cat=0
split_feature=19 21 19 20 19 19
split_gain=1.60442 1.09438 0.181285 0.0542549 0.00965049 0.00014331
threshold=0.39375535488573415 0.47401380907017565 -0.69376582112530738 2.2095463681180112 0.86449149100594103 0.15235220815742306
decision_type=2 2 2 2 2 2
left_child=1 2 -1 -3 -2 -4
right_child=4 3 5 -5 -6 -7
leaf_value=-0.0038470662307418602 0.00028256963066598199 0 -0.00072691285687430602 0.0033816902597363177 0.0040924512233365979 0
leaf_weight=73 41 22 76 20 62 22
leaf_count=73 41 22 76 20 62 22
internal_value=0 -0.00119512 -0.00243473 0.00227533 0.00322539 -0.000644503
internal_weight=0 213 171 42 103 98
internal_count=316 213 171 42 103 98
is_linear=0
shrinkage=0.03


Tree=53
num_leaves=6
num_cat=0
split_feature=19 21 19 20 19
split_gain=1.52694 1.05136 0.161826 0.049347 0.00426628
threshold=0.39375535488573415 0.47401380907017565 -0.69376582112530738 2.2095463681180112 0.65929881628687659
decision_type=2 2 2 2 2
left_child=1 2 -1 -3 -2
right_child=4 3 -4 -5 -6
leaf_value=-0.0037404196889175077 0 0 -0.00062856730671438318 0.003303651216511543 0.003514608740594915
leaf_weight=73 21 22 98 20 82
leaf_count=73 21 22 98 20 82
internal_value=0 -0.00115834 -0.00237776 0.00223306 0.00315237
internal_weight=0 213 171 42 103
internal_count=316 213 171 42 103
is_linear=0
shrinkage=0.03


Tree=54
num_leaves=7
num_cat=0
split_feature=13 19 21 13 19 19
split_gain=1.44774 0.382427 0.198401 0.125913 0.0584307 0.00127142
threshold=0.30604970024379435 -0.19768235459862812 -0.014932212139100818 1.2503249948984287 0.46617629890422768 0.2489134668487476
decision_type=2 2 2 2 2 2
left_child=1 2 -1 4 -2 -3
right_child=3 5 -4 -5 -6 -7
leaf_value=-0.0027959650423608519 0 0 0 0.0045918633835452128 0.0014379183962491564 0.00016706050592247486
leaf_weight=107 34 25 22 41 52 35
leaf_count=107 34 25 22 41 52 35
internal_value=0 -0.00135991 -0.00228491 0.00266559 0.000855505 0
internal_weight=0 189 129 127 86 60
internal_count=316 189 129 127 86 60
is_linear=0
shrinkage=0.03


Tree=55
num_leaves=6
num_cat=0
split_feature=19 21 19 20 19
split_gain=1.39195 0.978619 0.10388 0.051209 0.00899131
threshold=0.39375535488573415 1.6676484642155198 0.031650634793267379 -0.26022094382986333 1.5645606165180432
decision_type=2 2 2 2 2
left_child=1 2 3 -1 -2
right_child=4 -3 -4 -5 -6
leaf_value=-0.002740318565206094 0.0011514663607813417 0.002838176828421031 0 0 0.0050617165714502334
leaf_weight=126 74 30 32 25 29
leaf_count=126 74 30 32 25 29
internal_value=0 -0.00109145 -0.00212276 -0.00245358 0.00302089
internal_weight=0 213 183 151 103
internal_count=316 213 183 151 103
is_linear=0
shrinkage=0.03


Tree=56
num_leaves=5
num_cat=0
split_feature=19 20 19 20
split_gain=1.32692 0.933754 0.097929 0.0941943
threshold=0.39375535488573415 1.6954399334910593 -0.62134487710681419 -0.26022094382986333
decision_type=2 2 2 2
left_child=1 2 3 -1
right_child=-2 -3 -4 -5
leaf_value=-0.0036089856821942975 0.0029570407454573779 0.0027689225773792716 -0.00041922091782325879 0
leaf_weight=68 103 30 94 21
leaf_count=68 103 30 94 21
internal_value=0 -0.00105581 -0.00206828 -0.00304192
internal_weight=0 213 183 89
internal_count=316 213 183 89
is_linear=0
shrinkage=0.03


Tree=57
num_leaves=6
num_cat=0
split_feature=19 21 19 21 19
split_gain=1.25435 0.894014 0.0925576 0.0402924 0.0153024
threshold=0.39375535488573415 1.6676484642155198 0.031650634793267379 -0.014932212139100818 1.5645606165180432
decision_type=2 2 2 2 2
left_child=1 2 3 -1 -2
right_child=4 -3 -4 -5 -6
leaf_value=-0.0025722049253268375 0.0010374552877619862 0.0027003067722156022 0 0 0.0048623932280710764
leaf_weight=129 74 30 32 22 29
leaf_count=129 74 30 32 22 29
internal_value=0 -0.00102818 -0.00202318 -0.00233627 0.00287321
internal_weight=0 213 183 151 103
internal_count=316 213 183 151 103
is_linear=0
shrinkage=0.03


Tree=58
num_leaves=5
num_cat=0
split_feature=19 20 19 20
split_gain=1.19658 0.822497 0.137938 0.0614079
threshold=0.46617629890422768 1.6954399334910593 -0.3678715730420874 -0.26022094382986333
decision_type=2 2 2 2
left_child=1 2 3 -1
right_child=-2 -3 -4 -5
leaf_value=-0.0029788314056943873 0.0029225299815710598 0.0026344421025714833 0 0
leaf_weight=92 97 30 74 23
leaf_count=92 97 30 74 23
internal_value=0 -0.000942311 -0.00188133 -0.00259422
internal_weight=0 219 189 115
internal_count=316 219 189 115
is_linear=0
shrinkage=0.03


Tree=59
num_leaves=7
num_cat=0
split_feature=13 13 13 19 19 19
split_gain=1.13284 0.300461 0.124287 0.042399 0.0181195 0.000544449
threshold=0.30604970024379435 -0.76139193719187903 1.2503249948984287 0.46617629890422768 -0.63341503444322977 0.2489134668487476
decision_type=2 2 2 2 2 2
left_child=1 4 3 -2 -1 -3
right_child=2 5 -4 -5 -6 -7
leaf_value=-0.0028420683461160439 0 -8.1347364602189456e-05 0.0041894360282953742 0.0011462200886634146 0 1.300490447092892e-05
leaf_weight=63 34 67 41 52 24 35
leaf_count=63 34 67 41 52 24 35
internal_value=0 -0.00117804 0.00237642 0.000643044 -0.00241195 0
internal_weight=0 189 127 86 87 102
internal_count=316 189 127 86 87 102
is_linear=0
shrinkage=0.03


Tree=60
num_leaves=6
num_cat=0
split_feature=19 21 19 20 19
split_gain=1.09528 0.79706 0.0757725 0.0282844 0.0169616
threshold=0.39375535488573415 1.6676484642155198 0.067861106802514087 -0.26022094382986333 0.92484227768801885
decision_type=2 2 2 2 2
left_child=1 2 3 -1 -2
right_child=4 -3 -4 -5 -6
leaf_value=-0.0024006640122582511 9.3914240458980211e-05 0.0025346959772286938 0 0 0.0035174068791361955
leaf_weight=129 44 30 29 25 59
leaf_count=129 44 30 29 25 59
internal_value=0 -0.0009516 -0.00190291 -0.00216878 0.00269107
internal_weight=0 213 183 154 103
internal_count=316 213 183 154 103
is_linear=0
shrinkage=0.03


Tree=61
num_leaves=6
num_cat=0
split_feature=19 20 19 20 19
split_gain=1.04303 0.760682 0.0792274 0.065186 0.0164144
threshold=0.39375535488573415 1.6954399334910593 -0.62134487710681419 -0.26022094382986333 1.733542819227861
decision_type=2 2 2 2 2
left_child=1 2 3 -1 -2
right_child=4 -3 -4 -5 -6
leaf_value=-0.0032266185311852274 0.0010239207751824167 0.0024728207037939378 -0.00030381000097549985 0 0.0049248669402939928
leaf_weight=68 81 30 94 21 22
leaf_count=68 81 30 94 21 22
internal_value=0 -0.000919594 -0.00185403 -0.00273717 0.00263282
internal_weight=0 213 183 89 103
internal_count=316 213 183 89 103
is_linear=0
shrinkage=0.03


Tree=62
num_leaves=5
num_cat=0
split_feature=19 21 19 19
split_gain=0.999364 0.728989 0.0707677 0.0108937
threshold=0.39375535488573415 1.6676484642155198 -0.69376582112530738 1.5645606165180432
decision_type=2 2 2 2
left_child=1 2 -1 -2
right_child=3 -3 -4 -5
leaf_value=-0.0027754719897799575 0.00083814236520265691 0.0024115687655285002 -0.00038451747778809578 0.0044053557706730702
leaf_weight=81 74 30 102 29
leaf_count=81 74 30 102 29
internal_value=0 -0.000895788 -0.00181478 0.00258017
internal_weight=0 213 183 103
internal_count=316 213 183 103
is_linear=0
shrinkage=0.03


Tree=63
num_leaves=6
num_cat=0
split_feature=19 21 19 20 19
split_gain=0.955761 0.70198 0.101468 0.0393155 0.00628065
threshold=0.39375535488573415 0.47401380907017565 -0.69376582112530738 2.2095463681180112 0.86449149100594103
decision_type=2 2 2 2 2
left_child=1 2 -1 -3 -2
right_child=4 3 -4 -5 -6
leaf_value=-0.0030154035114417959 0 0 -0.00037237845750776331 0.0027126965349396829 0.003213517466724357
leaf_weight=73 41 22 98 20 62
leaf_count=73 41 22 98 20 62
internal_value=0 -0.000869529 -0.00190364 0.00180245 0.00252794
internal_weight=0 213 171 42 103
internal_count=316 213 171 42 103
is_linear=0
shrinkage=0.03


Tree=64
num_leaves=6
num_cat=0
split_feature=19 21 19 20 19
split_gain=0.910988 0.67487 0.0891319 0.0360751 0.00758488
threshold=0.39375535488573415 0.47401380907017565 -0.69376582112530738 2.2095463681180112 1.733542819227861
decision_type=2 2 2 2 2
left_child=1 2 -1 -3 -2
right_child=4 3 -4 -5 -6
leaf_value=-0.0029318119827481106 0.00091897653275297884 0 -0.00036185159877487213 0.0026500958741570895 0.0046291931186403547
leaf_weight=73 81 22 98 20 22
leaf_count=73 81 22 98 20 22
internal_value=0 -0.000841808 -0.00186015 0.00176854 0.0024731
internal_weight=0 213 171 42 103
internal_count=316 213 171 42 103
is_linear=0
shrinkage=0.03


Tree=65
num_leaves=6
num_cat=0
split_feature=19 21 19 20 19
split_gain=0.871252 0.648943 0.0790278 0.0330096 0.000807485
threshold=0.39375535488573415 0.47401380907017565 -0.19768235459862812 2.2095463681180112 1.733542819227861
decision_type=2 2 2 2 2
left_child=1 2 -1 -3 -2
right_child=4 3 -4 -5 -6
leaf_value=-0.002263918463140726 0.00089330856129326381 0 0 0.0025889398118194478 0.0045200763855661663
leaf_weight=122 81 22 49 20 22
leaf_count=122 81 22 49 20 22
internal_value=0 -0.000814893 -0.00181786 0.00173541 0.00242459
internal_weight=0 213 171 42 103
internal_count=316 213 171 42 103
is_linear=0
shrinkage=0.03


Tree=66
num_leaves=5
num_cat=0
split_feature=19 20 19 20
split_gain=0.831731 0.596524 0.0900728 0.0271383
threshold=0.46617629890422768 1.6954399334910593 0.067861106802514087 -0.26022094382986333
decision_type=2 2 2 2
left_child=1 2 3 -1
right_child=-2 -3 -4 -5
leaf_value=-0.0020872955800344544 0.0024677714245626703 0.00222250453584517 0 0
leaf_weight=129 97 30 35 25
leaf_count=129 97 30 35 25
internal_value=0 -0.000741259 -0.0015733 -0.00187707
internal_weight=0 219 189 154
internal_count=316 219 189 154
is_linear=0
shrinkage=0.03


Tree=67
num_leaves=6
num_cat=0
split_feature=19 21 19 20 19
split_gain=0.783891 0.593473 0.081873 0.0301692 0.00705099
threshold=0.39375535488573415 0.47401380907017565 -0.69376582112530738 2.2095463681180112 1.2748768404440696
decision_type=2 2 2 2 2
left_child=1 2 -1 -3 -2
right_child=4 3 -4 -5 -6
leaf_value=-0.0027386344585838859 0.00042188774437501862 0 -0.0002792817164327761 0.0024779064888851001 0.0035398809158283732
leaf_weight=73 63 22 98 20 40
leaf_count=73 63 22 98 20 40
internal_value=0 -0.000756399 -0.00172541 0.00166138 0.00231142
internal_weight=0 213 171 42 103
internal_count=316 213 171 42 103
is_linear=0
shrinkage=0.03


Tree=68
num_leaves=6
num_cat=0
split_feature=19 21 19 20 19
split_gain=0.749365 0.571 0.0712286 0.0275148 0.00417704
threshold=0.39375535488573415 0.47401380907017565 -0.69376582112530738 2.2095463681180112 1.733542819227861
decision_type=2 2 2 2 2
left_child=1 2 -1 -3 -2
right_child=4 3 -4 -5 -6
leaf_value=-0.0026627153265982558 0.00077339902782114212 0 -0.00027138663730581287 0.0024207240192649455 0.0042719228299600729
leaf_weight=73 81 22 98 20 22
leaf_count=73 81 22 98 20 22
internal_value=0 -0.000732052 -0.00168689 0.0016304 0.00226513
internal_weight=0 213 171 42 103
internal_count=316 213 171 42 103
is_linear=0
shrinkage=0.03


Tree=69
num_leaves=5
num_cat=0
split_feature=19 20 19 20
split_gain=0.717632 0.50375 0.112672 0.0214301
threshold=0.53859724292272115 1.6954399334910593 0.17649252283025421 -0.26022094382986333
decision_type=2 2 2 2
left_child=1 2 3 -1
right_child=-2 -3 -4 -5
leaf_value=-0.0018643059269748371 0.0024113916778151175 0.0020852981476734084 0 0
leaf_weight=140 90 30 31 25
leaf_count=140 90 30 31 25
internal_value=0 -0.000622567 -0.00138369 -0.00168959
internal_weight=0 226 196 165
internal_count=316 226 196 165
is_linear=0
shrinkage=0.03


Tree=70
num_leaves=6
num_cat=0
split_feature=13 13 13 19 19
split_gain=0.677419 0.179539 0.111371 0.0198702 0.0109757
threshold=0.30604970024379435 -0.76139193719187903 1.2503249948984287 0.30926425353082537 -0.63341503444322977
decision_type=2 2 2 2 2
left_child=1 4 3 -2 -1
right_child=2 -3 -4 -5 -6
leaf_value=-0.0021197697714619014 0 0 0.0034672661274275244 0.00066283718135673551 0
leaf_weight=63 32 102 41 54 24
leaf_count=63 32 102 41 54 24
internal_value=0 -0.00084302 0.00188639 0.000303566 -0.00179656
internal_weight=0 189 127 86 87
internal_count=316 189 127 86 87
is_linear=0
shrinkage=0.03


Tree=71
num_leaves=6
num_cat=0
split_feature=19 21 19 2 19
split_gain=0.656855 0.511455 0.0602752 0.0262853 0.00512058
threshold=0.39375535488573415 0.47401380907017565 -0.51150644534543244 -0.14945648941479059 1.733542819227861
decision_type=2 2 2 2 2
left_child=1 2 -1 -3 -2
right_child=4 3 -4 -5 -6
leaf_value=-0.0022581385009998113 0.00067517537824359939 0 0 0.0022967556391197898 0.0040506876526134354
leaf_weight=92 81 22 79 20 22
leaf_count=92 81 22 79 20 22
internal_value=0 -0.000671192 -0.00158644 0.00153769 0.0021299
internal_weight=0 213 171 42 103
internal_count=316 213 171 42 103
is_linear=0
shrinkage=0.03


Tree=72
num_leaves=6
num_cat=0
split_feature=19 21 19 20 19
split_gain=0.629409 0.492182 0.0530741 0.02467 0.00348151
threshold=0.39375535488573415 0.47401380907017565 -0.69376582112530738 2.2095463681180112 1.0938244803978363
decision_type=2 2 2 2 2
left_child=1 2 -1 -3 -2
right_child=4 3 -4 -5 -6
leaf_value=-0.0024365245106429618 1.9288281665036552e-05 0 -0.00021232891017671835 0.0022489315163021764 0.0028749301649052005
leaf_weight=73 51 22 98 20 52
leaf_count=73 51 22 98 20 52
internal_value=0 -0.000649026 -0.00155123 0.00150898 0.00209032
internal_weight=0 213 171 42 103
internal_count=316 213 171 42 103
is_linear=0
shrinkage=0.03


Tree=73
num_leaves=5
num_cat=0
split_feature=19 21 19 2
split_gain=0.602088 0.473919 0.0482475 0.0244718
threshold=0.39375535488573415 0.47401380907017565 -0.19768235459862812 -0.14945648941479059
decision_type=2 2 2 2
left_child=1 2 -1 -3
right_child=-2 3 -4 -5
leaf_value=-0.0018771852265490451 0.0020489080616384061 0 0 0.0022126145252528099
leaf_weight=122 103 22 49 20
leaf_count=122 103 22 49 20
internal_value=0 -0.000627971 -0.00151756 0.00148087
internal_weight=0 213 171 42
internal_count=316 213 171 42
is_linear=0
shrinkage=0.03


Tree=74
num_leaves=5
num_cat=0
split_feature=19 20 19 20
split_gain=0.568302 0.419572 0.089445 0.0194437
threshold=0.53859724292272115 1.6954399334910593 0.17649252283025421 -0.26022094382986333
decision_type=2 2 2 2
left_child=1 2 3 -1
right_child=-2 -3 -4 -5
leaf_value=-0.0016757126388216568 0.0021619395999005063 0.001902906875669335 0 0
leaf_weight=140 90 30 31 25
leaf_count=140 90 30 31 25
internal_value=0 -0.000528143 -0.00124274 -0.00151498
internal_weight=0 226 196 165
internal_count=316 226 196 165
is_linear=0
shrinkage=0.03


Tree=75
num_leaves=6
num_cat=0
split_feature=13 19 21 19 19
split_gain=0.546984 0.300922 0.187189 0.0124239 0.00914668
threshold=1.2503249948984287 0.11493472041453487 0.47401380907017565 -0.69376582112530738 0.30926425353082537
decision_type=2 2 2 2 2
left_child=1 2 3 -1 -3
right_child=-2 4 -4 -5 -6
leaf_value=-0.002277488309559943 0.0031919927419500147 0 0 -6.0804140233954822e-05 0.00085237580975940964
leaf_weight=73 41 20 29 71 82
leaf_count=73 41 20 29 71 82
internal_value=0 -0.000233162 -0.00113453 -0.00163069 0.000718176
internal_weight=0 275 173 144 102
internal_count=316 275 173 144 102
is_linear=0
shrinkage=0.03


Tree=76
num_leaves=6
num_cat=0
split_feature=13 19 21 19 19
split_gain=0.518121 0.286411 0.181578 0.00853164 0.00819829
threshold=1.2503249948984287 0.11493472041453487 0.47401380907017565 0.30926425353082537 -0.51150644534543244
decision_type=2 2 2 2 2
left_child=1 2 4 -3 -1
right_child=-2 3 -4 -5 -6
leaf_value=-0.0019942170136361096 0.0031084576525547084 0 0 0.00082854803037745025 0
leaf_weight=92 41 20 29 82 52
leaf_count=92 41 20 29 82 52
internal_value=0 -0.000222413 -0.00110595 0.000698761 -0.00159658
internal_weight=0 275 173 102 144
internal_count=316 275 173 102 144
is_linear=0
shrinkage=0.03


Tree=77
num_leaves=5
num_cat=0
split_feature=19 21 19 20
split_gain=0.492395 0.377045 0.0762194 0.0176402
threshold=0.53859724292272115 1.6676484642155198 0.17649252283025421 -0.26022094382986333
decision_type=2 2 2 2
left_child=1 2 3 -1
right_child=-2 -3 -4 -5
leaf_value=-0.0015691424605487655 0.0020206562381645198 0.0018042520780970029 0 0
leaf_weight=140 90 30 31 25
leaf_count=140 90 30 31 25
internal_value=0 -0.000477333 -0.0011668 -0.00141753
internal_weight=0 226 196 165
internal_count=316 226 196 165
is_linear=0
shrinkage=0.03


Tree=78
num_leaves=5
num_cat=0
split_feature=13 19 19 21
split_gain=0.477929 0.265391 0.0560544 0.0256079
threshold=1.2503249948984287 -0.7770499067465747 0.30926425353082537 0.47401380907017565
decision_type=2 2 2 2
left_child=1 -1 3 -3
right_child=-2 2 -4 -5
leaf_value=-0.0019937751407823751 0.0029889319635224231 -0.00043824529624544081 0.00075923271974633359 0
leaf_weight=57 41 114 82 22
leaf_count=57 41 114 82 22
internal_value=0 -0.000205435 3.51816e-05 0
internal_weight=0 275 218 136
internal_count=316 275 218 136
is_linear=0
shrinkage=0.03


Tree=79
num_leaves=5
num_cat=0
split_feature=13 19 19 21
split_gain=0.452577 0.251814 0.0529754 0.024169
threshold=1.2503249948984287 -0.7770499067465747 0.30926425353082537 0.47401380907017565
decision_type=2 2 2 2
left_child=1 -1 3 -3
right_child=-2 2 -4 -5
leaf_value=-0.0019396583817433565 0.0029107109479794397 -0.0004257552995550213 0.00073800871540284294 0
leaf_weight=57 41 114 82 22
leaf_count=57 41 114 82 22
internal_value=0 -0.000194615 3.35346e-05 0
internal_weight=0 275 218 136
internal_count=316 275 218 136
is_linear=0
shrinkage=0.03


Tree=80
num_leaves=5
num_cat=0
split_feature=13 19 19 21
split_gain=0.428571 0.238929 0.0500657 0.022811
threshold=1.2503249948984287 -0.7770499067465747 0.30926425353082537 0.47401380907017565
decision_type=2 2 2 2
left_child=1 -1 3 -3
right_child=-2 2 -4 -5
leaf_value=-0.001887010499568922 0.0028345369011599647 -0.00041362128476612271 0.00071737801621731532 0
leaf_weight=57 41 114 82 22
leaf_count=57 41 114 82 22
internal_value=0 -0.00018409 3.19301e-05 0
internal_weight=0 275 218 136
internal_count=316 275 218 136
is_linear=0
shrinkage=0.03


Tree=81
num_leaves=6
num_cat=0
split_feature=19 21 19 20 19
split_gain=0.410627 0.33612 0.0633996 0.0138365 0.0118237
threshold=0.53859724292272115 1.6676484642155198 0.17649252283025421 -0.26022094382986333 1.733542819227861
decision_type=2 2 2 2 2
left_child=1 2 3 -1 -2
right_child=4 -3 -4 -5 -6
leaf_value=-0.0014495484414191481 0.0002869124846797235 0.001715463160847624 0 0 0.0034577761936400615
leaf_weight=140 68 30 31 25 22
leaf_count=140 68 30 31 25 22
internal_value=0 -0.000418816 -0.00108377 -0.00131194 0.00185468
internal_weight=0 226 196 165 90
internal_count=316 226 196 165 90
is_linear=0
shrinkage=0.03


Tree=82
num_leaves=6
num_cat=0
split_feature=19 21 19 20 19
split_gain=0.394522 0.31998 0.0604659 0.0133228 0.00619066
threshold=0.53859724292272115 1.6676484642155198 0.11493472041453487 -0.26022094382986333 1.2748768404440696
decision_type=2 2 2 2 2
left_child=1 2 3 -1 -2
right_child=4 -3 -4 -5 -6
leaf_value=-0.0014408786564932337 0 0.0016725766414310782 0 0 0.0026590503898003826
leaf_weight=134 50 30 37 25 40
leaf_count=134 50 30 37 25 40
internal_value=0 -0.000399228 -0.00105363 -0.00129958 0.00182481
internal_weight=0 226 196 159 90
internal_count=316 226 196 159 90
is_linear=0
shrinkage=0.03


Tree=83
num_leaves=5
num_cat=0
split_feature=13 19 19 21
split_gain=0.378373 0.215519 0.0428759 0.0153192
threshold=1.2503249948984287 -0.7770499067465747 0.30926425353082537 0.47401380907017565
decision_type=2 2 2 2
left_child=1 -1 3 -3
right_child=-2 2 -4 -5
leaf_value=-0.001780781194209426 0.002673724816834673 -0.00033895978113287123 0.00066615495138896876 0
leaf_weight=57 41 114 82 22
leaf_count=57 41 114 82 22
internal_value=0 -0.000149495 4.54514e-05 0
internal_weight=0 275 218 136
internal_count=316 275 218 136
is_linear=0
shrinkage=0.03


Tree=84
num_leaves=6
num_cat=0
split_feature=19 20 19 20 19
split_gain=0.363315 0.298555 0.0523243 0.0246008 0.00609045
threshold=0.53859724292272115 1.8188254778015274 0.17649252283025421 1.0000000180025095e-35 1.733542819227861
decision_type=2 2 2 2 2
left_child=1 2 3 -1 -2
right_child=4 -3 -4 -5 -6
leaf_value=-0.0013209775229160031 0.00023553768507947488 0.0017764993818855145 0 0 0.0032634760865143365
leaf_weight=148 68 26 31 21 22
leaf_count=148 68 26 31 21 22
internal_value=0 -0.000370143 -0.000984083 -0.00118704 0.00175841
internal_weight=0 226 200 169 90
internal_count=316 226 200 169 90
is_linear=0
shrinkage=0.03


Tree=85
num_leaves=6
num_cat=0
split_feature=19 21 19 20 19
split_gain=0.349209 0.284141 0.052455 0.0103973 0.000619853
threshold=0.53859724292272115 1.6676484642155198 0.11493472041453487 -0.26022094382986333 1.733542819227861
decision_type=2 2 2 2 2
left_child=1 2 3 -1 -2
right_child=4 -3 -4 -5 -6
leaf_value=-0.0013392564601589193 0.00022904449682116407 0.0015788942715638161 0 0 0.0031865513058645383
leaf_weight=134 68 30 37 25 22
leaf_count=134 68 30 37 25 22
internal_value=0 -0.000350835 -0.000981356 -0.00121043 0.00173097
internal_weight=0 226 196 159 90
internal_count=316 226 196 159 90
is_linear=0
shrinkage=0.03


Tree=86
num_leaves=5
num_cat=0
split_feature=19 20 19 20
split_gain=0.336139 0.271538 0.050956 0.038675
threshold=0.53859724292272115 1.8188254778015274 -0.62134487710681419 -0.26022094382986333
decision_type=2 2 2 2
left_child=1 2 3 -1
right_child=-2 -3 -4 -5
leaf_value=-0.001870789989117986 0.0017041912110289559 0.0016947116814844776 0 0
leaf_weight=68 90 26 108 24
leaf_count=68 90 26 108 24
internal_value=0 -0.000333754 -0.000930397 -0.00151247
internal_weight=0 226 200 92
internal_count=316 226 200 92
is_linear=0
shrinkage=0.03


Tree=87
num_leaves=5
num_cat=0
split_feature=13 19 19 21
split_gain=0.324955 0.185479 0.0329708 0.0089434
threshold=1.2503249948984287 -0.7770499067465747 0.30926425353082537 0.47401380907017565
decision_type=2 2 2 2
left_child=1 -1 3 -3
right_child=-2 2 -4 -5
leaf_value=-0.0016438129890177931 0.0024858605597871649 -0.00025898943895936099 0.00058575318641405005 0
leaf_weight=57 41 114 82 22
leaf_count=57 41 114 82 22
internal_value=0 -0.000116622 4.81671e-05 0
internal_weight=0 275 218 136
internal_count=316 275 218 136
is_linear=0
shrinkage=0.03


Tree=88
num_leaves=5
num_cat=0
split_feature=13 19 19 21
split_gain=0.307852 0.175857 0.0311792 0.00844089
threshold=1.2503249948984287 -0.7770499067465747 0.30926425353082537 0.47401380907017565
decision_type=2 2 2 2
left_child=1 -1 3 -3
right_child=-2 2 -4 -5
leaf_value=-0.0015991952435468278 0.0024208050826316739 -0.00025160823718397294 0.00056937872601172952 0
leaf_weight=57 41 114 82 22
leaf_count=57 41 114 82 22
internal_value=0 -0.000108595 4.56885e-05 0
internal_weight=0 275 218 136
internal_count=316 275 218 136
is_linear=0
shrinkage=0.03


Tree=89
num_leaves=6
num_cat=0
split_feature=19 20 19 20 19
split_gain=0.294251 0.250531 0.0419386 0.018577 0.00571063
threshold=0.53859724292272115 1.8188254778015274 0.17649252283025421 1.0000000180025095e-35 1.733542819227861
decision_type=2 2 2 2 2
left_child=1 2 3 -1 -2
right_child=4 -3 -4 -5 -6
leaf_value=-0.0011865777382853912 0.00013325945909978265 0.0016272046271694762 0 0 0.0029797294097287314
leaf_weight=148 68 26 31 21 22
leaf_count=148 68 26 31 21 22
internal_value=0 -0.000305233 -0.000887789 -0.00106933 0.00159681
internal_weight=0 226 200 169 90
internal_count=316 226 200 169 90
is_linear=0
shrinkage=0.03


Tree=90
num_leaves=6
num_cat=0
split_feature=19 20 19 20 19
split_gain=0.283446 0.238389 0.0409223 0.0322685 0.00213976
threshold=0.53859724292272115 1.8188254778015274 -0.62134487710681419 -0.26022094382986333 1.4438590431538876
decision_type=2 2 2 2 2
left_child=1 2 3 -1 -2
right_child=4 -3 -4 -5 -6
leaf_value=-0.0017203663881691926 0 0.0015875414953552536 0 0 0.0024786769498426182
leaf_weight=68 57 26 108 24 33
leaf_count=68 57 26 108 24 33
internal_value=0 -0.000287995 -0.000862214 -0.0013923 0.00157349
internal_weight=0 226 200 92 90
internal_count=316 226 200 92 90
is_linear=0
shrinkage=0.03


Tree=91
num_leaves=5
num_cat=0
split_feature=19 20 19 20
split_gain=0.273537 0.228845 0.0384709 0.0163566
threshold=0.53859724292272115 1.8188254778015274 0.17649252283025421 1.0000000180025095e-35
decision_type=2 2 2 2
left_child=1 2 3 -1
right_child=-2 -3 -4 -5
leaf_value=-0.0011295780689151678 0.0015479298110221862 0.0015488451881356014 0 0
leaf_weight=148 90 26 31 21
leaf_count=148 90 26 31 21
internal_value=0 -0.000278205 -0.000845178 -0.00101917
internal_weight=0 226 200 169
internal_count=316 226 200 169
is_linear=0
shrinkage=0.03


Tree=92
num_leaves=5
num_cat=0
split_feature=13 19 19 21
split_gain=0.264537 0.153468 0.0239471 0.00562736
threshold=1.2503249948984287 -0.81326037875582136 0.30926425353082537 0.47401380907017565
decision_type=2 2 2 2
left_child=1 -1 3 -3
right_child=-2 2 -4 -5
leaf_value=-0.0015651822754328972 0.0022507097931737277 -0.00020048799722038286 0.00049740973397175282 0
leaf_weight=51 41 120 82 22
leaf_count=51 41 120 82 22
internal_value=0 -7.864e-05 3.09459e-05 0
internal_weight=0 275 224 142
internal_count=316 275 224 142
is_linear=0
shrinkage=0.03


Tree=93
num_leaves=5
num_cat=0
split_feature=13 19 19 21
split_gain=0.250696 0.145533 0.0226864 0.00519426
threshold=1.2503249948984287 -0.81326037875582136 0.11493472041453487 0.47401380907017565
decision_type=2 2 2 2
left_child=1 -1 3 -3
right_child=-2 2 -4 -5
leaf_value=-0.0015231694467365742 0.0021918082272168247 -0.0002090216805194461 0.00043682418930984568 0
leaf_weight=51 41 101 102 21
leaf_count=51 41 101 102 21
internal_value=0 -7.19038e-05 2.87638e-05 0
internal_weight=0 275 224 122
internal_count=316 275 224 122
is_linear=0
shrinkage=0.03


Tree=94
num_leaves=6
num_cat=0
split_feature=19 20 19 20 19
split_gain=0.2395 0.210181 0.0331962 0.0143015 0.00724564
threshold=0.53859724292272115 1.8188254778015274 0.17649252283025421 1.0000000180025095e-35 1.733542819227861
decision_type=2 2 2 2 2
left_child=1 2 3 -1 -2
right_child=4 -3 -4 -5 -6
leaf_value=-0.0010673989111999074 4.0149111635007612e-05 0.0014876754004944815 0 0 0.0027324167905109268
leaf_weight=148 68 26 31 21 22
leaf_count=148 68 26 31 21 22
internal_value=0 -0.000248869 -0.000802637 -0.000963882 0.0014529
internal_weight=0 226 200 169 90
internal_count=316 226 200 169 90
is_linear=0
shrinkage=0.03


Tree=95
num_leaves=6
num_cat=0
split_feature=19 6 16 19 1
split_gain=0.234249 0.153338 0.00343059 0.000447721 0.0002988
threshold=-0.74204645047096973 0.96824583655185437 0.43098040951616773 0.11493472041453487 0.69888987862014373
decision_type=2 2 2 2 2
left_child=-1 3 -3 4 -2
right_child=1 2 -4 -5 -6
leaf_value=-0.001225255277696187 -5.9879888361319898e-05 0.002214193880003329 0 6.967644611126688e-05 0
leaf_weight=63 69 45 21 77 41
leaf_count=63 69 45 21 77 41
internal_value=0 0.000648561 0.00185198 0 0
internal_weight=0 253 66 187 110
internal_count=316 253 66 187 110
is_linear=0
shrinkage=0.03


Tree=96
num_leaves=6
num_cat=0
split_feature=19 20 19 20 19
split_gain=0.224092 0.197276 0.0316656 0.0318142 0.00193111
threshold=0.53859724292272115 1.8188254778015274 -0.69376582112530738 -0.26022094382986333 1.733542819227861
decision_type=2 2 2 2 2
left_child=1 2 3 -1 -2
right_child=4 -3 -4 -5 -6
leaf_value=-0.0016264616339193548 2.7084160168227311e-05 0.0014448581177566667 0 0 0.0026251582654991321
leaf_weight=62 68 26 116 22 22
leaf_count=62 68 26 116 22 22
internal_value=0 -0.000227519 -0.000771941 -0.00129637 0.00141155
internal_weight=0 226 200 84 90
internal_count=316 226 200 84 90
is_linear=0
shrinkage=0.03


Tree=97
num_leaves=5
num_cat=0
split_feature=19 20 19 20
split_gain=0.217561 0.189504 0.0294129 0.0121776
threshold=0.53859724292272115 1.8188254778015274 0.17649252283025421 1.0000000180025095e-35
decision_type=2 2 2 2
left_child=1 2 3 -1
right_child=-2 -3 -4 -5
leaf_value=-0.0010050496075346964 0.001392925016771187 0.001409639770645299 0 0
leaf_weight=148 90 26 31 21
leaf_count=148 90 26 31 21
internal_value=0 -0.000219337 -0.000757255 -0.000909001
internal_weight=0 226 200 169
internal_count=316 226 200 169
is_linear=0
shrinkage=0.03


Tree=98
num_leaves=7
num_cat=0
split_feature=19 6 19 16 18 13
split_gain=0.209783 0.134524 0.00246327 0.00205173 0.000249464 0.0030269
threshold=-0.74204645047096973 0.96824583655185437 -0.91102865318078752 0.43098040951616773 1.1624298970278732 -0.76139193719187903
decision_type=2 2 2 2 2 2
left_child=2 4 -1 -3 5 -2
right_child=1 3 -4 -5 -6 -7
leaf_value=-0.0014158196361613985 0 0.0020924434364389846 0 0 0 0.00014889891777770538
leaf_weight=40 32 45 23 21 28 127
leaf_count=40 32 45 23 21 28 127
internal_value=0 0.000622536 -0.00114203 0.00175376 0 3.68878e-05
internal_weight=0 253 63 66 187 159
internal_count=316 253 63 66 187 159
is_linear=0
shrinkage=0.03


Tree=99
num_leaves=6
num_cat=0
split_feature=19 6 19 18 13
split_gain=0.201126 0.128282 0.00145281 0.000205127 0.00288621
threshold=-0.74204645047096973 0.96824583655185437 -0.91102865318078752 1.1624298970278732 -0.76139193719187903
decision_type=2 2 2 2 2
left_child=2 3 -1 4 -2
right_child=1 -3 -4 -5 -6
leaf_value=-0.0013788851924017881 0 0.0017145235848147421 0 0 0.00014463347193066823
leaf_weight=40 32 66 23 28 127
leaf_count=40 32 66 23 28 127
internal_value=0 0.000609439 -0.00111741 0 3.34496e-05
internal_weight=0 253 63 187 159
internal_count=316 253 63 187 159
is_linear=0
shrinkage=0.03


Tree=100
num_leaves=7
num_cat=0
split_feature=19 6 16 19 18 13
split_gain=0.192095 0.120803 0.00237172 0.000513398 0.000166211 0.00275055
threshold=-0.74204645047096973 0.96824583655185437 0.43098040951616773 -0.91102865318078752 1.1624298970278732 -0.76139193719187903
decision_type=2 2 2 2 2 2
left_child=3 4 -3 -1 5 -2
right_child=1 2 -4 -5 -6 -7
leaf_value=-0.0013429143687497581 0 0.0019916708479138711 0 0 0 0.00014049021211104629
leaf_weight=40 32 45 21 23 28 127
leaf_count=40 32 45 21 23 28 127
internal_value=0 0.000594204 0.00166737 -0.00109343 0 3.01099e-05
internal_weight=0 253 66 63 187 159
internal_count=316 253 66 63 187 159
is_linear=0
shrinkage=0.03


Tree=101
num_leaves=6
num_cat=0
split_feature=19 20 19 20 19
split_gain=0.185683 0.176054 0.0256309 0.0101048 0.00502399
threshold=0.53859724292272115 1.8188254778015274 0.17649252283025421 1.0000000180025095e-35 1.733542819227861
decision_type=2 2 2 2 2
left_child=1 2 3 -1 -2
right_child=4 -3 -4 -5 -6
leaf_value=-0.00095773329992337119 0 0.0013544170776003737 0 0 0.0024140113632061654
leaf_weight=148 68 26 31 21 22
leaf_count=148 68 26 31 21 22
internal_value=0 -0.000200735 -0.000727727 -0.000869031 0.00128552
internal_weight=0 226 200 169 90
internal_count=316 226 200 169 90
is_linear=0
shrinkage=0.03


Tree=102
num_leaves=6
num_cat=0
split_feature=19 6 19 18 13
split_gain=0.18177 0.108653 0.000556492 0.000244424 0.00271531
threshold=-0.74204645047096973 0.96824583655185437 -0.91102865318078752 1.1624298970278732 -0.76139193719187903
decision_type=2 2 2 2 2
left_child=2 3 -1 4 -2
right_child=1 -3 -4 -5 -6
leaf_value=-0.0012938188388943671 0 0.0016069951048120854 0 0 0.00014152135441444736
leaf_weight=40 32 66 23 28 127
leaf_count=40 32 66 23 28 127
internal_value=0 0.000583385 -0.00105296 0 3.65133e-05
internal_weight=0 253 63 187 159
internal_count=316 253 63 187 159
is_linear=0
shrinkage=0.03


Tree=103
num_leaves=4
num_cat=0
split_feature=19 13 1
split_gain=0.173671 0.102218 0.0657311
threshold=-0.74204645047096973 0.67554872858691228 -1.0013676123205331
decision_type=2 2 2
left_child=-1 -2 -3
right_child=1 2 -4
leaf_value=-0.0010304562618409325 0 0 0.0018066747653453299
leaf_weight=63 166 21 66
leaf_count=63 166 21 66
internal_value=0 0.000569018 0.00137511
internal_weight=0 253 87
internal_count=316 253 87
is_linear=0
shrinkage=0.03


Tree=104
num_leaves=6
num_cat=0
split_feature=19 20 19 20 19
split_gain=0.165262 0.163845 0.022897 0.00884128 0.00497821
threshold=0.53859724292272115 1.8188254778015274 0.17649252283025421 1.0000000180025095e-35 1.733542819227861
decision_type=2 2 2 2 2
left_child=1 2 3 -1 -2
right_child=4 -3 -4 -5 -6
leaf_value=-0.00091523890971665744 0 0.0013066876388984382 0 0 0.0022855920850166252
leaf_weight=148 68 26 31 21 22
leaf_count=148 68 26 31 21 22
internal_value=0 -0.000181143 -0.000698249 -0.000831669 0.00121531
internal_weight=0 226 200 169 90
internal_count=316 226 200 169 90
is_linear=0
shrinkage=0.03


Tree=105
num_leaves=6
num_cat=0
split_feature=19 6 16 3 18
split_gain=0.162872 0.093669 0.00331533 0.000204446 0.000612179
threshold=-0.7770499067465747 0.96824583655185437 0.43098040951616773 0.99079462929894679 -0.4905686435547077
decision_type=2 2 2 2 2
left_child=-1 3 -3 4 -2
right_child=1 2 -4 -5 -6
leaf_value=-0.0010326577126173876 0 0.0018007013081189464 0 0 8.0647932210552352e-05
leaf_weight=59 54 45 21 30 107
leaf_count=59 54 45 21 30 107
internal_value=0 0.000544879 0.00150178 0 3.31934e-05
internal_weight=0 257 66 191 161
internal_count=316 257 66 191 161
is_linear=0
shrinkage=0.03


Tree=106
num_leaves=5
num_cat=0
split_feature=19 13 1 19
split_gain=0.155696 0.0867933 0.0606809 0.00214483
threshold=-0.74204645047096973 0.67554872858691228 -1.0013676123205331 -0.91102865318078752
decision_type=2 2 2 2
left_child=3 -2 -3 -1
right_child=1 2 -4 -5
leaf_value=-0.0011928559677851255 0 0 0.0017080624762456863 0
leaf_weight=40 166 21 66 23
leaf_count=40 166 21 66 23
internal_value=0 0.000546422 0.00129285 -0.000959493
internal_weight=0 253 87 63
internal_count=316 253 87 63
is_linear=0
shrinkage=0.03


Tree=107
num_leaves=7
num_cat=0
split_feature=19 6 16 19 18 18
split_gain=0.148812 0.0819568 0.00340446 0.00141901 0.000204891 0.000496514
threshold=-0.74204645047096973 0.96824583655185437 0.43098040951616773 -0.91102865318078752 1.1624298970278732 -1.2331969759824972
decision_type=2 2 2 2 2 2
left_child=3 4 -3 -1 5 -2
right_child=1 2 -4 -5 -6 -7
leaf_value=-0.0011617380238654416 0 0.0017178696178255929 0 0 0 6.812969299490385e-05
leaf_weight=40 29 45 21 23 28 130
leaf_count=40 29 45 21 23 28 130
internal_value=0 0.000533365 0.00143101 -0.000938748 0 3.34304e-05
internal_weight=0 253 66 63 187 159
internal_count=316 253 66 63 187 159
is_linear=0
shrinkage=0.03


Tree=108
num_leaves=6
num_cat=0
split_feature=19 20 19 20 19
split_gain=0.144143 0.151083 0.0200026 0.0075366 0.00291579
threshold=0.53859724292272115 1.8188254778015274 0.17649252283025421 1.0000000180025095e-35 1.733542819227861
decision_type=2 2 2 2 2
left_child=1 2 3 -1 -2
right_child=4 -3 -4 -5 -6
leaf_value=-0.00086867960850260672 0 0.0012558218077174388 0 0 0.0021288555108809047
leaf_weight=148 68 26 31 21 22
leaf_count=148 68 26 31 21 22
internal_value=0 -0.000159691 -0.000666187 -0.000790754 0.00113776
internal_weight=0 226 200 169 90
internal_count=316 226 200 169 90
is_linear=0
shrinkage=0.03


Tree=109
num_leaves=4
num_cat=0
split_feature=19 13 3
split_gain=0.141205 0.0758833 0.0781824
threshold=-0.7770499067465747 0.51132693821219333 0.99079462929894679
decision_type=2 2 2
left_child=-1 -2 -3
right_child=1 2 -4
leaf_value=-0.00094628180952097943 0 0.0015647504014093152 0
leaf_weight=59 155 79 23
leaf_count=59 155 79 23
internal_value=0 0.000513908 0.00112938
internal_weight=0 257 102
internal_count=316 257 102
is_linear=0
shrinkage=0.03


Tree=110
num_leaves=7
num_cat=0
split_feature=19 6 16 19 18 18
split_gain=0.133786 0.0695586 0.00292654 0.00196969 0.000208331 0.000422989
threshold=-0.74204645047096973 0.96824583655185437 0.43098040951616773 -0.91102865318078752 1.1624298970278732 -1.2331969759824972
decision_type=2 2 2 2 2 2
left_child=3 4 -3 -1 5 -2
right_child=1 2 -4 -5 -6 -7
leaf_value=-0.0010940978165877903 0 0.0016134912672671764 0 0 0 6.46363373091256e-05
leaf_weight=40 29 45 21 23 28 130
leaf_count=40 29 45 21 23 28 130
internal_value=0 0.000510638 0.00134442 -0.00087883 0 3.37098e-05
internal_weight=0 253 66 63 187 159
internal_count=316 253 66 63 187 159
is_linear=0
shrinkage=0.03


Tree=111
num_leaves=6
num_cat=0
split_feature=19 21 19 18 19
split_gain=0.128898 0.140447 0.0189012 0.00342896 0.00274369
threshold=0.53859724292272115 1.6676484642155198 0.17649252283025421 -1.442074000764989 1.2748768404440696
decision_type=2 2 2 2 2
left_child=1 2 3 -1 -2
right_child=4 -3 -4 -5 -6
leaf_value=0 0 0.0011036472856843223 0 -0.00084881544452882916 0.0015750576240142159
leaf_weight=22 50 30 31 143 40
leaf_count=22 50 30 31 143 40
internal_value=0 -0.000142371 -0.000657235 -0.000780862 0.00107842
internal_weight=0 226 196 165 90
internal_count=316 226 196 165 90
is_linear=0
shrinkage=0.03


Tree=112
num_leaves=4
num_cat=0
split_feature=19 13 1
split_gain=0.126467 0.0642996 0.0521191
threshold=-0.7770499067465747 0.67554872858691228 -1.0013676123205331
decision_type=2 2 2
left_child=-1 -2 -3
right_child=1 2 -4
leaf_value=-0.00088636907953052564 0 0 0.001527178012911463
leaf_weight=59 170 21 66
leaf_count=59 170 21 66
internal_value=0 0.000490002 0.00114072
internal_weight=0 257 87
internal_count=316 257 87
is_linear=0
shrinkage=0.03


Tree=113
num_leaves=6
num_cat=0
split_feature=19 6 16 18 18
split_gain=0.120271 0.0604406 0.00268435 0.000148867 0.000343651
threshold=-0.7770499067465747 0.96824583655185437 0.43098040951616773 1.1624298970278732 -1.2331969759824972
decision_type=2 2 2 2 2
left_child=-1 3 -3 4 -2
right_child=1 2 -4 -5 -6
leaf_value=-0.00086223257490648678 0 0.001514833357239909 0 0 5.6268876768756722e-05
leaf_weight=59 29 45 21 28 134
leaf_count=59 29 45 21 28 134
internal_value=0 0.000478505 0.00126169 0 2.81564e-05
internal_weight=0 257 66 191 163
internal_count=316 257 66 191 163
is_linear=0
shrinkage=0.03


Tree=114
num_leaves=6
num_cat=0
split_feature=19 13 3 18 19
split_gain=0.115105 0.0563096 0.0693991 0.00542999 0.0026799
threshold=-0.74204645047096973 0.51132693821219333 0.99079462929894679 -0.23871242131233064 -0.91102865318078752
decision_type=2 2 2 2 2
left_child=4 -2 3 -3 -1
right_child=1 2 -4 -5 -6
leaf_value=-0.0010067109081327269 0 0 0 0.001813866478171096 0
leaf_weight=40 151 31 23 48 23
leaf_count=40 151 31 23 48 23
internal_value=0 0.00047987 0.00101068 0.00142573 -0.000800431
internal_weight=0 253 102 79 63
internal_count=316 253 102 79 63
is_linear=0
shrinkage=0.03


Tree=115
num_leaves=5
num_cat=0
split_feature=19 21 18 19
split_gain=0.111301 0.14418 0.0071465 0.00547142
threshold=0.30926425353082537 1.6676484642155198 -1.4773355259445278 1.733542819227861
decision_type=2 2 2 2
left_child=1 2 -1 -2
right_child=3 -3 -4 -5
leaf_value=0 0 0.001054890212835744 -0.00078346841930199964 0.0018852437773187243
leaf_weight=20 84 30 160 22
leaf_count=20 84 30 160 22
internal_value=0 -0.000163314 -0.000716408 0.000919004
internal_weight=0 210 180 106
internal_count=316 210 180 106
is_linear=0
shrinkage=0.03


Tree=116
num_leaves=5
num_cat=0
split_feature=19 3 13 18
split_gain=0.109366 0.0546609 0.0624765 0.00287785
threshold=-0.7770499067465747 0.99079462929894679 0.51132693821219333 -0.23871242131233064
decision_type=2 2 2 2
left_child=-1 2 -2 -4
right_child=1 -3 3 -5
leaf_value=-0.00080742928013205527 0 0 0 0.0017444687802474668
leaf_weight=59 134 44 31 48
leaf_count=59 134 44 31 48
internal_value=0 0.000462747 0.000694112 0.00137943
internal_weight=0 257 213 79
internal_count=316 257 213 79
is_linear=0
shrinkage=0.03


Tree=117
num_leaves=5
num_cat=0
split_feature=19 3 13 18
split_gain=0.104345 0.0533747 0.0587013 0.000887467
threshold=-0.7770499067465747 0.99079462929894679 0.51132693821219333 -0.23871242131233064
decision_type=2 2 2 2
left_child=-1 2 -2 -4
right_child=1 -3 3 -5
leaf_value=-0.00078544228975302899 0 0 0 0.0016979495604229871
leaf_weight=59 134 44 31 48
leaf_count=59 134 44 31 48
internal_value=0 0.000453196 0.000682641 0.00134988
internal_weight=0 257 213 79
internal_count=316 257 213 79
is_linear=0
shrinkage=0.03


Tree=118
num_leaves=5
num_cat=0
split_feature=19 21 18 19
split_gain=0.100883 0.132788 0.00672127 0.00275397
threshold=0.30926425353082537 1.6676484642155198 -1.4773355259445278 1.733542819227861
decision_type=2 2 2 2
left_child=1 2 -1 -2
right_child=3 -3 -4 -5
leaf_value=0 0 0.0010075815569143742 -0.00075068259515297456 0.0017817930017398403
leaf_weight=20 84 30 160 22
leaf_count=20 84 30 160 22
internal_value=0 -0.000144896 -0.000685863 0.000878389
internal_weight=0 210 180 106
internal_count=316 210 180 106
is_linear=0
shrinkage=0.03


Tree=119
num_leaves=4
num_cat=0
split_feature=19 3 13
split_gain=0.098869 0.0520103 0.0508736
threshold=-0.7770499067465747 0.99079462929894679 0.51132693821219333
decision_type=2 2 2
left_child=-1 2 -2
right_child=1 -3 -4
leaf_value=-0.00075183686420608015 0 0 0.0013063899673905004
leaf_weight=59 134 44 79
leaf_count=59 134 44 79
internal_value=0 0.000446661 0.000673298
internal_weight=0 257 213
internal_count=316 257 213
is_linear=0
shrinkage=0.03


end of trees

feature_importances:
Column_19=332
Column_20=83
Column_13=63
Column_21=59
Column_16=19
Column_1=17
Column_18=17
Column_6=9
Column_3=6
Column_2=5

parameters:
[boosting: gbdt]
[objective: regression]
[metric: rmse]
[tree_learner: serial]
[device_type: cpu]
[data_sample_strategy: bagging]
[data: ]
[valid: ]
[num_iterations: 120]
[learning_rate: 0.03]
[num_leaves: 16]
[num_threads: 0]
[seed: 0]
[deterministic: 0]
[force_col_wise: 1]
[force_row_wise: 0]
[histogram_pool_size: -1]
[max_depth: -1]
[min_data_in_leaf: 20]
[min_sum_hessian_in_leaf: 0.001]
[bagging_fraction: 1]
[pos_bagging_fraction: 1]
[neg_bagging_fraction: 1]
[bagging_freq: 0]
[bagging_seed: 3]
[feature_fraction: 1]
[feature_fraction_bynode: 1]
[feature_fraction_seed: 2]
[extra_trees: 0]
[extra_seed: 6]
[early_stopping_round: 0]
[early_stopping_min_delta: 0]
[first_metric_only: 0]
[max_delta_step: 0]
[lambda_l1: 2]
[lambda_l2: 6]
[linear_lambda: 0]
[min_gain_to_split: 0]
[drop_rate: 0.1]
[max_drop: 50]
[skip_drop: 0.5]
[xgboost_dart_mode: 0]
[uniform_drop: 0]
[drop_seed: 4]
[top_rate: 0.2]
[other_rate: 0.1]
[min_data_per_group: 100]
[max_cat_threshold: 32]
[cat_l2: 10]
[cat_smooth: 10]
[max_cat_to_onehot: 4]
[top_k: 20]
[monotone_constraints: ]
[monotone_constraints_method: basic]
[monotone_penalty: 0]
[feature_contri: ]
[forcedsplits_filename: ]
[refit_decay_rate: 0.9]
[cegb_tradeoff: 1]
[cegb_penalty_split: 0]
[cegb_penalty_feature_lazy: ]
[cegb_penalty_feature_coupled: ]
[path_smooth: 0]
[interaction_constraints: ]
[verbosity: -1]
[saved_feature_importance_type: 0]
[use_quantized_grad: 0]
[num_grad_quant_bins: 4]
[quant_train_renew_leaf: 0]
[stochastic_rounding: 1]
[linear_tree: 0]
[max_bin: 255]
[max_bin_by_feature: ]
[min_data_in_bin: 3]
[bin_construct_sample_cnt: 200000]
[data_random_seed: 1]
[is_enable_sparse: 1]
[enable_bundle: 1]
[use_missing: 1]
[zero_as_missing: 0]
[feature_pre_filter: 1]
[pre_partition: 0]
[two_round: 0]
[header: 0]
[label_column: ]
[weight_column: ]
[group_column: ]
[ignore_column: ]
[categorical_feature: ]
[forcedbins_filename: ]
[precise_float_parser: 0]
[parser_config_file: ]
[objective_seed: 5]
[num_class: 1]
[is_unbalance: 0]
[scale_pos_weight: 1]
[sigmoid: 1]
[boost_from_average: 1]
[reg_sqrt: 0]
[alpha: 0.9]
[fair_c: 1]
[poisson_max_delta_step: 0.7]
[tweedie_variance_power: 1.5]
[lambdarank_truncation_level: 30]
[lambdarank_norm: 1]
[label_gain: ]
[lambdarank_position_bias_regularization: 0]
[eval_at: ]
[multi_error_top_k: 1]
[auc_mu_weights: ]
[num_machines: 1]
[local_listen_port: 12400]
[time_out: 120]
[machine_list_filename: ]
[machines: ]
[gpu_platform_id: -1]
[gpu_device_id: -1]
[gpu_use_dp: 0]
[num_gpu: 1]

end of parameters

pandas_categorical:null
