tree
version=v4
num_class=1
num_tree_per_iteration=1
label_index=0
max_feature_idx=50
objective=regression
feature_names=Column_0 Column_1 Column_2 Column_3 Column_4 Column_5 Column_6 Column_7 Column_8 Column_9 Column_10 Column_11 Column_12 Column_13 Column_14 Column_15 Column_16 Column_17 Column_18 Column_19 Column_20 Column_21 Column_22 Column_23 Column_24 Column_25 Column_26 Column_27 Column_28 Column_29 Column_30 Column_31 Column_32 Column_33 Column_34 Column_35 Column_36 Column_37 Column_38 Column_39 Column_40 Column_41 Column_42 Column_43 Column_44 Column_45 Column_46 Column_47 Column_48 Column_49 Column_50
feature_infos=[-1.3093073414159575:8.6940778490847741] [-1.5987598406657737:1.7854294043219254] [-1.8914501888703066:3.2472736838063967] [-1.7648375722621861:1.5602172938095902] [-2.156826078796628:2.5265676923046119] [-1.2991918652920009:0.72621494008629794] [-1.5491933384829668:1.5491933384829668] [-1.5491933384829668:1.5491933384829668] [-1.3093073414159575:8.6940778490847741] none [-0.16786490742583982:9.4567189318662876] [-1.3093073414159546:13.202182359277538] [-1.3093073414159546:13.202182359277538] [-1.5740856357335191:9.9083069035011704] [-1.3093073414159544:0.76376261582597427] [-1.6035674514745464:1.6035674514745464] [-28.53873636348424:1.2799047246637092] [-8.4797134455129903:3.8153390734767361] [-23.824460703412271:31.284068393003142] [-2.9085046917211184:4.5846693629564159] [-2.009843932931219:9.7442537792659163] [-2.6915638305942959:10.514473333519378] none none none none [0:1] [0:1] [0:1] [0:1] [0:1] [0:1] [0:1] [0:1] [0:1] [0:1] [0:1] [0:1] [0:1] [0:1] [0:1] [0:1] [0:1] [0:1] [0:1] [0:1] [0:1] [0:1] [0:1] [0:1] [0:1]
tree_sizes=885 843 844 856 843 847 796 849 758 864 761 781 802 772 849 790 791 801 942 789 722 718 947 642 640 791 547 795 655 727 633 794 637 949 644 794 558 701 641 873 558 746 786 851 556 836 939 553 746 773 646 843 620 724 677 771 701 773 623 682 810 560 560 680 716 837 688 684 717 678 774 564 638 563 565 640 560 639 540 558 713 539 711 562 476 715 715 562 716 541 774 627 630 476 718 628 720 544 566 608 720 566 717 542 630 479 627 479 852 786 568 634 679 633 615 767 706 572 616 685 1480 1480 1483 1477 1509 1475 1503 1492 1482 1457 1524 1501 1524 1528 1508 1457 1516 1505 1462 1514

Tree=0
num_leaves=9
num_cat=0
split_feature=6 19 21 19 19 13 21 19
split_gain=28.7459 8.92928 4.09426 3.9577 2.10784 0.388305 0.225905 0.142282
threshold=-1.0000000180025095e-35 0.96243372517600223 1.526177479848754 -0.34793575619158973 0.13008168216444499 -0.17216561640835371 -0.29032263424269378 0.42758903890351557
decision_type=2 2 2 2 2 2 2 2
left_child=3 2 4 5 6 -1 -2 -6
right_child=1 -3 -4 -5 7 -7 -8 -9
leaf_value=0.77652382013520516 0.78262493349685436 0.80429755650534396 0.79966252966739704 0.78854390186507528 0.78854390186507528 0.78670054405349688 0.78854390186507528 0.79251873604303402
leaf_weight=121 31 68 32 37 21 21 26 53
leaf_count=121 31 68 32 37 21 21 26 53
internal_value=0.788544 0.795462 0.790992 0.779682 0.788544 0.777488 0.784379 0.791714
internal_weight=0 231 163 179 131 142 57 74
internal_count=410 231 163 179 131 142 57 74
is_linear=0
shrinkage=1


Tree=1
num_leaves=9
num_cat=0
split_feature=6 19 20 19 19 13 21 19
split_gain=27.214 8.43502 3.77392 3.75084 2.10031 0.274801 0.270764 0.158559
threshold=-1.0000000180025095e-35 1.122887131057748 1.6739961978691251 -0.23093848106948331 0.13008168216444499 -0.17216561640835371 -0.29032263424269378 0.42758903890351557
decision_type=2 2 2 2 2 2 2 2
left_child=3 2 4 5 6 -1 -2 -6
right_child=1 -3 -4 -5 7 -7 -8 -9
leaf_value=-0.011485822512448288 -0.0057701941690332182 0.015596052525748668 0.01098442829943992 0 0 -0.001800346067175269 0 0.0041049750197318293
leaf_weight=125 31 65 31 33 21 21 27 56
leaf_count=125 31 65 31 33 21 21 27 56
internal_value=0 0.00673366 0.00249162 -0.00862006 0 -0.0106135 -0.00392952 0.00329667
internal_weight=0 231 166 179 135 146 58 77
internal_count=410 231 166 179 135 146 58 77
is_linear=0
shrinkage=0.03


Tree=2
num_leaves=9
num_cat=0
split_feature=6 19 21 19 19 13 21 19
split_gain=25.7564 7.95383 3.59399 3.5677 2.06824 0.258815 0.185001 0.146387
threshold=-1.0000000180025095e-35 1.122887131057748 1.526177479848754 -0.34793575619158973 0.13008168216444499 -0.17216561640835371 -0.29032263424269378 0.42758903890351557
decision_type=2 2 2 2 2 2 2 2
left_child=3 2 4 5 6 -1 -2 -6
right_child=1 -3 -4 -5 7 -7 -8 -9
leaf_value=-0.011348219699277653 -0.0056251598572408827 0.015167710797887453 0.010568906664848327 0 0 -0.0017583379873798953 0 0.0039937434477671499
leaf_weight=121 31 65 32 37 21 21 26 56
leaf_count=121 31 65 32 37 21 21 26 56
internal_value=0 0.00655578 0.00242333 -0.00838111 0 -0.0104642 -0.00399259 0.00321358
internal_weight=0 231 166 179 134 142 57 77
internal_count=410 231 166 179 134 142 57 77
is_linear=0
shrinkage=0.03


Tree=3
num_leaves=9
num_cat=0
split_feature=6 19 21 19 19 21 13 19
split_gain=24.387 7.52555 3.97171 3.37738 1.35386 0.204625 0.16109 0.111346
threshold=-1.0000000180025095e-35 0.89557813939194142 1.526177479848754 -0.23093848106948331 0.039826641355962894 -0.28132556646498624 -0.17216561640835371 0.3473623359626426
decision_type=2 2 2 2 2 2 2 2
left_child=3 2 4 6 5 -2 -1 -6
right_child=1 -3 -4 -5 7 -7 -8 -9
leaf_value=-0.010842571324519528 -0.0059212902826922282 0.013536482432792927 0.010301902556889935 0 0 0 -0.0017173101227833992 0.0024080990742032342
leaf_weight=125 29 81 32 33 23 20 21 46
leaf_count=125 29 81 32 33 23 20 21 46
internal_value=0 0.00638194 0.00176183 -0.00815245 -0.000456672 -0.00435472 -0.0100444 0.00163843
internal_weight=0 231 150 179 118 49 146 69
internal_count=410 231 150 179 118 49 146 69
is_linear=0
shrinkage=0.03


Tree=4
num_leaves=9
num_cat=0
split_feature=6 19 20 19 19 21 13 19
split_gain=23.0683 7.1449 3.27784 3.21789 1.80795 0.208078 0.148497 0.122561
threshold=-1.0000000180025095e-35 1.122887131057748 1.6739961978691251 -0.34793575619158973 0.13008168216444499 -0.29089169873072535 -0.17216561640835371 0.42758903890351557
decision_type=2 2 2 2 2 2 2 2
left_child=3 2 4 6 5 -2 -1 -6
right_child=1 -3 -4 -5 7 -7 -8 -9
leaf_value=-0.01071394777204108 -0.005426843798874567 0.014379355672379614 0.010183742622265943 0 0 0 -0.0016772395926010276 0.0037341188603351194
leaf_weight=121 30 65 31 37 21 28 21 56
leaf_count=121 30 65 31 37 21 28 21 56
internal_value=0 0.00620913 0.0022711 -0.00792682 0 -0.00369322 -0.00990511 0.00301442
internal_weight=0 231 166 179 135 58 142 77
internal_count=410 231 166 179 135 58 142 77
is_linear=0
shrinkage=0.03


Tree=5
num_leaves=9
num_cat=0
split_feature=6 19 20 19 19 21 13 19
split_gain=21.8446 6.73686 3.22129 3.04466 1.44771 0.362022 0.0992113 0.0908795
threshold=-1.0000000180025095e-35 0.96243372517600223 1.7782361562958469 -0.34793575619158973 0.13008168216444499 -0.24864289598597464 -0.17216561640835371 0.42758903890351557
decision_type=2 2 2 2 2 2 2 2
left_child=3 2 4 6 5 -2 -1 -6
right_child=1 -3 -4 -5 7 -7 -8 -9
leaf_value=-0.01040771468359185 -0.0047189277916660777 0.013742223377968814 0.010358256802839392 0 0 0 -0.0016381039710379101 0.003410374133263604
leaf_weight=121 40 68 28 37 21 21 21 53
leaf_count=121 40 68 28 37 21 21 21 53
internal_value=0 0.006045 0.00210497 -0.00771088 0 -0.00322888 -0.00963519 0.00274867
internal_weight=0 231 163 179 135 61 142 74
internal_count=410 231 163 179 135 61 142 74
is_linear=0
shrinkage=0.03


Tree=6
num_leaves=8
num_cat=0
split_feature=6 19 20 19 19 19 13
split_gain=20.7046 6.35952 3.44197 2.88969 1.30411 0.0870283 0.0226735
threshold=-1.0000000180025095e-35 0.89557813939194142 1.3612763225889604 -0.23093848106948331 0.039826641355962894 0.3473623359626426 -0.17216561640835371
decision_type=2 2 2 2 2 2 2
left_child=3 2 4 6 -2 -6 -1
right_child=1 -3 -4 -5 5 -7 -8
leaf_value=-0.009946913029287607 -0.0044222238181896925 0.012477977280986719 0.009312450628727674 0 0 0.0021793190074654726 -0.0015998814777574606
leaf_weight=125 47 81 34 33 23 46 21
leaf_count=125 47 81 34 33 23 46 21
internal_value=0 0.00589101 0.00160631 -0.00750109 -0.000507483 0.00149953 -0.00925159
internal_weight=0 231 150 179 116 69 146
internal_count=410 231 150 179 116 69 146
is_linear=0
shrinkage=0.03


Tree=7
num_leaves=9
num_cat=0
split_feature=6 19 20 19 19 21 19 13
split_gain=19.602 6.04094 2.85483 2.74799 1.40206 0.330777 0.0926191 0.0132742
threshold=-1.0000000180025095e-35 1.122887131057748 1.7782361562958469 -0.34793575619158973 0.13008168216444499 -0.24864289598597464 0.42758903890351557 -0.17216561640835371
decision_type=2 2 2 2 2 2 2 2
left_child=3 2 4 7 5 -2 -6 -1
right_child=1 -3 -4 -5 6 -7 -8 -9
leaf_value=-0.0098259249347166754 -0.0045006513798801712 0.013264297918534614 0.0098722744908402941 0 0 0 0.0033867442800152685 -0.0015625508737543391
leaf_weight=121 40 65 28 37 21 21 56 21
leaf_count=121 40 65 28 37 21 21 56 21
internal_value=0 0.00573661 0.0020803 -0.00729401 0 -0.00307632 0.00275021 -0.00912217
internal_weight=0 231 166 179 138 61 77 142
internal_count=410 231 166 179 138 61 77 142
is_linear=0
shrinkage=0.03


Tree=8
num_leaves=8
num_cat=0
split_feature=6 19 20 19 19 21 19
split_gain=18.5825 5.68337 2.71786 2.60542 1.46596 0.195307 0.164303
threshold=-1.0000000180025095e-35 1.122887131057748 1.6739961978691251 -0.23093848106948331 0.10668222714002375 -0.28132556646498624 0.3473623359626426
decision_type=2 2 2 2 2 2 2
left_child=3 2 4 -1 5 -2 -6
right_child=1 -3 -4 -5 6 -7 -8
leaf_value=-0.008758427717839367 -0.0050493111874203422 0.012899996751630808 0.0092344152766305043 0 0 0 0.0032077173384673454
leaf_weight=146 31 65 31 33 20 22 62
leaf_count=146 31 65 31 33 20 22 62
internal_value=0 0.00559126 0.00203041 -0.00709589 0 -0.00360686 0.00250411
internal_weight=0 231 166 179 135 53 82
internal_count=410 231 166 179 135 53 82
is_linear=0
shrinkage=0.03


Tree=9
num_leaves=9
num_cat=0
split_feature=6 19 20 19 19 19 13 21
split_gain=17.5571 5.36946 2.98376 2.47182 1.13328 0.0667682 0.0174893 0.00677525
threshold=-1.0000000180025095e-35 0.89557813939194142 1.3612763225889604 -0.34793575619158973 0.039826641355962894 0.3473623359626426 -0.17216561640835371 -0.29089169873072535
decision_type=2 2 2 2 2 2 2 2
left_child=3 2 4 6 7 -6 -1 -2
right_child=1 -3 -4 -5 5 -7 -8 -9
leaf_value=-0.0092947340873986723 -0.0052612173760479145 0.011506630161712909 0.0086529650464653961 0 0 0.0019581996477567236 -0.001321728229522705 0
leaf_weight=121 27 81 34 37 23 46 21 20
leaf_count=121 27 81 34 37 23 46 21 20
internal_value=0 0.00544353 0.0014682 -0.00688853 -0.000467862 0.00136286 -0.00862242 -0.00413762
internal_weight=0 231 150 179 116 69 142 47
internal_count=410 231 150 179 116 69 142 47
is_linear=0
shrinkage=0.03


Tree=10
num_leaves=8
num_cat=0
split_feature=6 19 21 19 19 21 19
split_gain=16.6147 5.10523 2.50469 2.34289 1.16986 0.309376 0.0726397
threshold=-1.0000000180025095e-35 1.122887131057748 1.881520953829898 -0.23093848106948331 0.13008168216444499 -0.20988332757179817 0.42758903890351557
decision_type=2 2 2 2 2 2 2
left_child=3 2 4 -1 5 -2 -6
right_child=1 -3 -4 -5 6 -7 -8
leaf_value=-0.0082785957976930623 -0.0041031603972078298 0.012229673795297111 0.0093327632004564457 0 0 0 0.0030810714921643656
leaf_weight=146 42 65 27 33 21 20 56
leaf_count=146 42 65 27 33 21 20 56
internal_value=0 0.00529489 0.00189873 -0.00670165 0 -0.00279097 0.00251068
internal_weight=0 231 166 179 139 62 77
internal_count=410 231 166 179 139 62 77
is_linear=0
shrinkage=0.03


Tree=11
num_leaves=8
num_cat=0
split_feature=6 19 19 21 19 2 19
split_gain=15.7176 4.83046 2.23497 2.14789 1.41727 0.379576 0.0219481
threshold=-1.0000000180025095e-35 1.2565983026258694 -0.40476300410804106 1.881520953829898 0.3473623359626426 0.32765186716769701 0.13008168216444499
decision_type=2 2 2 2 2 2 2
left_child=2 3 -1 4 5 -2 -4
right_child=1 -3 6 -5 -6 -7 -8
leaf_value=-0.008354433032664213 0 0.012609926188184368 -0.00081144478917121886 0.0091036860509352245 0.0033948087077829746 -0.0037180978499950384 0
leaf_weight=135 30 56 24 27 71 47 20
leaf_count=135 30 56 24 27 71 47 20
internal_value=0 0.00516234 -0.00650565 0.00210862 0.000137907 -0.00217063 0
internal_weight=0 231 179 175 148 77 44
internal_count=410 231 179 175 148 77 44
is_linear=0
shrinkage=0.03


Tree=12
num_leaves=8
num_cat=0
split_feature=6 19 20 19 19 19 13
split_gain=14.881 4.55416 2.69363 2.10766 1.05669 0.0510718 0.0504359
threshold=-1.0000000180025095e-35 0.80198031929425617 1.2570363641622386 -0.34793575619158973 1.0000000180025095e-35 0.3473623359626426 -0.17216561640835371
decision_type=2 2 2 2 2 2 2
left_child=3 2 4 6 -2 -6 -1
right_child=1 -3 -4 -5 5 -7 -8
leaf_value=-0.0085607765298190072 -0.0044627656275406475 0.010469934682051341 0.0076804287359118458 0 0 0.0014797134834284684 -0.00092792707805832222
leaf_weight=121 42 84 38 37 24 43 21
leaf_count=121 42 84 38 37 24 43 21
internal_value=0 0.00503345 0.00124597 -0.00631959 -0.000759176 0.000916541 -0.00792076
internal_weight=0 231 147 179 109 67 142
internal_count=410 231 147 179 109 67 142
is_linear=0
shrinkage=0.03


Tree=13
num_leaves=8
num_cat=0
split_feature=6 19 19 20 19 21 19
split_gain=14.0956 4.35841 2.00327 1.99741 1.1538 0.449914 0.377693
threshold=-1.0000000180025095e-35 1.2565983026258694 -0.23093848106948331 2.132652014946701 0.3473623359626426 1.0000000180025095e-35 -0.23093848106948331
decision_type=2 2 2 2 2 2 2
left_child=2 3 -1 4 5 6 -2
right_child=1 -3 -4 -5 -6 -7 -8
leaf_value=-0.007607387170734765 -0.0052473992069025296 0.011984536580501064 0 0.0092889088597790936 0.0031618928019102517 0 0
leaf_weight=146 31 56 33 23 71 20 30
leaf_count=146 31 56 33 23 71 20 30
internal_value=0 0.00490085 -0.00614846 0.00198045 0.000184066 -0.00177452 -0.00318316
internal_weight=0 231 179 175 152 81 61
internal_count=410 231 179 175 152 81 61
is_linear=0
shrinkage=0.03


Tree=14
num_leaves=9
num_cat=0
split_feature=6 19 19 21 19 21 19 19
split_gain=13.3415 4.099 1.91674 1.90321 1.11206 0.404052 0.364771 0.0150198
threshold=-1.0000000180025095e-35 1.2565983026258694 -0.40476300410804106 2.0030106082947241 0.3473623359626426 -0.19653094853478667 -0.23093848106948331 0.13008168216444499
decision_type=2 2 2 2 2 2 2 2
left_child=2 3 -1 4 5 6 -2 -4
right_child=1 -3 7 -5 -6 -7 -8 -9
leaf_value=-0.0076792927050685633 -0.0051155049736435346 0.011659794526715433 -0.00067126194387674329 0.0089203850030899045 0.0030744274695972342 0 0 0
leaf_weight=135 31 56 24 24 71 20 29 20
leaf_count=135 31 56 24 24 71 20 29 20
internal_value=0 0.00478103 -0.00596835 0.00193479 0.000143854 -0.00179239 -0.00311384 0
internal_weight=0 231 179 175 151 80 60 44
internal_count=410 231 179 175 151 80 60 44
is_linear=0
shrinkage=0.03


Tree=15
num_leaves=8
num_cat=0
split_feature=19 6 1 20 19 19 17
split_gain=12.7413 6.03791 1.63028 0.988698 0.530299 0.170839 0.0680054
threshold=-0.51173194136253841 1.0000000180025095e-35 1.0838343343726804 -0.32741100392393102 1.4972784114484887 0.3473623359626426 1.0000000180025095e-35
decision_type=2 2 2 2 2 2 2
left_child=-1 3 4 -2 -3 6 -5
right_child=1 2 -4 5 -6 -7 -8
leaf_value=-0.0083879773672027834 -0.0057433767752213911 0.0051479783648659188 0 -0.0012481873719529671 0.012326295197010041 0.001869178938905935 0
leaf_weight=110 27 103 24 49 44 31 22
leaf_count=110 27 103 24 49 44 31 22
internal_value=0 0.00328675 0.00694654 -0.00121327 0.00808787 0 -0.000563887
internal_weight=0 300 171 129 147 102 71
internal_count=410 300 171 129 147 102 71
is_linear=0
shrinkage=0.03


Tree=16
num_leaves=8
num_cat=0
split_feature=19 6 1 20 19 19 17
split_gain=12.0351 5.73268 1.54969 0.942668 0.481916 0.161459 0.0652347
threshold=-0.51173194136253841 1.0000000180025095e-35 1.0838343343726804 -0.32741100392393102 1.4972784114484887 0.3473623359626426 1.0000000180025095e-35
decision_type=2 2 2 2 2 2 2
left_child=-1 3 4 -2 -3 6 -5
right_child=1 2 -4 5 -6 -7 -8
leaf_value=-0.0081493538136369198 -0.0056024028902704063 0.0050020401885758643 0 -0.0012148267562416466 0.012000880908966064 0.0018221968764791617 0
leaf_weight=110 27 103 24 49 44 31 22
leaf_count=110 27 103 24 49 44 31 22
internal_value=0 0.00319712 0.00676475 -0.00117809 0.00787756 0 -0.000540058
internal_weight=0 300 171 129 147 102 71
internal_count=410 300 171 129 147 102 71
is_linear=0
shrinkage=0.03


Tree=17
num_leaves=8
num_cat=0
split_feature=6 19 20 19 19 13 19
split_gain=11.3813 3.48346 2.2551 1.63485 0.885873 0.0597889 0.037217
threshold=-1.0000000180025095e-35 0.80198031929425617 1.0277084556234513 -0.23093848106948331 1.0000000180025095e-35 -0.17216561640835371 0.3473623359626426
decision_type=2 2 2 2 2 2 2
left_child=3 2 4 5 -2 -1 -6
right_child=1 -3 -4 -5 6 -7 -8
leaf_value=-0.0073675431788877673 -0.0042761411582646165 0.0091992255498965572 0.0068027449658383489 0 0 -0.00040239464077684612 0.0011291250632125503
leaf_weight=125 40 84 40 33 24 21 43
leaf_count=125 40 84 40 33 24 21 43
internal_value=0 0.004431 0.00106023 -0.00549691 -0.000802749 -0.00681587 0.000630025
internal_weight=0 231 147 179 107 146 67
internal_count=410 231 147 179 107 146 67
is_linear=0
shrinkage=0.03


Tree=18
num_leaves=10
num_cat=0
split_feature=19 6 1 20 19 19 17 19 19
split_gain=10.8716 5.15469 1.39758 0.849513 0.43192 0.141194 0.0559629 0.00857465 0.167551
threshold=-0.51173194136253841 1.0000000180025095e-35 1.0838343343726804 -0.32741100392393102 1.4972784114484887 0.3473623359626426 1.0000000180025095e-35 -0.48498970704891409 0.50781574184438871
decision_type=2 2 2 2 2 2 2 2 2
left_child=-1 3 4 -2 7 6 -5 -3 -9
right_child=1 2 -4 5 -6 -7 -8 8 -10
leaf_value=-0.0077403913412628506 -0.0052903816781260746 0.0073605178699300096 0 -0.0011042265543206172 0.011441197764873505 0.0017271999169040371 0 0 0.0032195276482538744
leaf_weight=110 27 31 24 49 44 31 22 23 49
leaf_count=110 27 31 24 49 44 31 22 23 49
internal_value=0 0.00304351 0.0064285 -0.00108542 0.00748526 0 -0.000465648 0.00470812 0.00231854
internal_weight=0 300 171 129 147 102 71 103 72
internal_count=410 300 171 129 147 102 71 103 72
is_linear=0
shrinkage=0.03


Tree=19
num_leaves=8
num_cat=0
split_feature=19 6 1 20 19 19 17
split_gain=10.289 4.91733 1.33563 0.809977 0.371874 0.133465 0.0536747
threshold=-0.51173194136253841 1.0000000180025095e-35 1.0838343343726804 -0.32741100392393102 1.4972784114484887 0.3473623359626426 1.0000000180025095e-35
decision_type=2 2 2 2 2 2 2
left_child=-1 3 4 -2 -3 6 -5
right_child=1 2 -4 5 -6 -7 -8
leaf_value=-0.0075201904603504916 -0.0051605267822742457 0.004601902167906625 0 -0.0010747135877609254 0.011139150166511536 0.0016837865577356236 0
leaf_weight=110 27 103 24 49 44 31 22
leaf_count=110 27 103 24 49 44 31 22
internal_value=0 0.00297038 0.00627777 -0.00105355 0.00731088 0 -0.000444568
internal_weight=0 300 171 129 147 102 71
internal_count=410 300 171 129 147 102 71
is_linear=0
shrinkage=0.03


Tree=20
num_leaves=7
num_cat=0
split_feature=19 20 19 19 20 19
split_gain=9.76324 6.89714 1.36784 1.17062 0.0496498 0.0409041
threshold=0.3473623359626426 0.65244460528725268 -0.40476300410804106 1.4972784114484887 2.132652014946701 0.039826641355962894
decision_type=2 2 2 2 2 2
left_child=1 2 -1 -2 -3 -4
right_child=3 4 5 -5 -6 -7
leaf_value=-0.0073484768908978863 0.0031389001262660072 0.00086134548881091179 -0.0015962943144142627 0.01081353220869513 0.008167671160451296 0
leaf_weight=148 95 26 44 45 23 29
leaf_count=148 95 26 44 45 23 29
internal_value=0 -0.0032313 -0.00562231 0.00635972 0.00589865 -0.00107087
internal_weight=0 270 221 140 49 73
internal_count=410 270 221 140 49 73
is_linear=0
shrinkage=0.03


Tree=21
num_leaves=7
num_cat=0
split_feature=19 20 19 19 20 19
split_gain=9.23941 5.90621 2.46438 0.534667 0.0291826 6.86763e-05
threshold=0.53455797615801304 0.65244460528725268 -0.23093848106948331 1.4972784114484887 2.132652014946701 0.18690893008089679
decision_type=2 2 2 2 2 2
left_child=1 2 -1 -2 -3 -4
right_child=3 4 5 -5 -6 -7
leaf_value=-0.0067132971876807546 0.0034305117327671545 0.00084035016247071322 -3.8361900452790511e-05 0.010527291560874265 0.0079733370244503016 0
leaf_weight=170 71 26 36 45 23 39
leaf_count=170 71 26 36 45 23 39
internal_value=0 -0.00273159 -0.0047713 0.00705772 0.00578396 0
internal_weight=0 294 245 116 49 75
internal_count=410 294 245 116 49 75
is_linear=0
shrinkage=0.03


Tree=22
num_leaves=10
num_cat=0
split_feature=19 6 1 20 19 19 17 19 19
split_gain=8.79708 4.20357 1.15991 0.681684 0.226502 0.0998658 0.0408837 0.00279528 0.141722
threshold=-0.51173194136253841 1.0000000180025095e-35 1.0838343343726804 -0.32741100392393102 1.4972784114484887 0.3473623359626426 1.0000000180025095e-35 -0.48498970704891409 0.50781574184438871
decision_type=2 2 2 2 2 2 2 2 2
left_child=-1 3 4 -2 7 6 -5 -3 -9
right_child=1 2 -4 5 -6 -7 -8 8 -10
leaf_value=-0.0069184511498515972 -0.0046887068314985791 0.0067477948943505412 0 -0.00089425419770519838 0.010281678789854049 0.0014949609762108004 0 0 0.0028405132429166272
leaf_weight=110 27 31 24 49 44 31 22 23 49
leaf_count=110 27 31 24 49 44 31 22 23 49
internal_value=0 0.00278009 0.00583981 -0.000910661 0.00680264 0 -0.000305525 0.00428183 0.00201348
internal_weight=0 300 171 129 147 102 71 103 72
internal_count=410 300 171 129 147 102 71 103 72
is_linear=0
shrinkage=0.03


Tree=23
num_leaves=6
num_cat=0
split_feature=19 20 19 19 19
split_gain=8.35026 6.04513 1.13015 0.926699 0.0620165
threshold=0.3473623359626426 0.65244460528725268 -0.48498970704891409 1.3769383570371792 0.039826641355962894
decision_type=2 2 2 2 2
left_child=1 2 -1 -2 -4
right_child=3 -3 4 -5 -6
leaf_value=-0.0069717385953602688 0.0028129723230947033 0.005569238416850566 -0.0018574386648833752 0.0097897614207532666 0
leaf_weight=138 92 49 54 48 29
leaf_count=138 92 49 54 48 29
internal_value=0 -0.00294791 -0.00519793 0.00591999 -0.00130337
internal_weight=0 270 221 140 83
internal_count=410 270 221 140 83
is_linear=0
shrinkage=0.03


Tree=24
num_leaves=6
num_cat=0
split_feature=19 20 19 19 20
split_gain=7.92425 5.14268 2.07734 0.378166 0.0276214
threshold=0.53455797615801304 0.65244460528725268 -0.23093848106948331 1.4972784114484887 2.132652014946701
decision_type=2 2 2 2 2
left_child=1 2 -1 -2 -3
right_child=3 4 -4 -5 -6
leaf_value=-0.0061933706943157378 0.0031876732283211374 0.00065296614426188168 0 0.0097224937905283533 0.0074905663934247248
leaf_weight=170 71 26 75 45 23
leaf_count=170 71 26 75 45 23
internal_value=0 -0.00249592 -0.00440995 0.00656802 0.00542039
internal_weight=0 294 245 116 49
internal_count=410 294 245 116 49
is_linear=0
shrinkage=0.03


Tree=25
num_leaves=8
num_cat=0
split_feature=19 6 1 20 6 19 17
split_gain=7.52312 3.79774 1.0135 0.54687 0.193259 0.0853698 0.0432887
threshold=-0.57524474785739621 1.0000000180025095e-35 1.0838343343726804 -0.32741100392393102 0.58094750193111266 0.3473623359626426 1.0000000180025095e-35
decision_type=2 2 2 2 2 2 2
left_child=-1 3 4 -2 -3 6 -5
right_child=1 2 -4 5 -6 -7 -8
leaf_value=-0.0066871897555473778 -0.0042597753893245348 0.0015122709105101725 0 -0.00089911119324997772 0.0073959016570772388 0.001324033092808079 0
leaf_weight=102 27 39 24 57 108 31 22
leaf_count=102 27 39 24 57 108 31 22
internal_value=0 0.0024864 0.00544752 -0.000863497 0.00634761 0 -0.000375256
internal_weight=0 308 171 137 147 110 79
internal_count=410 308 171 137 147 110 79
is_linear=0
shrinkage=0.03


Tree=26
num_leaves=5
num_cat=0
split_feature=19 21 19 19
split_gain=7.18608 4.35314 2.45945 0.00958835
threshold=0.66826914772613444 0.84322404087816005 -0.23093848106948331 0.3473623359626426
decision_type=2 2 2 2
left_child=1 2 -1 -4
right_child=-2 -3 3 -5
leaf_value=-0.005769838703348816 0.0070204735525603431 0.0054827428852709439 0 0.00041965766410742485
leaf_weight=173 97 46 51 43
leaf_count=173 97 46 51 43
internal_value=0 -0.00208811 -0.00370407 0
internal_weight=0 313 267 94
internal_count=410 313 267 94
is_linear=0
shrinkage=0.03


Tree=27
num_leaves=8
num_cat=0
split_feature=19 6 1 21 6 19 17
split_gain=6.77865 3.41479 0.915882 0.492732 0.168971 0.0705359 0.0338868
threshold=-0.57524474785739621 1.0000000180025095e-35 1.0838343343726804 -0.38301271760816036 0.58094750193111266 0.3473623359626426 1.0000000180025095e-35
decision_type=2 2 2 2 2 2 2
left_child=-1 3 4 -2 -3 6 -5
right_child=1 2 -4 5 -6 -7 -8
leaf_value=-0.0063404920640298054 -0.0040806034917477514 0.0013642370629434783 0 -0.00078953290690800964 0.0070309641785723598 0.0012159810623003019 0
leaf_weight=102 26 39 24 57 108 31 23
leaf_count=102 26 39 24 57 108 31 23
internal_value=0 0.00236682 0.0051765 -0.000790608 0.00603216 0 -0.000319406
internal_weight=0 308 171 137 147 111 80
internal_count=410 308 171 137 147 111 80
is_linear=0
shrinkage=0.03


Tree=28
num_leaves=6
num_cat=0
split_feature=19 20 19 19 19
split_gain=6.48474 4.09662 2.06664 0.102924 0.000481824
threshold=0.56130021047163736 0.65244460528725268 -0.23093848106948331 1.4972784114484887 0.18690893008089679
decision_type=2 2 2 2 2
left_child=1 2 -1 -2 -4
right_child=3 -3 4 -5 -6
leaf_value=-0.0055876327558970927 0.0029057970817666498 0.005005796816200018 -2.507746435834893e-05 0.0089247852037934693 8.3792530690673088e-05
leaf_weight=170 58 49 36 45 52
leaf_count=170 58 49 36 45 52
internal_value=0 -0.00205846 -0.00371067 0.00643243 0
internal_weight=0 307 258 103 88
internal_count=410 307 258 103 88
is_linear=0
shrinkage=0.03


Tree=29
num_leaves=7
num_cat=0
split_feature=19 20 19 19 19 21
split_gain=6.15347 4.59233 0.745661 0.683117 0.0328324 0.0248113
threshold=0.3473623359626426 0.65244460528725268 -0.48498970704891409 1.3769383570371792 0.13008168216444499 2.3553007960301859
decision_type=2 2 2 2 2 2
left_child=1 2 -1 -2 -4 -3
right_child=3 5 4 -5 -6 -7
leaf_value=-0.0059515592760484041 0.002326188555785588 0.00057078676626962771 -0.0014197410291800386 0.0085127051174640651 0 0.0069834652211931015
leaf_weight=138 92 28 62 48 21 21
leaf_count=138 92 28 62 48 21 21
internal_value=0 -0.00248871 -0.00447068 0.00512091 -0.00109911 0.00487201
internal_weight=0 270 221 140 83 49
internal_count=410 270 221 140 83 49
is_linear=0
shrinkage=0.03


Tree=30
num_leaves=6
num_cat=0
split_feature=19 20 19 21 19
split_gain=5.84692 3.61922 2.01106 0.00907384 0.00427965
threshold=0.66826914772613444 0.65244460528725268 -0.23093848106948331 2.3553007960301859 0.3473623359626426
decision_type=2 2 2 2 2
left_child=1 2 -1 -3 -4
right_child=-2 3 4 -5 -6
leaf_value=-0.0052779773716412652 0.0063615143921190095 0.00055668499320745465 0 0.0068205173975891533 0.00028036736256005816
leaf_weight=170 97 28 51 21 43
leaf_count=170 97 28 51 21 43
internal_value=0 -0.00185187 -0.00338455 0.0047833 0
internal_weight=0 313 264 49 94
internal_count=410 313 264 49 94
is_linear=0
shrinkage=0.03


Tree=31
num_leaves=8
num_cat=0
split_feature=19 6 1 20 6 19 17
split_gain=5.55772 2.76176 0.758142 0.398736 0.128685 0.046376 0.0194396
threshold=-0.57524474785739621 1.0000000180025095e-35 1.0838343343726804 -0.4941949374066858 0.58094750193111266 0.3473623359626426 1.0000000180025095e-35
decision_type=2 2 2 2 2 2 2
left_child=-1 3 4 -2 -3 6 -5
right_child=1 2 -4 5 -6 -7 -8
leaf_value=-0.0057034835824742915 -0.0037801341250024993 0.0011127704183260599 0 -0.00057030422784009715 0.0063944566999807164 0.0010189851806373209 0
leaf_weight=102 23 39 24 58 108 31 25
leaf_count=102 23 39 24 58 108 31 25
internal_value=0 0.00217753 0.00470541 -0.000623156 0.00548394 0 -0.000193145
internal_weight=0 308 171 137 147 114 83
internal_count=410 308 171 137 147 114 83
is_linear=0
shrinkage=0.03


Tree=32
num_leaves=6
num_cat=0
split_feature=19 20 19 19 19
split_gain=5.2681 3.34331 1.81013 0.0131198 0.00275733
threshold=0.66826914772613444 0.65244460528725268 1.0000000180025095e-35 -0.48498970704891409 0.3473623359626426
decision_type=2 2 2 2 2
left_child=1 2 3 -1 -4
right_child=-2 -3 4 -5 -6
leaf_value=-0.005493111910861141 0.0060485780911827547 0.0046162216527895492 0 -0.0013749811922233286 0.0002250439369556855
leaf_weight=138 97 49 33 50 43
leaf_count=138 97 49 33 50 43
internal_value=0 -0.00174655 -0.00322608 -0.00478354 0
internal_weight=0 313 264 188 76
internal_count=410 313 264 188 76
is_linear=0
shrinkage=0.03


Tree=33
num_leaves=10
num_cat=0
split_feature=19 6 1 20 19 19 19 19 17
split_gain=4.98084 2.49361 0.688995 0.357257 0.111699 0.0476883 0.0773814 0.0379237 0.0155874
threshold=-0.57524474785739621 1.0000000180025095e-35 1.0838343343726804 -0.4941949374066858 1.6042473487029862 -0.48498970704891409 0.53455797615801304 0.3473623359626426 1.0000000180025095e-35
decision_type=2 2 2 2 2 2 2 2 2
left_child=-1 3 4 -2 5 -3 -7 8 -5
right_child=1 2 -4 7 -6 6 -8 -9 -10
leaf_value=-0.0053946712882154517 -0.0035680153092433665 0.0052562715284324981 0 -0.00050134204244386635 0.0081262729782611131 0 0.0018133048775295414 0.00093105492207246857 0
leaf_weight=102 23 31 24 58 42 26 48 31 25
leaf_count=102 23 31 24 58 42 26 48 31 25
internal_value=0 0.00206562 0.00446984 -0.000577308 0.00521214 0.00312969 0.00116143 0 -0.000152041
internal_weight=0 308 171 137 147 105 74 114 83
internal_count=410 308 171 137 147 105 74 114 83
is_linear=0
shrinkage=0.03


Tree=34
num_leaves=6
num_cat=0
split_feature=19 20 19 19 21
split_gain=4.76551 3.71014 0.552119 0.529474 0.00359757
threshold=0.3473623359626426 0.65244460528725268 1.4972784114484887 1.0000000180025095e-35 2.3553007960301859
decision_type=2 2 2 2 2
left_child=1 3 -2 -1 -3
right_child=2 4 -4 -5 -6
leaf_value=-0.0045567634502742625 0.0020388596303908542 0.00037581669550169916 0.0077744719123139091 0 0.0062935472031434379
leaf_weight=188 95 28 45 33 21
leaf_count=188 95 28 45 33 21
internal_value=0 -0.00215654 0.00453714 -0.00395554 0.00441279
internal_weight=0 270 140 221 49
internal_count=410 270 140 221 49
is_linear=0
shrinkage=0.03


Tree=35
num_leaves=8
num_cat=0
split_feature=19 6 1 20 6 19 19
split_gain=4.52345 2.25256 0.627842 0.32695 0.0987193 0.0301913 0.011142
threshold=-0.57524474785739621 1.0000000180025095e-35 1.0838343343726804 -0.4941949374066858 0.58094750193111266 0.3473623359626426 -0.48498970704891409
decision_type=2 2 2 2 2 2 2
left_child=-1 3 4 -2 -3 6 -5
right_child=1 2 -4 5 -6 -7 -8
leaf_value=-0.0051168244667092536 -0.0033747017075275551 0.00088154696331669885 0 0 0.0058144166938176286 0.00085175522678607217 -0.00041547048535721842
leaf_weight=102 23 39 24 29 108 31 54
leaf_count=102 23 39 24 29 108 31 54
internal_value=0 0.00199028 0.00427522 -0.000501847 0.00498375 0 -6.08168e-05
internal_weight=0 308 171 137 147 114 83
internal_count=410 308 171 137 147 114 83
is_linear=0
shrinkage=0.03


Tree=36
num_leaves=5
num_cat=0
split_feature=19 20 19 19
split_gain=4.32335 2.9038 1.34023 0.0549199
threshold=0.56130021047163736 0.65244460528725268 1.0000000180025095e-35 1.4972784114484887
decision_type=2 2 2 2
left_child=1 2 -1 -2
right_child=3 -3 -4 -5
leaf_value=-0.0043342710024684419 0.0021790727460756897 0.0042624107387594203 0 0.0074263903936919043
leaf_weight=188 58 49 70 45
leaf_count=188 58 49 70 45
internal_value=0 -0.00162261 -0.00303905 0.00530465
internal_weight=0 307 258 103
internal_count=410 307 258 103
is_linear=0
shrinkage=0.03


Tree=37
num_leaves=7
num_cat=0
split_feature=19 19 20 19 17 19
split_gain=4.09968 2.03504 1.21211 0.402508 0.0100847 0.00558942
threshold=-0.57524474785739621 0.72175361635338309 1.0277084556234513 0.039826641355962894 -0.3500408687043628 0.3473623359626426
decision_type=2 2 2 2 2 2
left_child=-1 2 3 4 -2 -5
right_child=1 -3 -4 5 -6 -7
leaf_value=-0.0048562072701234787 0 0.0055095754138060971 0.0044109032690829155 0 -0.0025853201733307767 0.00033156681133227213
leaf_weight=102 26 92 43 29 70 48
leaf_count=102 26 92 43 29 70 48
internal_value=0 0.00190816 0 -0.000876597 -0.0022116 0.000104484
internal_weight=0 308 216 173 96 77
internal_count=410 308 216 173 96 77
is_linear=0
shrinkage=0.03


Tree=38
num_leaves=6
num_cat=0
split_feature=19 20 19 19 21
split_gain=3.88365 3.10622 0.444118 0.412584 0.011273
threshold=0.3473623359626426 0.65244460528725268 1.4972784114484887 1.0000000180025095e-35 2.3553007960301859
decision_type=2 2 2 2 2
left_child=1 3 -2 -1 -3
right_child=2 4 -4 -5 -6
leaf_value=-0.0041079328639658415 0.0017908590232566146 0.00017696991973720926 0.007083967652390985 0 0.0058196126752429536
leaf_weight=188 95 28 45 33 21
leaf_count=188 95 28 45 33 21
internal_value=0 -0.00191505 0.00412438 -0.00357577 0.00405721
internal_weight=0 270 140 221 49
internal_count=410 270 140 221 49
is_linear=0
shrinkage=0.03


Tree=39
num_leaves=9
num_cat=0
split_feature=19 6 1 20 6 19 19 19
split_gain=3.71757 1.82545 0.511512 0.275019 0.0778347 0.02059 0.00310336 0.000765153
threshold=-0.57524474785739621 1.0000000180025095e-35 1.0838343343726804 -0.4941949374066858 0.58094750193111266 0.3473623359626426 -0.48498970704891409 -0.84266709099363946
decision_type=2 2 2 2 2 2 2 2
left_child=7 3 4 -2 -3 6 -5 -1
right_child=1 2 -4 5 -6 -7 -8 -9
leaf_value=-0.0052545735034642809 -0.0030347023994244373 0.00066832003990809118 0 0 0.0052892176010400837 0.00070769842915438313 -0.00021575549533008596 -4.1811530508341328e-05
leaf_weight=77 23 39 24 29 108 31 54 25
leaf_count=77 23 39 24 29 108 31 54 25
internal_value=0 0.0018335 0.0038904 -0.000369803 0.00452971 0 0 -0.00460579
internal_weight=0 308 171 137 147 114 83 102
internal_count=410 308 171 137 147 114 83 102
is_linear=0
shrinkage=0.03


Tree=40
num_leaves=5
num_cat=0
split_feature=19 20 19 19
split_gain=3.53018 2.44098 1.08878 0.0348904
threshold=0.56130021047163736 0.65244460528725268 1.0000000180025095e-35 1.4972784114484887
decision_type=2 2 2 2
left_child=1 2 -1 -2
right_child=3 -3 -4 -5
leaf_value=-0.0039186408868198738 0.0018730526987928897 0.0039235578633167525 0 0.0067672916019664089
leaf_weight=188 58 49 70 45
leaf_count=188 58 49 70 45
internal_value=0 -0.00143987 -0.0027518 0.00481658
internal_weight=0 307 258 103
internal_count=410 307 258 103
is_linear=0
shrinkage=0.03


Tree=41
num_leaves=8
num_cat=0
split_feature=19 19 20 19 21 17 19
split_gain=3.38946 1.64262 1.02453 0.285585 0.0153145 0.0131024 0.0015313
threshold=-0.57524474785739621 0.66826914772613444 1.0277084556234513 0.13008168216444499 2.3553007960301859 -0.3500408687043628 -0.84266709099363946
decision_type=2 2 2 2 2 2 2
left_child=6 2 3 5 -4 -2 -1
right_child=1 -3 4 -5 -6 -7 -8
leaf_value=-0.0050077743769948741 0 0.0048767241267758665 0 0 0.0054791253391239369 -0.002166072992975907 0
leaf_weight=77 26 97 22 64 21 78 25
leaf_count=77 26 97 22 64 21 78 25
internal_value=0 0.00175872 0 -0.000848592 0.00403247 -0.00186432 -0.00438862
internal_weight=0 308 211 168 43 104 102
internal_count=410 308 211 168 43 104 102
is_linear=0
shrinkage=0.03


Tree=42
num_leaves=8
num_cat=0
split_feature=19 6 1 20 6 19 19
split_gain=3.22953 1.56944 0.438512 0.242406 0.0579179 0.0157394 0.000780385
threshold=-0.57524474785739621 1.0000000180025095e-35 1.0838343343726804 -0.4941949374066858 0.58094750193111266 0.3473623359626426 -0.48498970704891409
decision_type=2 2 2 2 2 2 2
left_child=-1 3 4 -2 -3 6 -5
right_child=1 2 -4 5 -6 -7 -8
leaf_value=-0.0042815104629132994 -0.0028199640366023985 0.00054039026424288752 0 0 0.0049214918744799338 0.00061874984486682996 -0.00010819324851036071
leaf_weight=102 23 39 24 29 108 31 54
leaf_count=102 23 39 24 29 108 31 54
internal_value=0 0.00171868 0.0036263 -0.000295041 0.00421809 0 0
internal_weight=0 308 171 137 147 114 83
internal_count=410 308 171 137 147 114 83
is_linear=0
shrinkage=0.03


Tree=43
num_leaves=9
num_cat=0
split_feature=19 6 1 20 6 19 19 19
split_gain=3.0502 1.49319 0.416981 0.231353 0.0386525 0.0149582 0.0032265 0.000738813
threshold=-0.57524474785739621 1.0000000180025095e-35 1.0838343343726804 -0.4941949374066858 0.58094750193111266 0.3473623359626426 -0.84266709099363946 -0.48498970704891409
decision_type=2 2 2 2 2 2 2 2
left_child=6 3 4 -2 -3 7 -1 -5
right_child=1 2 -4 5 -6 -7 -8 -9
leaf_value=-0.0047492412921512515 -0.0027528683198937056 0.00052634012326598166 0 0 0.0047816178215802398 0.00060319748178527159 0 -0.00010527203753008507
leaf_weight=77 23 39 24 29 108 31 25 54
leaf_count=77 23 39 24 29 108 31 25 54
internal_value=0 0.0016708 0.00353264 -0.000284233 0.00410974 0 -0.0041602 0
internal_weight=0 308 171 137 147 114 102 83
internal_count=410 308 171 137 147 114 102 83
is_linear=0
shrinkage=0.03


Tree=44
num_leaves=5
num_cat=0
split_feature=19 20 19 19
split_gain=2.91553 2.47972 0.339952 0.286711
threshold=0.3473623359626426 0.65244460528725268 1.4972784114484887 1.0000000180025095e-35
decision_type=2 2 2 2
left_child=1 3 -2 -1
right_child=2 -3 -4 -5
leaf_value=-0.00358920500203295 0.0014543384064615952 0.0036496065469797364 0.0062224504263962014 0
leaf_weight=188 95 49 45 33
leaf_count=188 95 49 45 33
internal_value=0 -0.00163961 0.00359064 -0.00314211
internal_weight=0 270 140 221
internal_count=410 270 140 221
is_linear=0
shrinkage=0.03


Tree=45
num_leaves=9
num_cat=0
split_feature=19 19 20 19 21 21 19 19
split_gain=2.77593 1.36365 0.850865 0.261053 0.017485 0.0156347 0.00372027 0.00056143
threshold=-0.57524474785739621 0.72175361635338309 1.0277084556234513 0.13008168216444499 -0.28132556646498624 2.3553007960301859 -0.84266709099363946 0.3473623359626426
decision_type=2 2 2 2 2 2 2 2
left_child=6 2 3 4 -2 -4 -1 -5
right_child=1 -3 5 7 -6 -7 -8 -9
leaf_value=-0.0045250206198389027 -0.0022179938477094527 0.0045512390665101762 0 0 0 0.0050589079161485031 0 0.00010493599835576282
leaf_weight=77 63 92 22 21 41 21 25 48
leaf_count=77 63 92 22 21 41 21 25 48
internal_value=0 0.00159883 0 -0.000704538 -0.00171546 0.00371683 -0.00396296 3.45132e-05
internal_weight=0 308 216 173 104 43 102 69
internal_count=410 308 216 173 104 43 102 69
is_linear=0
shrinkage=0.03


Tree=46
num_leaves=10
num_cat=0
split_feature=19 6 1 20 19 19 19 19 19
split_gain=2.64398 1.28404 0.359403 0.201556 0.0369114 0.0172417 0.05903 0.0110494 0.000212639
threshold=-0.57524474785739621 1.0000000180025095e-35 1.0838343343726804 -0.4941949374066858 1.8048141060551683 -0.48498970704891409 0.58804244478526158 0.18690893008089679 -0.48498970704891409
decision_type=2 2 2 2 2 2 2 2 2
left_child=-1 3 4 -2 5 -3 -7 8 -5
right_child=1 2 -4 7 -6 6 -8 -9 -10
leaf_value=-0.0038661730426570607 -0.0025491978420779621 0.0039206423474526077 0 0 0.0064713632091879837 0 0.0013072435225227048 0.00047009370600183803 -6.0665428928377167e-05
leaf_weight=102 23 31 24 29 34 32 50 39 46
leaf_count=102 23 31 24 29 34 32 50 39 46
internal_value=0 0.00156155 0.00328862 -0.000222089 0.00382434 0.00223756 0.000695526 0 0
internal_weight=0 308 171 137 147 113 82 114 75
internal_count=410 308 171 137 147 113 82 114 75
is_linear=0
shrinkage=0.03


Tree=47
num_leaves=5
num_cat=0
split_feature=19 20 19 19
split_gain=2.5242 2.19447 0.277187 0.243965
threshold=0.3473623359626426 0.65244460528725268 1.4972784114484887 1.0000000180025095e-35
decision_type=2 2 2 2
left_child=1 3 -2 -1
right_child=2 -3 -4 -5
leaf_value=-0.00334526837690346 0.0013285463748241562 0.0034415516065941613 0.0057998710300992519 0
leaf_weight=188 95 49 45 33
leaf_count=188 95 49 45 33
internal_value=0 -0.00150827 0.003356 -0.00293201
internal_weight=0 270 140 221
internal_count=410 270 140 221
is_linear=0
shrinkage=0.03


Tree=48
num_leaves=8
num_cat=0
split_feature=19 19 20 19 21 17 19
split_gain=2.40166 1.16837 0.761309 0.206596 0.0204111 0.0198786 0.0171777
threshold=-0.57524474785739621 0.66826914772613444 1.0277084556234513 0.13008168216444499 2.3553007960301859 -0.3500408687043628 -0.84266709099363946
decision_type=2 2 2 2 2 2 2
left_child=6 2 3 5 -4 -2 -1
right_child=1 -3 4 -5 -6 -7 -8
leaf_value=-0.0042057383579976225 0 0.0041348260512702097 0 0 0.0047690820693969726 -0.0018685471799939736 0
leaf_weight=77 26 97 22 64 21 78 25
leaf_count=77 26 97 22 64 21 78 25
internal_value=0 0.00150311 0 -0.00071702 0.00348677 -0.00158227 -0.0036675
internal_weight=0 308 211 168 43 104 102
internal_count=410 308 211 168 43 104 102
is_linear=0
shrinkage=0.03


Tree=49
num_leaves=8
num_cat=0
split_feature=19 6 1 20 6 19 19
split_gain=2.28831 1.11433 0.31149 0.176162 0.0275252 0.0077758 0.00584997
threshold=-0.57524474785739621 1.0000000180025095e-35 1.0838343343726804 -0.4941949374066858 0.58094750193111266 0.18690893008089679 -0.84266709099363946
decision_type=2 2 2 2 2 2 2
left_child=6 3 4 -2 -3 -5 -1
right_child=1 2 -4 5 -6 -7 -8
leaf_value=-0.0040886871723166433 -0.0023664246281159332 0.00027302381272117292 0 0 0.004166012359292883 0.00039435515676935513 0
leaf_weight=77 23 39 24 75 108 39 25
leaf_count=77 23 39 24 75 108 39 25
internal_value=0 0.00146915 0.00307788 -0.000164142 0.00357655 0 -0.00357755
internal_weight=0 308 171 137 147 114 102
internal_count=410 308 171 137 147 114 102
is_linear=0
shrinkage=0.03


Tree=50
num_leaves=6
num_cat=0
split_feature=6 19 20 19 6
split_gain=2.18197 0.889652 0.73848 0.239782 0.0857793
threshold=-0.58094750193111244 0.72175361635338309 1.0277084556234513 0.13008168216444499 -0.96824583655185414
decision_type=2 2 2 2 2
left_child=4 2 3 -2 -1
right_child=1 -3 -4 -5 -6
leaf_value=-0.0036979604648121702 -0.0018794440412952837 0.0040341148533079088 0.0034394976476837384 0 -0.00011871951658071742
leaf_weight=85 73 92 45 67 48
leaf_count=85 73 92 45 67 48
internal_value=0 0.00167725 0.000101146 -0.000658189 -0.00289874
internal_weight=0 277 185 140 133
internal_count=410 277 185 140 133
is_linear=0
shrinkage=0.03


Tree=51
num_leaves=9
num_cat=0
split_feature=19 6 1 20 19 16 19 19
split_gain=2.0869 1.00756 0.281449 0.158629 0.0309161 0.131157 0.006482 0.000902109
threshold=-0.57524474785739621 1.0000000180025095e-35 1.0838343343726804 -0.4941949374066858 1.8048141060551683 0.7157095289648 0.18690893008089679 0.50781574184438871
decision_type=2 2 2 2 2 2 2 2
left_child=-1 3 4 -2 5 7 -5 -3
right_child=1 2 -4 6 -6 -7 -8 -9
leaf_value=-0.0034213099137155546 -0.0022388259738940616 0 0 0 0.0058468251898884773 0.0030282746311277148 0.00036005552050968008 0.00013432118110358714
leaf_weight=102 23 20 24 75 34 54 39 39
leaf_count=102 23 20 24 75 34 54 39 39
internal_value=0 0.00139865 0.00292898 -0.000134631 0.00340297 0.00190573 0 0
internal_weight=0 308 171 137 147 113 114 59
internal_count=410 308 171 137 147 113 114 59
is_linear=0
shrinkage=0.03


Tree=52
num_leaves=6
num_cat=0
split_feature=19 21 19 19 21
split_gain=1.99203 1.81702 0.22113 0.219479 0.0298473
threshold=0.3473623359626426 -0.15985772237171419 -0.23093848106948331 1.4972784114484887 2.3553007960301859
decision_type=2 2 2 2 2
left_child=1 2 -1 -2 -3
right_child=3 4 -4 -5 -6
leaf_value=-0.0032528762646265824 0.0011022029475004659 0 0 0.0052041722483494703 0.0044216976770096355
leaf_weight=166 95 33 50 45 21
leaf_count=166 95 33 50 45 21
internal_value=0 -0.00132787 -0.00270214 0.00299134 0.00288971
internal_weight=0 270 216 140 54
internal_count=410 270 216 140 54
is_linear=0
shrinkage=0.03


Tree=53
num_leaves=7
num_cat=0
split_feature=6 19 20 19 6 19
split_gain=1.88992 0.757392 0.529379 0.346075 0.0809647 0.00559092
threshold=-0.58094750193111244 1.3769383570371792 1.0277084556234513 0.18690893008089679 -0.96824583655185414 0.42758903890351557
decision_type=2 2 2 2 2 2
left_child=4 2 3 -2 -1 -5
right_child=1 -3 -4 5 -6 -7
leaf_value=-0.0034310813724532834 -0.0016533400814377648 0.0049530986841354102 0.0032426347797188688 0 -5.6104086979757991e-06 0.00096694855795552339
leaf_weight=85 79 48 45 21 48 84
leaf_count=85 79 48 45 21 48 84
internal_value=0 0.00157604 0.00050448 0 -0.00268008 0.000844256
internal_weight=0 277 229 184 133 105
internal_count=410 277 229 184 133 105
is_linear=0
shrinkage=0.03


Tree=54
num_leaves=7
num_cat=0
split_feature=19 19 20 19 21 21
split_gain=1.81692 0.92354 0.597318 0.156619 0.026145 0.0162974
threshold=-0.74906927089595432 0.66826914772613444 1.0277084556234513 0.13008168216444499 2.3553007960301859 -0.28044257599408356
decision_type=2 2 2 2 2 2
left_child=-1 2 3 5 -4 -2
right_child=1 -3 4 -5 -6 -7
leaf_value=-0.003492455555403486 -0.0017538176873989869 0.0035801936456373012 0 0 0.0042428632660044558 0
leaf_weight=88 69 97 22 64 21 49
leaf_count=88 69 97 22 64 21 49
internal_value=0 0.00122106 0 -0.00063189 0.00307233 -0.00131989
internal_weight=0 322 225 182 43 118
internal_count=410 322 225 182 43 118
is_linear=0
shrinkage=0.03


Tree=55
num_leaves=8
num_cat=0
split_feature=19 6 1 20 6 19 19
split_gain=1.72205 0.83371 0.23314 0.128299 0.0352455 0.0217339 0.00380437
threshold=-0.57524474785739621 1.0000000180025095e-35 1.0838343343726804 -0.4941949374066858 0.96824583655185437 -0.84266709099363946 0.18690893008089679
decision_type=2 2 2 2 2 2 2
left_child=5 3 4 -2 -3 -1 -5
right_child=1 2 -4 6 -6 -7 -8
leaf_value=-0.0035518589885119929 -0.0020008097749588814 0.00099411637277808051 0 0 0.004261759171156284 0 0.00027583935918907323
leaf_weight=77 23 74 24 75 73 25 39
leaf_count=77 23 74 24 75 73 25 39
internal_value=0 0.00129014 0.00268113 -6.61177e-05 0.00311247 -0.00308452 0
internal_weight=0 308 171 137 147 102 114
internal_count=410 308 171 137 147 102 114
is_linear=0
shrinkage=0.03


Tree=56
num_leaves=7
num_cat=0
split_feature=6 19 20 19 6 19
split_gain=1.64542 0.661787 0.477093 0.296262 0.0663825 0.00329729
threshold=-0.58094750193111244 1.3769383570371792 1.0277084556234513 0.18690893008089679 -0.96824583655185414 0.42758903890351557
decision_type=2 2 2 2 2 2
left_child=4 2 3 -2 -1 -5
right_child=1 -3 -4 5 -6 -7
leaf_value=-0.0031913417329305555 -0.001554323177308748 0.0046377114020287984 0.0030601170750228714 0 0 0.00084491892065852886
leaf_weight=85 79 48 45 21 48 84
leaf_count=85 79 48 45 21 48 84
internal_value=0 0.00147301 0.000452872 0 -0.00249757 0.00074303
internal_weight=0 277 229 184 133 105
internal_count=410 277 229 184 133 105
is_linear=0
shrinkage=0.03


Tree=57
num_leaves=8
num_cat=0
split_feature=19 6 1 20 6 19 19
split_gain=1.57484 0.757293 0.210621 0.115115 0.0249655 0.0147827 0.00313419
threshold=-0.57524474785739621 1.0000000180025095e-35 1.0838343343726804 -0.4941949374066858 0.96824583655185437 -0.84266709099363946 0.18690893008089679
decision_type=2 2 2 2 2 2 2
left_child=5 3 4 -2 -3 -1 -5
right_child=1 2 -4 6 -6 -7 -8
leaf_value=-0.003389116347688867 -0.0018921714982595937 0.00091597130587615537 0 0 0.0040623899815380102 0 0.00025036718292782706
leaf_weight=77 23 74 24 75 73 25 39
leaf_count=77 23 74 24 75 73 25 39
internal_value=0 0.00123316 0.00255872 -3.97371e-05 0.00296867 -0.00295027 0
internal_weight=0 308 171 137 147 102 114
internal_count=410 308 171 137 147 102 114
is_linear=0
shrinkage=0.03


Tree=58
num_leaves=6
num_cat=0
split_feature=19 21 19 19 21
split_gain=1.51204 1.46076 0.165611 0.162355 0.010634
threshold=0.3473623359626426 -0.15985772237171419 1.8048141060551683 1.0000000180025095e-35 2.3553007960301859
decision_type=2 2 2 2 2
left_child=1 3 -2 -1 -3
right_child=2 4 -4 -5 -6
leaf_value=-0.0027315757737776851 0.001072160473475898 0 0.0050505721271038055 0 0.0039138638580010999
leaf_weight=184 106 33 34 32 21
leaf_count=184 106 33 34 32 21
internal_value=0 -0.00114352 0.00261716 -0.00239328 0.00259494
internal_weight=0 270 140 216 54
internal_count=410 270 140 216 54
is_linear=0
shrinkage=0.03


Tree=59
num_leaves=7
num_cat=0
split_feature=19 19 20 19 21 19
split_gain=1.43781 0.731278 0.489281 0.13253 0.0200126 0.00798376
threshold=-0.74906927089595432 0.66826914772613444 0.65244460528725268 0.13008168216444499 2.3553007960301859 -0.51173194136253841
decision_type=2 2 2 2 2 2
left_child=-1 2 3 5 -4 -2
right_child=1 -3 4 -5 -6 -7
leaf_value=-0.0030892893644247918 0 0.0032009325360029357 0 0 0.0038225404442184504 -0.0013864721952246107
leaf_weight=88 22 97 25 64 21 93
leaf_count=88 22 97 25 64 21 93
internal_value=0 0.00110042 0 -0.000587461 0.00269082 -0.00123021
internal_weight=0 322 225 179 46 115
internal_count=410 322 225 179 46 115
is_linear=0
shrinkage=0.03


Tree=60
num_leaves=9
num_cat=0
split_feature=19 6 1 21 16 6 19 19
split_gain=1.36457 0.651325 0.181395 0.0988852 0.0223888 0.0225175 0.014336 0.00192261
threshold=-0.57524474785739621 1.0000000180025095e-35 1.0838343343726804 -0.71097769161255309 -0.97320598991891338 0.58094750193111266 -0.84266709099363946 0.18690893008089679
decision_type=2 2 2 2 2 2 2 2
left_child=6 3 4 -2 -3 -6 -1 -5
right_child=1 2 -4 7 5 -7 -8 -9
leaf_value=-0.003135752244347549 -0.0018501214883648431 0 0 0 0 0.0035392172968365522 0 0.00019609221133093038
leaf_weight=77 20 24 24 78 32 91 25 39
leaf_count=77 20 24 24 78 32 91 25 39
internal_value=0 0.00116363 0.00239037 0 0.00277078 0.00304331 -0.00272715 0
internal_weight=0 308 171 137 147 123 102 117
internal_count=410 308 171 137 147 123 102 117
is_linear=0
shrinkage=0.03


Tree=61
num_leaves=5
num_cat=0
split_feature=19 21 19 19
split_gain=1.30979 1.31499 0.145246 0.139016
threshold=0.3473623359626426 -0.15985772237171419 1.8048141060551683 -0.23093848106948331
decision_type=2 2 2 2
left_child=1 3 -2 -1
right_child=2 -3 -4 -5
leaf_value=-0.0026853867904245879 0.00096142664639046408 0.0024832545377139466 0.0047552175410091871 0
leaf_weight=166 106 54 34 50
leaf_count=166 106 54 34 50
internal_value=0 -0.00104558 0.00245129 -0.00224133
internal_weight=0 270 140 216
internal_count=410 270 140 216
is_linear=0
shrinkage=0.03


Tree=62
num_leaves=5
num_cat=0
split_feature=19 21 19 19
split_gain=1.24574 1.24875 0.130805 0.127824
threshold=0.3473623359626426 -0.15985772237171419 1.8048141060551683 1.0000000180025095e-35
decision_type=2 2 2 2
left_child=1 3 -2 -1
right_child=2 -3 -4 -5
leaf_value=-0.0024827079826316456 0.00093412899349849397 0.002416206693975255 0.0046339595206081868 0
leaf_weight=184 106 54 34 32
leaf_count=184 106 54 34 32
internal_value=0 -0.0010117 0.00239713 -0.00218109
internal_weight=0 270 140 216
internal_count=410 270 140 216
is_linear=0
shrinkage=0.03


Tree=63
num_leaves=7
num_cat=0
split_feature=19 19 20 19 21 19
split_gain=1.19294 0.600367 0.404989 0.104548 0.0256555 0.0118154
threshold=-0.74906927089595432 0.66826914772613444 0.65244460528725268 0.13008168216444499 2.3553007960301859 -0.51173194136253841
decision_type=2 2 2 2 2 2
left_child=-1 2 3 5 -4 -2
right_child=1 -3 4 -5 -6 -7
leaf_value=-0.0027899596041583629 0 0.0029274158035766658 0 0 0.003544310221655501 -0.0012436909108620249
leaf_weight=88 22 97 25 64 21 93
leaf_count=88 22 97 25 64 21 93
internal_value=0 0.00102165 0 -0.000511505 0.00246548 -0.0010852
internal_weight=0 322 225 179 46 115
internal_count=410 322 225 179 46 115
is_linear=0
shrinkage=0.03


Tree=64
num_leaves=7
num_cat=0
split_feature=19 19 21 21 19 16
split_gain=1.13155 0.563874 0.352575 0.123872 0.0273179 0.00341046
threshold=-0.74906927089595432 1.2565983026258694 2.3553007960301859 -0.71097769161255309 0.3473623359626426 0.75746488315708083
decision_type=2 2 2 2 2 2
left_child=-1 2 3 -2 5 -5
right_child=1 -3 -4 4 -6 -7
leaf_value=-0.0027116033060357288 -0.0020317618631654315 0.0036564303201533132 0.0034616095945239063 -0.0001734712894197882 0.00052295773274575665 0
leaf_weight=88 21 56 21 96 84 44
leaf_count=88 21 56 21 96 84 44
internal_value=0 0.000999448 0.000151177 0 1.09315e-05 0
internal_weight=0 322 266 245 224 140
internal_count=410 322 266 245 224 140
is_linear=0
shrinkage=0.03


Tree=65
num_leaves=9
num_cat=0
split_feature=19 19 20 19 21 19 19 21
split_gain=1.07182 0.536935 0.376282 0.0974829 0.0153494 0.0102985 0.000516416 0.00033615
threshold=-0.74906927089595432 0.66826914772613444 0.65244460528725268 0.13008168216444499 2.3553007960301859 -0.51173194136253841 1.8048141060551683 -0.28044257599408356
decision_type=2 2 2 2 2 2 2 2
left_child=-1 2 3 5 -4 -2 -3 -7
right_child=1 6 4 -5 -6 7 -8 -9
leaf_value=-0.0026354475868271385 0 0.00075801142324369557 0 0 0.0033808386874928449 -0.0014408018060631171 0.0043479055166244507 0
leaf_weight=88 22 63 25 64 21 62 34 31
leaf_count=88 22 63 25 64 21 62 34 31
internal_value=0 0.000975479 0 -0.000486888 0.002381 -0.00104285 0.00277883 -0.00119282
internal_weight=0 322 225 179 46 115 97 93
internal_count=410 322 225 179 46 115 97 93
is_linear=0
shrinkage=0.03


Tree=66
num_leaves=7
num_cat=0
split_feature=6 16 19 6 2 19
split_gain=1.02575 0.430256 0.337211 0.0706121 0.0288178 0.0131697
threshold=-0.58094750193111244 0.78160457594508281 0.3473623359626426 -0.96824583655185414 -0.27430100238847704 0.56130021047163736
decision_type=2 2 2 2 2 2
left_child=3 2 4 -1 -2 -4
right_child=1 -3 5 -5 -6 -7
leaf_value=-0.0025170847122393709 0 0.0028679425375699305 0 0 -0.0011873111704563987 0.0018357440805023848
leaf_weight=85 32 91 24 48 64 66
leaf_count=85 32 91 24 48 64 66
internal_value=0 0.00120459 1.41042e-05 -0.0019211 -0.000844495 0.00155048
internal_weight=0 277 186 133 96 90
internal_count=410 277 186 133 96 90
is_linear=0
shrinkage=0.03


Tree=67
num_leaves=7
num_cat=0
split_feature=19 19 20 19 21 21
split_gain=0.982024 0.490654 0.325254 0.100791 0.0206471 0.0142131
threshold=-0.74906927089595432 0.89557813939194142 1.0277084556234513 0.18690893008089679 -0.28044257599408356 2.3553007960301859
decision_type=2 2 2 2 2 2
left_child=-1 2 3 4 -2 -4
right_child=1 -3 5 -5 -6 -7
leaf_value=-0.0025169226801656976 -0.0012855067290365695 0.0028643995714426208 0 0 0 0.0032541535395042348
leaf_weight=88 72 83 22 72 52 21
leaf_count=88 72 83 22 72 52 21
internal_value=0 0.000938078 0 -0.000311522 -0.000921182 0.00236093
internal_weight=0 322 239 196 124 43
internal_count=410 322 239 196 124 43
is_linear=0
shrinkage=0.03


Tree=68
num_leaves=7
num_cat=0
split_feature=19 19 21 21 19 16
split_gain=0.932152 0.467421 0.293742 0.106118 0.0306113 0.00150684
threshold=-0.74906927089595432 1.3769383570371792 2.3553007960301859 -0.71097769161255309 0.3473623359626426 0.75746488315708083
decision_type=2 2 2 2 2 2
left_child=-1 2 3 -2 5 -5
right_child=1 -3 -4 4 -6 -7
leaf_value=-0.0024462347400394527 -0.0018735852423641417 0.0035721694005446301 0.0031782232108525927 -0.00011530680769390207 0.00053716946010149975 0
leaf_weight=88 21 48 21 96 92 44
leaf_count=88 21 48 21 96 92 44
internal_value=0 0.000918548 0.00017281 0 5.53002e-05 0
internal_weight=0 322 274 253 232 140
internal_count=410 322 274 253 232 140
is_linear=0
shrinkage=0.03


Tree=69
num_leaves=7
num_cat=0
split_feature=6 16 19 6 2 19
split_gain=0.891735 0.392557 0.287438 0.061406 0.0227147 0.00749818
threshold=-0.58094750193111244 0.78160457594508281 0.3473623359626426 -0.96824583655185414 -0.27430100238847704 0.56130021047163736
decision_type=2 2 2 2 2 2
left_child=3 2 4 -1 -2 -4
right_child=1 -3 5 -5 -6 -7
leaf_value=-0.0023408974819192356 0 0.00271068940484313 0 0 -0.0010977826531618901 0.0016730186215136199
leaf_weight=85 32 91 24 48 64 66
leaf_count=85 32 91 24 48 64 66
internal_value=0 0.00112699 0 -0.00178603 -0.000791596 0.00142441
internal_weight=0 277 186 133 96 90
internal_count=410 277 186 133 96 90
is_linear=0
shrinkage=0.03


Tree=70
num_leaves=8
num_cat=0
split_feature=19 6 19 16 20 19 17
split_gain=0.850176 0.437713 0.0969843 0.0627623 0.0580554 0.0139621 0.0192531
threshold=-0.74906927089595432 0.96824583655185437 0.3473623359626426 0.56664951153831145 -0.24923103510388958 0.039826641355962894 -0.3500408687043628
decision_type=2 2 2 2 2 2 2
left_child=-1 2 4 -3 5 6 -2
right_child=1 3 -4 -5 -6 -7 -8
leaf_value=-0.0023362338276421454 0 5.2944393781945108e-05 0.00092738839612929551 0.0039958801117344674 0 0 -0.0011440127211339447
leaf_weight=88 32 44 86 38 35 24 63
leaf_count=88 32 44 86 38 35 24 63
internal_value=0 0.000876981 0 0.00270984 -0.00022585 -0.00069519 -0.000850026
internal_weight=0 322 240 82 154 119 95
internal_count=410 322 240 82 154 119 95
is_linear=0
shrinkage=0.03


Tree=71
num_leaves=5
num_cat=0
split_feature=19 20 19 19
split_gain=0.816421 0.898431 0.103769 0.0905584
threshold=0.3473623359626426 -0.24923103510388958 1.8048141060551683 0.039826641355962894
decision_type=2 2 2 2
left_child=1 3 -2 -1
right_child=2 -3 -4 -5
leaf_value=-0.0020488960164239617 0.00062749085322398698 0.0020296019924132794 0.0039143525026738638 0
leaf_weight=187 106 55 34 28
leaf_count=187 106 55 34 28
internal_value=0 -0.000788034 0.00196475 -0.00181585
internal_weight=0 270 140 215
internal_count=410 270 140 215
is_linear=0
shrinkage=0.03


Tree=72
num_leaves=6
num_cat=0
split_feature=19 6 20 16 19
split_gain=0.778402 0.399948 0.0874444 0.0519196 0.0411887
threshold=-0.74906927089595432 0.96824583655185437 -0.4941949374066858 0.56664951153831145 0.3473623359626426
decision_type=2 2 2 2 2
left_child=-1 2 -2 -3 -4
right_child=1 3 4 -5 -6
leaf_value=-0.0022169818664514555 -0.0012474225337440468 2.0484352495986965e-05 0 0.0038302913215342077 0.00087628156768143682
leaf_weight=88 23 44 131 38 86
leaf_count=88 23 44 131 38 86
internal_value=0 0.000853382 0 0.0026086 0.000388016
internal_weight=0 322 240 82 217
internal_count=410 322 240 82 217
is_linear=0
shrinkage=0.03


Tree=73
num_leaves=5
num_cat=0
split_feature=19 20 19 19
split_gain=0.749276 0.828619 0.0931663 0.0644681
threshold=0.3473623359626426 0.65244460528725268 1.8048141060551683 0.039826641355962894
decision_type=2 2 2 2
left_child=1 3 -2 -1
right_child=2 -3 -4 -5
leaf_value=-0.0018841504175383527 0.00058486080841248624 0.0021435391628606753 0.0037695183176547293 0
leaf_weight=192 106 49 34 29
leaf_count=192 106 49 34 29
internal_value=0 -0.000741713 0.00189236 -0.0016855
internal_weight=0 270 140 221
internal_count=410 270 140 221
is_linear=0
shrinkage=0.03


Tree=74
num_leaves=5
num_cat=0
split_feature=19 20 19 19
split_gain=0.712944 0.787062 0.0827286 0.0801341
threshold=0.3473623359626426 -0.24923103510388958 1.8048141060551683 -0.23093848106948331
decision_type=2 2 2 2
left_child=1 3 -2 -1
right_child=2 -3 -4 -5
leaf_value=-0.0020249077036625525 0.00056825492936435958 0.0018989274977920117 0.0036733956355601547 0
leaf_weight=165 106 55 34 50
leaf_count=165 106 55 34 50
internal_value=0 -0.000713808 0.00185329 -0.00168708
internal_weight=0 270 140 215
internal_count=410 270 140 215
is_linear=0
shrinkage=0.03


Tree=75
num_leaves=6
num_cat=0
split_feature=19 6 21 16 19
split_gain=0.682449 0.351314 0.0758921 0.0456815 0.0328482
threshold=-0.74906927089595432 0.96824583655185437 -0.71097769161255309 0.79299178567997652 0.3473623359626426
decision_type=2 2 2 2 2
left_child=-1 2 -2 -3 -4
right_child=1 3 4 -5 -6
leaf_value=-0.0020525445534966568 -0.0012128490610764577 0.00029411330018774606 0 0.0040974447951542545 0.00080501305534119673
leaf_weight=88 20 54 134 28 86
leaf_count=88 20 54 134 28 86
internal_value=0 0.000816599 0 0.00246545 0.000364685
internal_weight=0 322 240 82 220
internal_count=410 322 240 82 220
is_linear=0
shrinkage=0.03


Tree=76
num_leaves=5
num_cat=0
split_feature=19 20 19 19
split_gain=0.655083 0.730513 0.07327 0.0530009
threshold=0.3473623359626426 0.65244460528725268 1.8048141060551683 0.039826641355962894
decision_type=2 2 2 2
left_child=1 3 -2 -1
right_child=2 -3 -4 -5
leaf_value=-0.0017509332903710222 0.00052888382835330312 0.0020133065025279805 0.003535311933606863 0
leaf_weight=192 106 49 34 29
leaf_count=192 106 49 34 29
internal_value=0 -0.000672431 0.00178526 -0.0015697
internal_weight=0 270 140 221
internal_count=410 270 140 221
is_linear=0
shrinkage=0.03


Tree=77
num_leaves=6
num_cat=0
split_feature=19 6 21 16 19
split_gain=0.625342 0.322777 0.0699328 0.0383797 0.0270643
threshold=-0.74906927089595432 0.96824583655185437 -0.71097769161255309 0.79299178567997652 0.3473623359626426
decision_type=2 2 2 2 2
left_child=-1 2 -2 -3 -4
right_child=1 3 4 -5 -6
leaf_value=-0.0019493275565992975 -0.0011444540937932638 0.0002527881181158591 0 0.0039389185807393754 0.00076074344548902916
leaf_weight=88 20 54 134 28 86
leaf_count=88 20 54 134 28 86
internal_value=0 0.000793083 0 0.00237603 0.000357507
internal_weight=0 322 240 82 220
internal_count=410 322 240 82 220
is_linear=0
shrinkage=0.03


Tree=78
num_leaves=5
num_cat=0
split_feature=19 20 19 19
split_gain=0.605056 0.571711 0.193118 0.0075254
threshold=0.56130021047163736 0.65244460528725268 0.039826641355962894 1.2565983026258694
decision_type=2 2 2 2
left_child=1 2 -1 -2
right_child=3 -3 -4 -5
leaf_value=-0.001672250658578405 0 0.0019382252887060697 0 0.0027825971512544538
leaf_weight=192 47 49 66 56
leaf_count=192 47 49 66 56
internal_value=0 -0.000479499 -0.00119957 0.00208376
internal_weight=0 307 258 103
internal_count=410 307 258 103
is_linear=0
shrinkage=0.03


Tree=79
num_leaves=5
num_cat=0
split_feature=19 20 19 19
split_gain=0.57643 0.57487 0.135869 0.0263111
threshold=0.53455797615801304 0.65244460528725268 0.039826641355962894 1.8850408089960411
decision_type=2 2 2 2
left_child=1 2 -1 -2
right_child=3 -3 -4 -5
leaf_value=-0.0016236033626376989 0.0005805874504533011 0.0018864218045703391 0 0.0037358306035880119
leaf_weight=192 91 49 53 25
leaf_count=192 91 49 53 25
internal_value=0 -0.00050991 -0.00126186 0.00190269
internal_weight=0 294 245 116
internal_count=410 294 245 116
is_linear=0
shrinkage=0.03


Tree=80
num_leaves=7
num_cat=0
split_feature=19 20 6 16 19 19
split_gain=0.554572 0.293962 0.145854 0.0891453 0.0182287 0.00103918
threshold=-0.74906927089595432 -0.4941949374066858 0.96824583655185437 0.79299178567997652 0.3473623359626426 -1.0298627311890096
decision_type=2 2 2 2 2 2
left_child=5 -2 4 -4 -3 -1
right_child=1 2 3 -5 -6 -7
leaf_value=-0.0021619711765511469 -0.0013182108687469737 0 0.00018428188859252257 0.0042111067016693676 0.00070521935361245159 0
leaf_weight=60 24 131 54 27 86 28
leaf_count=60 24 131 54 27 86 28
internal_value=0 0.000766394 0.00115435 0.00241406 0.00036278 -0.00180883
internal_weight=0 322 298 81 217 88
internal_count=410 322 298 81 217 88
is_linear=0
shrinkage=0.03


Tree=81
num_leaves=5
num_cat=0
split_feature=19 20 19 19
split_gain=0.533937 0.500495 0.1676 0.00109015
threshold=0.56130021047163736 0.65244460528725268 -0.34793575619158973 1.2565983026258694
decision_type=2 2 2 2
left_child=1 2 -1 -2
right_child=3 -3 -4 -5
leaf_value=-0.0016871932302144287 0 0.0018124917296438732 0 0.002617932640301484
leaf_weight=162 47 49 96 56
leaf_count=162 47 49 96 56
internal_value=0 -0.000429091 -0.00111361 0.00197215
internal_weight=0 307 258 103
internal_count=410 307 258 103
is_linear=0
shrinkage=0.03


Tree=82
num_leaves=7
num_cat=0
split_feature=19 20 6 16 19 19
split_gain=0.510284 0.275862 0.130266 0.0803722 0.0150286 0.00103917
threshold=-0.74906927089595432 -0.4941949374066858 0.96824583655185437 0.79299178567997652 0.3473623359626426 -1.0298627311890096
decision_type=2 2 2 2 2 2
left_child=5 -2 4 -4 -3 -1
right_child=1 2 3 -5 -6 -7
leaf_value=-0.002060175517743284 -0.0012460810369811952 0 0.00014713698354898951 0.0040586789900606329 0.00066836908156603933 0
leaf_weight=60 24 131 54 27 86 28
leaf_count=60 24 131 54 27 86 28
internal_value=0 0.000743278 0.0011223 0.00233063 0.000351628 -0.0017234
internal_weight=0 322 298 81 217 88
internal_count=410 322 298 81 217 88
is_linear=0
shrinkage=0.03


Tree=83
num_leaves=5
num_cat=0
split_feature=19 20 19 19
split_gain=0.49389 0.463562 0.173458 0.00205317
threshold=0.56130021047163736 -0.24923103510388958 -0.34793575619158973 1.8850408089960411
decision_type=2 2 2 2
left_child=1 2 -1 -2
right_child=3 -3 -4 -5
leaf_value=-0.0016949556397411263 0.00046564950349940249 0.0015990108601199309 0 0.0034932352133816287
leaf_weight=157 78 55 95 25
leaf_count=157 78 55 95 25
internal_value=0 -0.000403367 -0.00109998 0.0019028
internal_weight=0 307 252 103
internal_count=410 307 252 103
is_linear=0
shrinkage=0.03


Tree=84
num_leaves=4
num_cat=0
split_feature=19 20 19
split_gain=0.473463 0.441209 0.146697
threshold=0.56130021047163736 0.65244460528725268 0.13008168216444499
decision_type=2 2 2
left_child=1 2 -1
right_child=-2 -3 -4
leaf_value=-0.0014229563656641686 0.0018687642658975214 0.0016987253853373906 0
leaf_weight=200 103 49 58
leaf_count=200 103 49 58
internal_value=0 -0.000386291 -0.00103916
internal_weight=0 307 258
internal_count=410 307 258
is_linear=0
shrinkage=0.03


Tree=85
num_leaves=7
num_cat=0
split_feature=19 21 6 16 19 19
split_gain=0.451799 0.252637 0.112953 0.0737048 0.00963306 0.00346328
threshold=-0.74906927089595432 -0.71097769161255309 0.96824583655185437 0.79299178567997652 0.3473623359626426 -1.0298627311890096
decision_type=2 2 2 2 2 2
left_child=5 -2 4 -4 -3 -1
right_child=1 2 3 -5 -6 -7
leaf_value=-0.0019247872941195966 -0.0012694298351804414 0 8.6727534155215825e-05 0.0038646008954806759 0.0006053319014972658 0
leaf_weight=60 21 134 54 27 86 28
leaf_count=60 21 134 54 27 86 28
internal_value=0 0.000712469 0.00106829 0.00221535 0.000332871 -0.00160253
internal_weight=0 322 301 81 220 88
internal_count=410 322 301 81 220 88
is_linear=0
shrinkage=0.03


Tree=86
num_leaves=7
num_cat=0
split_feature=19 21 6 16 19 19
split_gain=0.433342 0.245349 0.107232 0.0630904 0.00870493 0.00104233
threshold=-0.74906927089595432 -0.71097769161255309 0.96824583655185437 0.79299178567997652 0.3473623359626426 -1.0298627311890096
decision_type=2 2 2 2 2 2
left_child=5 -2 4 -4 -3 -1
right_child=1 2 3 -5 -6 -7
leaf_value=-0.0018722931143235076 -0.0012398098036646844 0 8.4385873494284173e-05 0.0037697425383058461 0.0005883562988010057 0
leaf_weight=60 21 134 54 27 86 28
leaf_count=60 21 134 54 27 86 28
internal_value=0 0.000700173 0.00105255 0.00217775 0.000325961 -0.00156567
internal_weight=0 322 301 81 220 88
internal_count=410 322 301 81 220 88
is_linear=0
shrinkage=0.03


Tree=87
num_leaves=5
num_cat=0
split_feature=19 20 19 19
split_gain=0.41837 0.397722 0.146976 0.00701609
threshold=0.56130021047163736 -0.24923103510388958 0.13008168216444499 1.8850408089960411
decision_type=2 2 2 2
left_child=1 2 -1 -2
right_child=3 -3 -4 -5
leaf_value=-0.0014025702003351371 0.00036196497714887038 0.0014802508311514116 0 0.0032831864107039665
leaf_weight=195 78 55 57 25
leaf_count=195 78 55 57 25
internal_value=0 -0.000352258 -0.00100989 0.00176315
internal_weight=0 307 252 103
internal_count=410 307 252 103
is_linear=0
shrinkage=0.03


Tree=88
num_leaves=7
num_cat=0
split_feature=19 21 6 16 19 19
split_gain=0.402379 0.233207 0.093673 0.0534525 0.00603752 0.00094421
threshold=-0.74906927089595432 -0.71097769161255309 0.96824583655185437 0.79299178567997652 0.3473623359626426 -1.0298627311890096
decision_type=2 2 2 2 2 2
left_child=5 -2 4 -4 -3 -1
right_child=1 2 3 -5 -6 -7
leaf_value=-0.0017855994047766381 -0.0011781543203526071 0 6.1758163064951083e-05 0.0036305884813720526 0.00056179074454279466 0
leaf_weight=60 21 134 54 27 86 28
leaf_count=60 21 134 54 27 86 28
internal_value=0 0.000685182 0.00103111 0.00210937 0.000323164 -0.00149318
internal_weight=0 322 301 81 220 88
internal_count=410 322 301 81 220 88
is_linear=0
shrinkage=0.03


Tree=89
num_leaves=5
num_cat=0
split_feature=19 20 19 19
split_gain=0.388979 0.368081 0.119582 0.00412439
threshold=0.56130021047163736 0.65244460528725268 0.13008168216444499 1.2565983026258694
decision_type=2 2 2 2
left_child=1 2 -1 -2
right_child=3 -3 -4 -5
leaf_value=-0.0012846321826212976 0 0.0015514984991909428 0 0.0022778943959893961
leaf_weight=200 47 49 58 56
leaf_count=200 47 49 58 56
internal_value=0 -0.00032693 -0.000938112 0.00170803
internal_weight=0 307 258 103
internal_count=410 307 258 103
is_linear=0
shrinkage=0.03


Tree=90
num_leaves=8
num_cat=0
split_feature=19 21 19 16 21 19 19
split_gain=0.373691 0.221702 0.0819984 0.0446853 0.0169955 0.00776089 0.000768286
threshold=-0.74906927089595432 -0.71097769161255309 1.9786386290937263 0.79299178567997652 1.1963393666944679 0.3473623359626426 -1.0298627311890096
decision_type=2 2 2 2 2 2 2
left_child=6 -2 3 5 -5 -3 -1
right_child=1 2 -4 4 -6 -7 -8
leaf_value=-0.0017044441452757878 -0.0011206892339719666 0 0.0032639801582055429 0 0.0019962751207640394 0.00028334612195412146 0
leaf_weight=60 21 106 22 62 30 81 28
leaf_count=60 21 106 22 62 30 81 28
internal_value=0 0.000669072 0.00100884 0.000555519 0.00114361 0 -0.00142563
internal_weight=0 322 301 279 92 187 88
internal_count=410 322 301 279 92 187 88
is_linear=0
shrinkage=0.03


Tree=91
num_leaves=6
num_cat=0
split_feature=19 20 19 19 21
split_gain=0.360236 0.361208 0.0953824 0.0105944 0.00383757
threshold=0.53455797615801304 -0.24923103510388958 -0.34793575619158973 1.9786386290937263 2.3553007960301859
decision_type=2 2 2 2 2
left_child=1 2 -1 -2 -3
right_child=3 4 -4 -5 -6
leaf_value=-0.0014310118882789025 0.00038844515495002271 0 0 0.0031870435151670658 0.0020754501161475976
leaf_weight=157 94 34 82 22 21
leaf_count=157 94 34 82 22 21
internal_value=0 -0.000345001 -0.001006 0.00154165 0.00136014
internal_weight=0 294 239 116 55
internal_count=410 294 239 116 55
is_linear=0
shrinkage=0.03


Tree=92
num_leaves=6
num_cat=0
split_feature=19 20 19 19 21
split_gain=0.345008 0.346481 0.0907005 0.00580625 0.00179835
threshold=0.53455797615801304 -0.24923103510388958 -0.48498970704891409 1.9786386290937263 2.3553007960301859
decision_type=2 2 2 2 2
left_child=1 2 -1 -2 -3
right_child=3 4 -4 -5 -6
leaf_value=-0.0015028577758847469 0.0003774910013191402 0 0 0.0031119203567504883 0.002027023016578621
leaf_weight=134 94 34 105 22 21
leaf_count=134 94 34 105 22 21
internal_value=0 -0.000326893 -0.000978485 0.00151543 0.0013387
internal_weight=0 294 239 116 55
internal_count=410 294 239 116 55
is_linear=0
shrinkage=0.03


Tree=93
num_leaves=4
num_cat=0
split_feature=19 20 19
split_gain=0.331224 0.311148 0.115036
threshold=0.56130021047163736 -0.24923103510388958 0.13008168216444499
decision_type=2 2 2
left_child=1 2 -1
right_child=-2 -3 -4
leaf_value=-0.0012234360867079152 0.001593654835543279 0.001317768252385994 0
leaf_weight=195 103 55 57
leaf_count=195 103 55 57
internal_value=0 -0.000272356 -0.000874539
internal_weight=0 307 252
internal_count=410 307 252
is_linear=0
shrinkage=0.03


Tree=94
num_leaves=7
num_cat=0
split_feature=19 21 6 16 19 16
split_gain=0.317283 0.199221 0.0595033 0.0556544 0.00456626 0.00255327
threshold=-0.74906927089595432 -0.71097769161255309 0.96824583655185437 0.88912793822546166 -1.0298627311890096 -1.4562825610107775
decision_type=2 2 2 2 2 2
left_child=4 -2 5 -4 -1 -3
right_child=1 2 3 -5 -6 -7
leaf_value=-0.0015495555018159475 -0.0010008757437268893 0 0.0001278784641984732 0.0037537884375510307 0 0.00034128478767134522
leaf_weight=60 21 21 61 20 28 199
leaf_count=60 21 21 61 20 28 199
internal_value=0 0.000637128 0.000964175 0.00190996 -0.00128147 0.000309006
internal_weight=0 322 301 81 88 220
internal_count=410 322 301 81 88 220
is_linear=0
shrinkage=0.03


Tree=95
num_leaves=6
num_cat=0
split_feature=19 20 19 19 21
split_gain=0.305565 0.306883 0.0801191 0.0078817 0.00124877
threshold=0.53455797615801304 -0.24923103510388958 0.13008168216444499 1.9786386290937263 2.3553007960301859
decision_type=2 2 2 2 2
left_child=1 2 -1 -2 -3
right_child=3 4 -4 -5 -6
leaf_value=-0.0011750149127068136 0.00031689730393700302 0 0 0.002977649795689753 0.0019004918055401906
leaf_weight=195 94 34 44 22 21
leaf_count=195 94 34 44 22 21
internal_value=0 -0.000292162 -0.000915636 0.00143495 0.00125709
internal_weight=0 294 239 116 55
internal_count=410 294 239 116 55
is_linear=0
shrinkage=0.03


Tree=96
num_leaves=7
num_cat=0
split_feature=19 21 6 16 19 16
split_gain=0.295226 0.190404 0.0497768 0.0486428 0.00439469 0.00229378
threshold=-0.74906927089595432 -0.71097769161255309 0.96824583655185437 0.88912793822546166 -1.0298627311890096 -1.4562825610107775
decision_type=2 2 2 2 2 2
left_child=4 -2 5 -4 -1 -3
right_child=1 2 3 -5 -6 -7
leaf_value=-0.0014763172783634879 -0.00095010485500097281 0 0.00010313467687749957 0.0036243995300565771 0 0.00033774476723671639
leaf_weight=60 21 21 61 20 28 199
leaf_count=60 21 21 61 20 28 199
internal_value=0 0.000624714 0.000946446 0.00185223 -0.00121993 0.000307144
internal_weight=0 322 301 81 88 220
internal_count=410 322 301 81 88 220
is_linear=0
shrinkage=0.03


Tree=97
num_leaves=5
num_cat=0
split_feature=19 20 19 19
split_gain=0.287038 0.285634 0.0741181 0.00637557
threshold=0.53455797615801304 -0.24923103510388958 0.13008168216444499 1.2565983026258694
decision_type=2 2 2 2
left_child=1 2 -1 -2
right_child=3 -3 -4 -5
leaf_value=-0.0011287259351489927 0 0.0012131873073178482 0 0.0019839114519568431
leaf_weight=195 60 55 44 56
leaf_count=195 60 55 44 56
internal_value=0 -0.000271311 -0.000879174 0.00139756
internal_weight=0 294 239 116
internal_count=410 294 239 116
is_linear=0
shrinkage=0.03


Tree=98
num_leaves=5
num_cat=0
split_feature=19 20 19 19
split_gain=0.273891 0.270989 0.0593278 0.00485375
threshold=0.53455797615801304 0.65244460528725268 -0.48498970704891409 1.8850408089960411
decision_type=2 2 2 2
left_child=1 2 -1 -2
right_child=3 -3 -4 -5
leaf_value=-0.0012510171477303326 0.00023826986266547315 0.0012903522833843124 0 0.002711531525898364
leaf_weight=138 91 49 107 25
leaf_count=138 91 49 107 25
internal_value=0 -0.000255973 -0.000827735 0.00137024
internal_weight=0 294 245 116
internal_count=410 294 245 116
is_linear=0
shrinkage=0.03


Tree=99
num_leaves=6
num_cat=0
split_feature=19 20 19 19 21
split_gain=0.263858 0.258195 0.0678017 0.00240733 0.00207117
threshold=0.53455797615801304 -0.24923103510388958 0.13008168216444499 0.72175361635338309 2.3553007960301859
decision_type=2 2 2 2 2
left_child=1 2 -1 -2 -3
right_child=3 4 -4 -5 -6
leaf_value=-0.0010708546208968357 0 0 0 0.001511631437968724 0.001750983479950163
leaf_weight=195 24 34 44 92 21
leaf_count=195 24 34 44 92 21
internal_value=0 -0.000245032 -0.000831696 0.00134824 0.00115174
internal_weight=0 294 239 116 55
internal_count=410 294 239 116 55
is_linear=0
shrinkage=0.03


Tree=100
num_leaves=7
num_cat=0
split_feature=19 21 6 16 19 16
split_gain=0.253101 0.172776 0.0333632 0.0500132 0.00664736 0.00178539
threshold=-0.74906927089595432 -0.71097769161255309 0.96824583655185437 0.88912793822546166 -1.0298627311890096 -1.4562825610107775
decision_type=2 2 2 2 2 2
left_child=4 -2 5 -4 -1 -3
right_child=1 2 3 -5 -6 -7
leaf_value=-0.0013473597101189873 -0.00085020187414354745 0 2.5317809951088544e-05 0.0034382950845890893 0 0.0003248298540427463
leaf_weight=60 21 21 61 20 28 199
leaf_count=60 21 21 61 20 28 199
internal_value=0 0.000595753 0.000906718 0.00173669 -0.00110045 0.000297658
internal_weight=0 322 301 81 88 220
internal_count=410 322 301 81 88 220
is_linear=0
shrinkage=0.03


Tree=101
num_leaves=5
num_cat=0
split_feature=19 20 19 19
split_gain=0.244161 0.240159 0.0627541 0.00602948
threshold=0.53455797615801304 -0.24923103510388958 0.13008168216444499 1.9786386290937263
decision_type=2 2 2 2
left_child=1 2 -1 -2
right_child=3 -3 -4 -5
leaf_value=-0.0010287871744323854 0.00022663195618079042 0.0011107118909445698 0 0.0027186880792890275
leaf_weight=195 94 55 44 22
leaf_count=195 94 55 44 22
internal_value=0 -0.000226363 -0.000798622 0.00130153
internal_weight=0 294 239 116
internal_count=410 294 239 116
is_linear=0
shrinkage=0.03


Tree=102
num_leaves=7
num_cat=0
split_feature=19 21 18 16 6 19
split_gain=0.235564 0.165298 0.0292749 0.0294839 0.0328694 0.00632761
threshold=-0.74906927089595432 -0.71097769161255309 0.78142490483532179 0.78160457594508281 0.96824583655185437 -1.0298627311890096
decision_type=2 2 2 2 2 2
left_child=5 -2 3 -3 -5 -1
right_child=1 2 -4 4 -6 -7
leaf_value=-0.0012845006745985962 -0.00080635878981815431 0.00016308257807977496 0 0.00017806768399448346 0.003205746236677852 0
leaf_weight=60 21 144 60 72 25 28
leaf_count=60 21 144 60 72 25 28
internal_value=0 0.000582692 0.000888908 0.00104344 0.00168221 -0.0010478
internal_weight=0 322 301 241 97 88
internal_count=410 322 301 241 97 88
is_linear=0
shrinkage=0.03


Tree=103
num_leaves=5
num_cat=0
split_feature=19 20 19 19
split_gain=0.229601 0.221756 0.0483282 0.0012076
threshold=0.53455797615801304 0.65244460528725268 0.18690893008089679 1.4972784114484887
decision_type=2 2 2 2
left_child=1 2 -1 -2
right_child=3 -3 -4 -5
leaf_value=-0.0009267698839580846 0 0.0011605978515845806 0 0.0019658208018004455
leaf_weight=206 71 49 39 45
leaf_count=206 71 49 39 45
internal_value=0 -0.000208929 -0.000743074 0.0012675
internal_weight=0 294 245 116
internal_count=410 294 245 116
is_linear=0
shrinkage=0.03


Tree=104
num_leaves=6
num_cat=0
split_feature=19 20 19 19 21
split_gain=0.220348 0.240787 0.0204536 0.0116821 0.001482
threshold=0.3473623359626426 -0.24923103510388958 -0.48498970704891409 1.9786386290937263 2.3553007960301859
decision_type=2 2 2 2 2
left_child=1 2 -1 -2 -3
right_child=3 4 -4 -5 -6
leaf_value=-0.0011574924363189243 0.00025329892159319455 0 0 0.0025752260429518564 0.0015721011285980543
leaf_weight=134 118 34 81 22 21
leaf_count=134 118 34 81 22 21
internal_value=0 -0.000254317 -0.000874894 0.00111997 0.00103541
internal_weight=0 270 215 140 55
internal_count=410 270 215 140 55
is_linear=0
shrinkage=0.03


Tree=105
num_leaves=4
num_cat=0
split_feature=19 20 19
split_gain=0.211855 0.201844 0.043894
threshold=0.53455797615801304 0.65244460528725268 0.18690893008089679
decision_type=2 2 2
left_child=1 2 -1
right_child=-2 -3 -4
leaf_value=-0.00087780499921585571 0.0012259616059457242 0.0011115705472501841 0
leaf_weight=206 116 49 39
leaf_count=206 116 49 39
internal_value=0 -0.000183923 -0.000702444
internal_weight=0 294 245
internal_count=410 294 245
is_linear=0
shrinkage=0.03


Tree=106
num_leaves=6
num_cat=0
split_feature=19 21 2 6 16
split_gain=0.204093 0.144952 0.0314669 0.0145527 0.0317368
threshold=-0.84266709099363946 -0.71097769161255309 1.391265628239182 0.96824583655185437 0.88912793822546166
decision_type=2 2 2 2 2
left_child=-1 -2 3 -3 -5
right_child=1 2 -4 4 -6
leaf_value=-0.001043258957895843 -0.00072100100210971299 0.00031667650149970808 0 0 0.0031644140058555282
leaf_weight=77 21 215 22 55 20
leaf_count=77 21 215 22 55 20
internal_value=0 0.000532464 0.000817523 0.00090205 0.00169162
internal_weight=0 333 312 290 75
internal_count=410 333 312 290 75
is_linear=0
shrinkage=0.03


Tree=107
num_leaves=4
num_cat=0
split_feature=19 20 19
split_gain=0.195638 0.172831 0.0562439
threshold=0.56130021047163736 0.65244460528725268 0.18690893008089679
decision_type=2 2 2
left_child=1 2 -1
right_child=-2 -3 -4
leaf_value=-0.00084304757279515222 0.001257676663325241 0.0010595727039564569 0
leaf_weight=206 103 49 52
leaf_count=206 103 49 52
internal_value=0 -0.000141371 -0.000615627
internal_weight=0 307 258
internal_count=410 307 258
is_linear=0
shrinkage=0.03


Tree=108
num_leaves=9
num_cat=0
split_feature=19 21 2 18 16 6 19 16
split_gain=0.188451 0.138188 0.0295916 0.0123874 0.0160299 0.0185439 0.00186858 2.7154e-05
threshold=-0.84266709099363946 -0.71097769161255309 1.391265628239182 0.78142490483532179 0.78160457594508281 0.96824583655185437 -1.0967183169730703 -0.301461099334078
decision_type=2 2 2 2 2 2 2 2
left_child=6 -2 3 4 7 -6 -1 -3
right_child=1 2 -4 -5 5 -7 -8 -9
leaf_value=-0.0012210557350356664 -0.00068450664273566665 0.00017525405133222567 0 0 0.00012858655422370738 0.0029357656635599391 0 0
leaf_weight=50 21 76 22 56 72 25 27 61
leaf_count=50 21 76 22 56 72 25 27 61
internal_value=0 0.000516249 0.000797138 0.000878995 0.000999683 0.00156348 -0.000992824 0.000132066
internal_weight=0 333 312 290 234 97 77 137
internal_count=410 333 312 290 234 97 77 137
is_linear=0
shrinkage=0.03


Tree=109
num_leaves=8
num_cat=0
split_feature=19 21 2 18 16 6 19
split_gain=0.181772 0.135258 0.0290701 0.0116225 0.0137228 0.0128235 0.000961285
threshold=-0.84266709099363946 -0.71097769161255309 1.391265628239182 0.78142490483532179 0.78160457594508281 0.96824583655185437 -1.0967183169730703
decision_type=2 2 2 2 2 2 2
left_child=6 -2 3 4 -3 -6 -1
right_child=1 2 -4 -5 5 -7 -8
leaf_value=-0.001188348936183112 -0.00066853475860423513 0.00012927130751240137 0 0 0.00012502569483611016 0.0028647390434578539 0
leaf_weight=50 21 137 22 56 72 25 27
leaf_count=50 21 137 22 56 72 25 27
internal_value=0 0.000509028 0.000788084 0.000869268 0.000987686 0.00153941 -0.000970756
internal_weight=0 333 312 290 234 97 77
internal_count=410 333 312 290 234 97 77
is_linear=0
shrinkage=0.03


Tree=110
num_leaves=5
num_cat=0
split_feature=19 20 19 19
split_gain=0.177136 0.193955 0.0146592 0.0133834
threshold=0.3473623359626426 -0.24923103510388958 -0.48498970704891409 1.9786386290937263
decision_type=2 2 2 2
left_child=1 2 -1 -2
right_child=3 -3 -4 -5
leaf_value=-0.0010287519055751284 0.00017278295654367897 0.00091678787113003211 0 0.0023786834653999125
leaf_weight=134 118 55 81 22
leaf_count=134 118 55 81 22
internal_value=0 -0.000205749 -0.000781497 0.00101389
internal_weight=0 270 215 140
internal_count=410 270 215 140
is_linear=0
shrinkage=0.03


Tree=111
num_leaves=6
num_cat=0
split_feature=19 20 19 19 21
split_gain=0.171011 0.18499 0.0134505 0.00983019 0.000751781
threshold=0.3473623359626426 -0.24923103510388958 0.13008168216444499 1.9786386290937263 2.3553007960301859
decision_type=2 2 2 2 2
left_child=1 2 -1 -2 -3
right_child=3 4 -4 -5 -6
leaf_value=-0.00083663621338765453 0.00016785027384157142 0 0 0.0023226144963077134 0.0013500474807288912
leaf_weight=195 118 34 20 22 21
leaf_count=195 118 34 20 22 21
internal_value=0 -0.000196246 -0.000762784 0.00099895 0.000891989
internal_weight=0 270 215 140 55
internal_count=410 270 215 140 55
is_linear=0
shrinkage=0.03


Tree=112
num_leaves=7
num_cat=0
split_feature=19 21 2 18 16 19
split_gain=0.16462 0.127822 0.0269618 0.00958535 0.0105531 0.00183632
threshold=-0.84266709099363946 -0.71097769161255309 1.391265628239182 0.78142490483532179 -0.93651579411537489 -1.0967183169730703
decision_type=2 2 2 2 2 2
left_child=5 -2 3 4 -3 -1
right_child=1 2 -4 -5 -6 -7
leaf_value=-0.0011095332780054637 -0.00061169603839516639 0 0 0 0.0010315574429583766 0
leaf_weight=50 21 23 22 56 211 27
leaf_count=50 21 23 22 56 211 27
internal_value=0 0.000496552 0.000769959 0.000847866 0.0009605 -0.000900381
internal_weight=0 333 312 290 234 77
internal_count=410 333 312 290 234 77
is_linear=0
shrinkage=0.03


Tree=113
num_leaves=6
num_cat=0
split_feature=19 20 19 19 21
split_gain=0.159863 0.173504 0.0118556 0.00855445 0.000982484
threshold=0.3473623359626426 -0.24923103510388958 0.13008168216444499 1.9786386290937263 2.3553007960301859
decision_type=2 2 2 2 2
left_child=1 2 -1 -2 -3
right_child=3 4 -4 -5 -6
leaf_value=-0.00081104218035435937 0.00014608764006087798 0 0 0.00224576238276703 0.0012944767375787098
leaf_weight=195 118 34 20 22 21
leaf_count=195 118 34 20 22 21
internal_value=0 -0.00018796 -0.000741607 0.000965727 0.000852757
internal_weight=0 270 215 140 55
internal_count=410 270 215 140 55
is_linear=0
shrinkage=0.03


Tree=114
num_leaves=6
num_cat=0
split_feature=19 20 19 19 21
split_gain=0.153713 0.165844 0.0111958 0.00563811 0.000197225
threshold=0.3473623359626426 -0.24923103510388958 0.039826641355962894 0.56130021047163736 2.3553007960301859
decision_type=2 2 2 2 2
left_child=1 2 -1 -2 -3
right_child=3 4 -4 -5 -6
leaf_value=-0.0008037685430874092 0 0 0 0.001122758445359869 0.0012642723114954099
leaf_weight=187 37 34 28 103 21
leaf_count=187 37 34 28 103 21
internal_value=0 -0.000173724 -0.000720138 0.000952033 0.000839388
internal_weight=0 270 215 140 55
internal_count=410 270 215 140 55
is_linear=0
shrinkage=0.03


Tree=115
num_leaves=8
num_cat=0
split_feature=19 21 2 18 16 19 16
split_gain=0.146735 0.119098 0.02424 0.00750156 0.0113259 0.00244914 0.000343248
threshold=-0.84266709099363946 -0.71097769161255309 1.391265628239182 0.78142490483532179 0.78160457594508281 -1.0967183169730703 -0.301461099334078
decision_type=2 2 2 2 2 2 2
left_child=5 -2 3 4 6 -1 -3
right_child=1 2 -4 -5 -6 -7 -8
leaf_value=-0.0010382899229547807 -0.00055974419539173441 0.00013534537197279505 0 0 0.0014365064781000927 0 0
leaf_weight=50 21 76 22 56 97 27 61
leaf_count=50 21 76 22 56 97 27 61
internal_value=0 0.000474262 0.000741786 0.000815381 0.000920927 -0.000837138 9.13452e-05
internal_weight=0 333 312 290 234 77 137
internal_count=410 333 312 290 234 77 137
is_linear=0
shrinkage=0.03


Tree=116
num_leaves=7
num_cat=0
split_feature=19 20 19 19 21 21
split_gain=0.141629 0.154062 0.0101939 0.00948824 0.0041794 0.000550716
threshold=0.3473623359626426 -0.24923103510388958 -0.23093848106948331 1.9786386290937263 -0.28394502364580032 2.3553007960301859
decision_type=2 2 2 2 2 2
left_child=1 2 4 -2 -1 -3
right_child=3 5 -4 -5 -6 -7
leaf_value=-0.0010531539197028098 0.00010799475794849587 0 0 0.0021485611876206736 0 0.0012108307869897947
leaf_weight=102 118 34 50 22 63 21
leaf_count=102 118 34 50 22 63 21
internal_value=0 -0.000162454 -0.000695332 0.000914733 -0.000823716 0.000800506
internal_weight=0 270 215 140 165 55
internal_count=410 270 215 140 165 55
is_linear=0
shrinkage=0.03


Tree=117
num_leaves=5
num_cat=0
split_feature=19 20 19 19
split_gain=0.137028 0.148652 0.00988719 0.00634198
threshold=0.3473623359626426 -0.24923103510388958 -0.48498970704891409 1.9786386290937263
decision_type=2 2 2 2
left_child=1 2 -1 -2
right_child=3 -3 -4 -5
leaf_value=-0.00089168480434454974 0.00010491168632964423 0.00078800025717622494 0 0.0020979164993124347
leaf_weight=134 118 55 81 22
leaf_count=134 118 55 81 22
internal_value=0 -0.000153542 -0.000680749 0.000902402
internal_weight=0 270 215 140
internal_count=410 270 215 140
is_linear=0
shrinkage=0.03


Tree=118
num_leaves=6
num_cat=0
split_feature=19 20 19 19 21
split_gain=0.132688 0.141806 0.00921766 0.00388255 0.000820022
threshold=0.3473623359626426 -0.24923103510388958 0.13008168216444499 0.56130021047163736 2.3553007960301859
decision_type=2 2 2 2 2
left_child=1 2 -1 -2 -3
right_child=3 4 -4 -5 -6
leaf_value=-0.00072581886887244549 0 0 0 0.0010459106760270414 0.0011641914521654446
leaf_weight=195 37 34 20 103 21
leaf_count=195 37 34 20 103 21
internal_value=0 -0.000145265 -0.00066453 0.000890375 0.000766686
internal_weight=0 270 215 140 55
internal_count=410 270 215 140 55
is_linear=0
shrinkage=0.03


Tree=119
num_leaves=7
num_cat=0
split_feature=19 21 2 18 16 19
split_gain=0.127903 0.109209 0.0215615 0.00607923 0.00810051 0.00343779
threshold=-0.84266709099363946 -0.71097769161255309 1.391265628239182 0.78142490483532179 -0.93651579411537489 -1.0967183169730703
decision_type=2 2 2 2 2 2
left_child=5 -2 3 4 -3 -1
right_child=1 2 -4 -5 -6 -7
leaf_value=-0.00095506097722266399 -0.00048634969111945893 0 0 0 0.00094402240500440727 0
leaf_weight=50 21 23 22 56 211 27
leaf_count=50 21 23 22 56 211 27
internal_value=0 0.000452188 0.000712023 0.000781163 0.000880566 -0.000760357
internal_weight=0 333 312 290 234 77
internal_count=410 333 312 290 234 77
is_linear=0
shrinkage=0.03


Tree=120
num_leaves=16
num_cat=0
split_feature=19 19 20 19 18 20 18 20 19 21 21 16 6 18 18
split_gain=16.7019 13.3011 6.02296 4.92841 6.47022 1.47201 1.36254 0.853763 0.67848 0.84166 0.569303 0.367678 0.207793 0.136355 0.0824603
threshold=2.1370863674019507 -1.2712113958694686 3.5367642549546412 -0.094553086069999057 2.7345627080802966 -0.44624455653039402 0.082739759527018175 0.93597729220793546 0.45031993807009646 0.1712436553975695 0.1712436553975695 -7.2766547406741848 1.0000000180025095e-35 -0.25159622440631385 -22.939334131965662
decision_type=2 2 2 2 2 2 2 2 2 2 2 2 2 2 2
left_child=1 10 3 4 7 12 -2 11 -7 -10 -1 14 -5 -9 -3
right_child=6 2 -4 5 -6 8 -8 13 9 -11 -12 -13 -14 -15 -16
leaf_value=-0.0031860124465913093 0.0032391302534038337 0 0.010084636368249592 0 -0.0071564537952774343 0 0.015090178344398734 0.0017819838304157284 0.00053590517428043919 0.0046496664129644276 -0.0097675979117008097 -0.00057986349789667627 -0.0027401384602543776 0 -0.0027392629748938776
leaf_weight=52 35 24 32 73 265 165 42 49 174 86 213 225 109 45 328
leaf_count=52 35 24 32 73 265 165 42 49 174 86 213 225 109 45 328
internal_value=0 -0.0026074 -0.00149865 -0.00181574 -0.00317874 0.000198669 0.0110498 -0.00146967 0.00124918 0.00219636 -0.00879665 -0.00193316 -0.00189687 0.000720633 -0.00260638
internal_weight=0 1840 1575 1543 936 607 77 671 425 260 265 577 182 94 352
internal_count=1917 1840 1575 1543 936 607 77 671 425 260 265 577 182 94 352
is_linear=0
shrinkage=0.03


Tree=121
num_leaves=16
num_cat=0
split_feature=19 19 20 19 18 20 18 20 19 21 21 16 6 18 16
split_gain=15.876 12.5566 5.72172 4.64852 6.08063 1.39672 1.25281 0.809801 0.647692 0.787454 0.498222 0.339636 0.191303 0.130239 0.0751069
threshold=2.1370863674019507 -1.2712113958694686 3.5367642549546412 -0.094553086069999057 2.7345627080802966 -0.44624455653039402 0.082739759527018175 0.93597729220793546 0.45031993807009646 0.1712436553975695 0.1712436553975695 -7.2766547406741848 1.0000000180025095e-35 -0.25159622440631385 -19.583900081290608
decision_type=2 2 2 2 2 2 2 2 2 2 2 2 2 2 2
left_child=1 10 3 4 7 12 -2 11 -7 -10 -1 14 -5 -9 -3
right_child=6 2 -4 5 -6 8 -8 13 9 -11 -12 -13 -14 -15 -16
leaf_value=-0.0031003197834923351 0.0031561769567793464 0 0.0098298666273292732 0 -0.0069465135760962736 0 0.014694061372429132 0.0017343562552268848 0.00052036392414205089 0.0045192735745703148 -0.0094825981741082175 -0.00056291943385761666 -0.002662223214202601 0 -0.0026587863115354687
leaf_weight=52 35 24 32 73 265 165 42 49 174 86 213 225 109 45 328
leaf_count=52 35 24 32 73 265 165 42 49 174 86 213 225 109 45 328
internal_value=0 -0.00253318 -0.00145461 -0.00176454 -0.00308835 0.000189153 0.0107797 -0.00142795 0.00121486 0.00214075 -0.008548 -0.00188021 -0.00184921 0.000694438 -0.00253109
internal_weight=0 1840 1575 1543 936 607 77 671 425 260 265 577 182 94 352
internal_count=1917 1840 1575 1543 936 607 77 671 425 260 265 577 182 94 352
is_linear=0
shrinkage=0.03


Tree=122
num_leaves=16
num_cat=0
split_feature=19 19 20 19 18 21 20 16 18 18 19 21 16 13 19
split_gain=15.1043 11.9968 5.39717 4.63415 6.05652 1.60317 0.846147 0.613266 0.566671 0.565191 0.524686 0.432449 0.272728 0.191543 0.132732
threshold=2.1785368305880684 -1.2712113958694686 3.5367642549546412 0.19827437966418729 2.7345627080802966 0.17048439412793462 -0.73811644012521471 -16.871684128480378 0.082739759527018175 -19.299891687668374 0.46034827593770561 0.1712436553975695 -2.0616869387334362 1.563544883708518 -0.30982807229467479
decision_type=2 2 2 2 2 2 2 2 2 2 2 2 2 2 2
left_child=1 11 3 4 6 9 -3 -8 -2 13 -7 -1 14 -5 -9
right_child=8 2 -4 5 -6 10 7 12 -10 -11 -12 -13 -14 -15 -16
leaf_value=-0.003016931819328075 0.0033576239261995343 -0.002958534252064379 0.0095815331660407156 0 -0.0065554332881013755 0 0.0025844869184372728 -0.0019756349929025757 0.014592616279919942 0.00044457770265699897 0.0048541684324498579 -0.0092059140785099702 0 -0.0024207357685060871 0
leaf_weight=52 28 213 32 31 285 43 37 197 39 238 82 213 262 106 59
leaf_count=52 28 213 32 31 285 43 37 197 39 238 82 213 262 106 59
internal_value=0 -0.00242523 -0.00137659 -0.00167687 -0.00281178 0.000599655 -0.00130496 -0.00053854 0.0113812 -0.000248254 0.00349626 -0.00830656 -0.000903156 -0.00183959 -0.00160257
internal_weight=0 1850 1585 1553 1053 500 768 555 67 375 125 265 518 137 256
internal_count=1917 1850 1585 1553 1053 500 768 555 67 375 125 265 518 137 256
is_linear=0
shrinkage=0.03


Tree=123
num_leaves=16
num_cat=0
split_feature=19 19 20 19 18 21 18 20 16 13 21 19 21 16 19
split_gain=14.371 11.1958 5.1628 4.16983 5.63007 1.36044 1.05076 0.788945 0.592076 0.504762 0.371637 0.371625 0.310047 0.254015 0.112184
threshold=2.1370863674019507 -1.2712113958694686 3.5367642549546412 0.11938478843899554 2.7345627080802966 -0.25251421490401699 0.082739759527018175 -0.73811644012521471 -16.871684128480378 2.030851556816907 0.1712436553975695 0.46034827593770561 0.1712436553975695 -2.0616869387334362 -0.30982807229467479
decision_type=2 2 2 2 2 2 2 2 2 2 2 2 2 2 2
left_child=1 10 3 4 7 9 -2 -3 -9 -5 -1 -7 -13 14 -10
right_child=6 2 -4 5 -6 11 -8 8 13 -11 -12 12 -14 -15 -16
leaf_value=-0.0029357867401518761 0.0030063771445122435 -0.0029244294961896762 0.0093394732769382614 0 -0.0064143535691407877 0 0.01394354559481144 0.0025177710977664523 -0.0019181177636213931 -0.0025387128072907215 -0.0089373032360860732 0.00041480533325764004 0.0045744943607964415 0 0
leaf_weight=52 35 205 32 209 280 73 42 37 197 90 213 67 78 250 57
leaf_count=52 35 205 32 209 280 73 42 37 197 90 213 67 78 250 57
internal_value=0 -0.00239012 -0.00136915 -0.00166528 -0.00277579 0.0004304 0.0102717 -0.00129005 -0.000535758 -0.000734266 -0.00807212 0.00227255 0.00314264 -0.000904557 -0.00157615
internal_weight=0 1840 1575 1543 1026 517 77 746 541 299 265 218 145 504 254
internal_count=1917 1840 1575 1543 1026 517 77 746 541 299 265 218 145 504 254
is_linear=0
shrinkage=0.03


Tree=124
num_leaves=16
num_cat=0
split_feature=19 19 20 19 18 21 20 16 18 19 18 21 16 13 19
split_gain=13.6848 10.7047 4.86818 4.16144 5.34593 1.43539 0.743151 0.556671 0.512055 0.454897 0.429341 0.323113 0.23972 0.174253 0.0832278
threshold=2.1785368305880684 -1.2712113958694686 3.5367642549546412 0.19827437966418729 2.7345627080802966 0.17048439412793462 -0.73811644012521471 -16.871684128480378 -19.299891687668374 0.46034827593770561 0.082739759527018175 1.0000000180025095e-35 -6.4879683033450606 1.563544883708518 -0.2175673639126709
decision_type=2 2 2 2 2 2 2 2 2 2 2 2 2 2 2
left_child=1 11 3 4 6 8 -3 -8 13 -7 -2 -1 14 -5 -9
right_child=10 2 -4 5 -6 9 7 12 -10 -11 -12 -13 -14 -15 -16
leaf_value=-0.0010050397507571191 0.0032003957526210475 -0.0027897377488879513 0.0091035287317476777 0 -0.0061776686145578385 0 0.0024527774528102127 -0.0018038962348509813 0.00042879370933390971 0.0045824305523737251 0.01385067617893219 -0.0083306947983104764 -4.7920914506934327e-05 -0.0022984084681905055 0
leaf_weight=27 28 213 32 31 285 43 37 202 238 82 39 238 289 106 27
leaf_count=27 28 213 32 31 285 43 37 202 238 82 39 238 289 106 27
internal_value=0 -0.00228663 -0.00129361 -0.00158054 -0.00265668 0.000571861 -0.00123479 -0.000507615 -0.000222403 0.00331372 0.0108506 -0.00784449 -0.00085924 -0.00174378 -0.00160045
internal_weight=0 1850 1585 1553 1053 500 768 555 375 125 67 265 518 137 229
internal_count=1917 1850 1585 1553 1053 500 768 555 375 125 67 265 518 137 229
is_linear=0
shrinkage=0.03


Tree=125
num_leaves=16
num_cat=0
split_feature=19 19 20 19 18 20 19 21 20 20 18 21 16 6 18
split_gain=13.0196 10.1087 4.65333 4.2743 4.69008 1.21165 0.584178 0.478701 0.449233 0.408698 0.368293 0.324769 0.252063 0.152658 0.0809541
threshold=2.1785368305880684 -1.2712113958694686 3.030158057000774 -0.094553086069999057 2.7345627080802966 -0.44624455653039402 0.61077334395184246 0.17500778965804517 3.9464272915716578 0.93597729220793546 0.082739759527018175 0.22253883202067135 -7.2766547406741848 1.0000000180025095e-35 -22.939334131965662
decision_type=2 2 2 2 2 2 2 2 2 2 2 2 2 2 2
left_child=1 11 3 4 9 13 -7 -8 -4 12 -2 -1 14 -5 -3
right_child=10 2 8 5 -6 6 7 -9 -10 -11 -12 -13 -14 -15 -16
leaf_value=-0.0039238008794421587 0.0031213270609869673 0 0.0015469146892719437 0 -0.0063565897085407575 0 0.00069584473309764903 0.0045696034020511435 0.010622764370507664 0 0.013490558524926503 -0.0088895725064180985 -0.00050469990332864902 -0.0023411032544859382 -0.0024006711748239731
leaf_weight=86 28 24 34 73 258 229 137 66 21 78 39 179 225 112 328
leaf_count=86 28 24 34 73 258 229 137 66 21 78 39 179 225 112 328
internal_value=0 -0.00221993 -0.00125369 -0.00160372 -0.0029063 0.00023687 0.00118601 0.0023374 0.00669986 -0.00141112 0.0105918 -0.00762199 -0.00169958 -0.001633 -0.0022745
internal_weight=0 1850 1585 1530 913 617 432 203 55 655 67 265 577 185 352
internal_count=1917 1850 1585 1530 913 617 432 203 55 655 67 265 577 185 352
is_linear=0
shrinkage=0.03


Tree=126
num_leaves=16
num_cat=0
split_feature=19 19 20 19 18 20 18 19 21 20 20 0 19 16 13
split_gain=12.3911 9.44188 4.49383 3.85935 4.40704 1.09072 0.788919 0.500934 0.563279 0.409626 0.397691 0.440398 0.277483 0.114377 0.09621
threshold=2.1370863674019507 -1.2712113958694686 3.030158057000774 -0.094553086069999057 2.7345627080802966 -0.44624455653039402 0.082739759527018175 0.45031993807009646 0.1712436553975695 3.9464272915716578 -0.73811644012521471 6.7032725726857807 -1.4356761368982585 -16.871684128480378 1.563544883708518
decision_type=2 2 2 2 2 2 2 2 2 2 2 2 2 2 2
left_child=1 12 3 4 10 14 -2 -7 -9 -4 -3 13 -1 -12 -5
right_child=6 2 9 5 -6 7 -8 8 -10 -11 11 -13 -14 -15 -16
leaf_value=-0.0088058357328165675 0.0028027679800714661 -0.0026655611929982115 0.001507468362164218 0 -0.0061702260541179298 0 0.012893924750387668 0.0004593896336155012 0.0039404775122934745 0.010374899953603743 0.001681609347773095 -0.0016674053548560335 -0.0041247278587626555 -7.1280723970435896e-05 -0.0020993308470591558
leaf_weight=166 35 186 34 57 258 165 42 174 86 21 30 221 99 218 125
leaf_count=166 35 186 34 57 258 165 42 174 86 21 30 221 99 218 125
internal_value=0 -0.00218713 -0.00124588 -0.0015925 -0.00282335 0.000170475 0.00956412 0.00108642 0.0018993 0.00656428 -0.00137022 -0.00070301 -0.00740849 0 -0.00161567
internal_weight=0 1840 1575 1520 913 607 77 425 260 55 655 469 265 248 182
internal_count=1917 1840 1575 1520 913 607 77 425 260 55 655 469 265 248 182
is_linear=0
shrinkage=0.03


Tree=127
num_leaves=16
num_cat=0
split_feature=19 19 20 19 18 21 20 13 0 20 19 19 21 21 6
split_gain=11.8017 9.03296 4.26513 3.82103 4.35227 1.18818 0.521826 0.416907 0.389341 0.372193 0.34562 0.327178 0.266516 0.26194 0.193816
threshold=2.1785368305880684 -1.2712113958694686 3.030158057000774 0.11938478843899554 2.7345627080802966 -0.25251421490401699 -0.73811644012521471 2.030851556816907 6.7032725726857807 3.9464272915716578 2.6044069120325357 0.46034827593770561 0.1712436553975695 0.17500778965804517 -1.0000000180025095e-35
decision_type=2 2 2 2 2 2 2 2 2 2 2 2 2 2 2
left_child=1 12 3 4 6 7 -3 -5 -8 -4 -2 -7 -1 -13 -6
right_child=10 2 9 5 14 11 8 -9 -10 -11 -12 13 -14 -15 -16
leaf_value=-0.0024967947181571146 0.0023900303593085656 -0.0026336060718288954 0.0014690279213245957 0 -0.0031381807536776506 0 0 -0.0022229548193740123 -0.0014705874057090839 0.010132818942268688 0.012567983968183398 0.00056178129433343807 -0.0079761761824970363 0.004459677899663065 -0.007071560114363714
leaf_weight=52 25 205 34 213 106 73 281 93 244 21 42 75 213 73 167
leaf_count=52 25 205 34 213 106 73 281 93 244 21 42 75 213 73 167
internal_value=0 -0.00209277 -0.00117699 -0.00151363 -0.00260494 0.000456767 -0.00126839 -0.000604457 -0.00059857 0.00643192 0.0101007 0.00216761 -0.00720146 0.00297285 -0.0058597
internal_weight=0 1850 1585 1530 1003 527 730 306 525 55 67 221 265 148 273
internal_count=1917 1850 1585 1530 1003 527 730 306 525 55 67 221 265 148 273
is_linear=0
shrinkage=0.03


Tree=128
num_leaves=16
num_cat=0
split_feature=19 19 20 19 18 20 19 21 20 20 1 21 0 6 6
split_gain=11.2262 8.5385 4.08328 3.6337 3.90847 1.05086 0.502104 0.377391 0.369763 0.336825 0.323934 0.24282 0.20057 0.12848 0.0800636
threshold=2.1785368305880684 -1.2712113958694686 3.030158057000774 -0.094553086069999057 2.7345627080802966 -0.44624455653039402 0.61077334395184246 0.17500778965804517 0.50755106307410935 3.9464272915716578 -0.36311060730967831 0.22253883202067135 1.0000000180025095e-35 1.0000000180025095e-35 -1.0000000180025095e-35
decision_type=2 2 2 2 2 2 2 2 2 2 2 2 2 2 2
left_child=1 11 3 4 8 13 -7 -8 12 -4 -2 -1 -3 -5 -6
right_child=10 2 9 5 14 6 7 -9 -10 -11 -12 -13 -14 -15 -16
leaf_value=-0.0035413741199907074 0.011963784289272392 0 0.0014315676771802827 0 -0.0031885460223161823 0 0.0006483508984174032 0.0042017433138486614 0 0.0098963862864507573 0.0017704637335347276 -0.0081671756751633979 -0.0018106523820580068 -0.0021629559416797453 -0.0070007495002614127
leaf_weight=86 45 54 34 73 102 229 137 66 112 21 22 179 489 112 156
leaf_count=86 45 54 34 73 102 229 137 66 112 21 22 179 489 112 156
internal_value=0 -0.00203107 -0.00113949 -0.00146966 -0.00267125 0.000220682 0.00111004 0.00217818 -0.0012956 0.00630271 0.00985926 -0.00699902 -0.00162086 -0.00151159 -0.00582759
internal_weight=0 1850 1585 1530 913 617 432 203 655 55 67 265 543 185 258
internal_count=1917 1850 1585 1530 913 617 432 203 655 55 67 265 543 185 258
is_linear=0
shrinkage=0.03


Tree=129
num_leaves=16
num_cat=0
split_feature=19 19 20 19 18 20 18 19 21 20 20 0 0 1 16
split_gain=10.6888 7.97321 3.9458 3.28182 3.69445 0.945758 0.664897 0.433456 0.461189 0.350806 0.303422 0.235494 0.189523 0.0837523 0.0557392
threshold=2.1370863674019507 -1.2712113958694686 3.030158057000774 -0.094553086069999057 2.7345627080802966 -0.44624455653039402 0.082739759527018175 0.45031993807009646 0.1712436553975695 0.50755106307410935 3.9464272915716578 1.6522211689296549 1.0000000180025095e-35 0.68028408278340446 1.0674904223406076
decision_type=2 2 2 2 2 2 2 2 2 2 2 2 2 2 2
left_child=1 11 3 4 9 13 -2 -7 -9 12 -4 -1 -3 -5 -14
right_child=6 2 10 5 -6 7 -8 8 -10 -11 -12 -13 14 -15 -16
