tree
version=v4
num_class=1
num_tree_per_iteration=1
label_index=0
max_feature_idx=50
objective=regression
feature_names=Column_0 Column_1 Column_2 Column_3 Column_4 Column_5 Column_6 Column_7 Column_8 Column_9 Column_10 Column_11 Column_12 Column_13 Column_14 Column_15 Column_16 Column_17 Column_18 Column_19 Column_20 Column_21 Column_22 Column_23 Column_24 Column_25 Column_26 Column_27 Column_28 Column_29 Column_30 Column_31 Column_32 Column_33 Column_34 Column_35 Column_36 Column_37 Column_38 Column_39 Column_40 Column_41 Column_42 Column_43 Column_44 Column_45 Column_46 Column_47 Column_48 Column_49 Column_50
feature_infos=[-0.89973541084243269:1.1114378604524273] [-1.9074863866775611:1.5068009309083947] [-1.9410630120230394:1.863659899735677] [-1.4901053067291297:1.8907905296422602] [-2.090950227390854:2.3854502594177278] [-0.85280286542244155:1.1726039399558572] [-1.5491933384829668:1.5491933384829668] [-1.5491933384829668:1.5491933384829668] [-0.89973541084243269:1.1114378604524273] none none [-0.89973541084243736:1.1114378604524224] [-0.89973541084243736:1.1114378604524224] [-0.77867889339730845:2.1222816898475667] [-0.89973541084243747:1.1114378604524227] [-1.6035674514745464:1.6035674514745464] none none none none none none none none none none none none none none none none none none none none none none none none none none none none none none none none none none none
tree_sizes=483 476 475 476 404 489 477 404 476 406 478 472 479 471 479 472 478 470 555 476 538 470 600 516 605 601 471 603 516 556 449 554 517 516 559 599 548 662 551 597 550 598 551 663 460 688 462 687 552 588 473 588 544 454 591 520 609 454 675 458 453 534 453 608 530 458 529 453 535 454 531 459 531 456 530 535 452 538 454 458 453 452 455 461 455 460 455 460 455 461 605 678 603 680 603 605 680 605 680 604 614 605 606 749 607 679 687 608 749 608 683 620 678 754 750 639 753 751 637 748

Tree=0
num_leaves=4
num_cat=0
split_feature=6 6 6
split_gain=13.8468 1.11251 0.12126
threshold=-1.0000000180025095e-35 1.0000000180025095e-35 -0.58094750193111244
decision_type=2 2 2
left_child=2 -2 -1
right_child=1 -3 -4
leaf_value=0.67235973295401863 0.68051281751512172 0.68802570197142221 0.67899181968371569
leaf_weight=95 33 114 31
leaf_count=95 33 114 31
internal_value=0.680513 0.686655 0.673394
internal_weight=0 147 126
internal_count=273 147 126
is_linear=0
shrinkage=1


Tree=1
num_leaves=4
num_cat=0
split_feature=6 6 6
split_gain=13.1161 1.03556 0.0863577
threshold=-1.0000000180025095e-35 1.0000000180025095e-35 -0.58094750193111244
decision_type=2 2 2
left_child=2 -2 -1
right_child=1 -3 -4
leaf_value=-0.0079230222544900263 0 0.0072987672584131358 -0.0014827674123886467
leaf_weight=95 33 114 31
leaf_count=95 33 114 31
internal_value=0 0.00597415 -0.00693248
internal_weight=0 147 126
internal_count=273 147 126
is_linear=0
shrinkage=0.03


Tree=2
num_leaves=4
num_cat=0
split_feature=6 6 6
split_gain=12.4249 0.963329 0.0541874
threshold=-1.0000000180025095e-35 1.0000000180025095e-35 -0.58094750193111244
decision_type=2 2 2
left_child=2 -2 -1
right_child=1 -3 -4
leaf_value=-0.0076994516658550581 0 0.0070907524097710839 -0.0014454978115453912
leaf_weight=95 33 114 31
leaf_count=95 33 114 31
internal_value=0 0.005811 -0.00675097
internal_weight=0 147 126
internal_count=273 147 126
is_linear=0
shrinkage=0.03


Tree=3
num_leaves=4
num_cat=0
split_feature=6 6 6
split_gain=11.7712 0.895537 0.0245723
threshold=-1.0000000180025095e-35 1.0000000180025095e-35 -0.58094750193111244
decision_type=2 2 2
left_child=2 -2 -1
right_child=1 -3 -4
leaf_value=-0.0074821901542715501 0 0.0068886659657582637 -0.0014091650628157563
leaf_weight=95 33 114 31
leaf_count=95 33 114 31
internal_value=0 0.0056525 -0.00657455
internal_weight=0 147 126
internal_count=273 147 126
is_linear=0
shrinkage=0.03


Tree=4
num_leaves=3
num_cat=0
split_feature=6 6
split_gain=11.153 0.864965
threshold=-1.0000000180025095e-35 0.58094750193111266
decision_type=2 2
left_child=-1 -2
right_child=1 -3
leaf_value=-0.0064030722863125528 0.0012369707441860949 0.0075912602703370469
leaf_weight=126 61 86
leaf_count=126 61 86
internal_value=0 0.00549852
internal_weight=0 147
internal_count=273 147
is_linear=0
shrinkage=0.03


Tree=5
num_leaves=4
num_cat=0
split_feature=6 6 6
split_gain=10.55 0.79657 0.0284974
threshold=-1.0000000180025095e-35 0.58094750193111266 -0.58094750193111244
decision_type=2 2 2
left_child=2 -2 -1
right_child=1 -3 -4
leaf_value=-0.0070903783616158038 0.0012031848217819387 0.0073783751060356104 -0.0012128034104102266
leaf_weight=95 61 86 31
leaf_count=95 61 86 31
internal_value=0 0.00535571 -0.00621971
internal_weight=0 147 126
internal_count=273 147 126
is_linear=0
shrinkage=0.03


Tree=6
num_leaves=4
num_cat=0
split_feature=6 6 6
split_gain=10.0094 0.755381 0.00264785
threshold=-1.0000000180025095e-35 1.0000000180025095e-35 -0.58094750193111244
decision_type=2 2 2
left_child=2 -2 -1
right_child=1 -3 -4
leaf_value=-0.0068903031384590823 0 0.0063534108940511945 -0.0011823193954203176
leaf_weight=95 33 114 31
leaf_count=95 33 114 31
internal_value=0 0.0052169 -0.00605808
internal_weight=0 147 126
internal_count=273 147 126
is_linear=0
shrinkage=0.03


Tree=7
num_leaves=3
num_cat=0
split_feature=6 6
split_gain=9.48542 0.709588
threshold=-1.0000000180025095e-35 0.58094750193111266
decision_type=2 2
left_child=-1 -2
right_child=1 -3
leaf_value=-0.0059009812771215692 0.0010906670724368417 0.006993287915323416
leaf_weight=126 61 86
leaf_count=126 61 86
internal_value=0 0.00507488
internal_weight=0 147
internal_count=273 147
is_linear=0
shrinkage=0.03


Tree=8
num_leaves=4
num_cat=0
split_feature=6 6 6
split_gain=8.97404 0.667799 0.00693207
threshold=-1.0000000180025095e-35 1.0000000180025095e-35 -0.58094750193111244
decision_type=2 2 2
left_child=2 -2 -1
right_child=1 -3 -4
leaf_value=-0.0065293610951688025 0 0.0060143481597769999 -0.0010042797039086753
leaf_weight=95 33 114 31
leaf_count=95 33 114 31
internal_value=0 0.00494391 -0.005732
internal_weight=0 147 126
internal_count=273 147 126
is_linear=0
shrinkage=0.03


Tree=9
num_leaves=3
num_cat=0
split_feature=6 6
split_gain=8.50541 0.631371
threshold=-1.0000000180025095e-35 0.58094750193111266
decision_type=2 2
left_child=-1 -2
right_child=1 -3
leaf_value=-0.0055839481812224468 0.00098547339244787363 0.0066285085602683699
leaf_weight=126 61 86
leaf_count=126 61 86
internal_value=0 0.00480947
internal_weight=0 147
internal_count=273 147
is_linear=0
shrinkage=0.03


Tree=10
num_leaves=4
num_cat=0
split_feature=6 6 6
split_gain=8.04779 0.589347 0.0104609
threshold=-1.0000000180025095e-35 1.0000000180025095e-35 -0.58094750193111244
decision_type=2 2 2
left_child=2 -2 -1
right_child=1 -3 -4
leaf_value=-0.0061875495934250327 0 0.005693528099356626 -0.00083868366540283765
leaf_weight=95 33 114 31
leaf_count=95 33 114 31
internal_value=0 0.00468591 -0.00542404
internal_weight=0 147 126
internal_count=273 147 126
is_linear=0
shrinkage=0.03


Tree=11
num_leaves=4
num_cat=0
split_feature=6 6 1
split_gain=7.62868 0.561059 0.00276212
threshold=-1.0000000180025095e-35 0.58094750193111266 0.55057291264929609
decision_type=2 2 2
left_child=-1 2 -2
right_child=1 -3 -4
leaf_value=-0.0052845404889773238 0.0011332219133023606 0.0062829559437586396 0
leaf_weight=126 37 86 24
leaf_count=126 37 86 24
internal_value=0 0.00455864 0.000887175
internal_weight=0 147 61
internal_count=273 147 61
is_linear=0
shrinkage=0.03


Tree=12
num_leaves=4
num_cat=0
split_feature=6 6 6
split_gain=7.22272 0.517908 0.0133416
threshold=-1.0000000180025095e-35 1.0000000180025095e-35 -0.58094750193111244
decision_type=2 2 2
left_child=2 -2 -1
right_child=1 -3 -4
leaf_value=-0.0058638324418870532 0 0.0053916459840256722 -0.00068477572420158899
leaf_weight=95 33 114 31
leaf_count=95 33 114 31
internal_value=0 0.00444448 -0.00513321
internal_weight=0 147 126
internal_count=273 147 126
is_linear=0
shrinkage=0.03


Tree=13
num_leaves=4
num_cat=0
split_feature=6 6 1
split_gain=6.8477 0.495006 0.00431282
threshold=-1.0000000180025095e-35 0.58094750193111266 0.55057291264929609
decision_type=2 2 2
left_child=-1 2 -2
right_child=1 -3 -4
leaf_value=-0.0050017802751707759 0.0010437831876604538 0.0059555594046073754 0
leaf_weight=126 37 86 24
leaf_count=126 37 86 24
internal_value=0 0.00432396 0.000800804
internal_weight=0 147 61
internal_count=273 147 61
is_linear=0
shrinkage=0.03


Tree=14
num_leaves=4
num_cat=0
split_feature=6 6 6
split_gain=6.48377 0.454214 0.0156674
threshold=-1.0000000180025095e-35 1.0000000180025095e-35 -0.58094750193111244
decision_type=2 2 2
left_child=2 -2 -1
right_child=1 -3 -4
leaf_value=-0.0055572285822196171 0 0.0051057646174449472 -0.00054184329167411137
leaf_weight=95 33 114 31
leaf_count=95 33 114 31
internal_value=0 0.00421596 -0.00485855
internal_weight=0 147 126
internal_count=273 147 126
is_linear=0
shrinkage=0.03


Tree=15
num_leaves=4
num_cat=0
split_feature=6 6 1
split_gain=6.14819 0.436123 0.00547942
threshold=-1.0000000180025095e-35 0.58094750193111266 0.55057291264929609
decision_type=2 2 2
left_child=-1 2 -2
right_child=1 -3 -4
leaf_value=-0.004734744410326874 0.00095984442468169471 0.0056453613689898142 0
leaf_weight=126 37 86 24
leaf_count=126 37 86 24
internal_value=0 0.00410183 0.000719499
internal_weight=0 147 61
internal_count=273 147 61
is_linear=0
shrinkage=0.03


Tree=16
num_leaves=4
num_cat=0
split_feature=6 6 6
split_gain=5.82188 0.39746 0.0175192
threshold=-1.0000000180025095e-35 1.0000000180025095e-35 -0.58094750193111244
decision_type=2 2 2
left_child=2 -2 -1
right_child=1 -3 -4
leaf_value=-0.0052668114323722254 0 0.0048350355931324881 -0.00040921555731344864
leaf_weight=95 33 114 31
leaf_count=95 33 114 31
internal_value=0 0.00399967 -0.00459916
internal_weight=0 147 126
internal_count=273 147 126
is_linear=0
shrinkage=0.03


Tree=17
num_leaves=4
num_cat=0
split_feature=6 6 2
split_gain=5.52159 0.383662 0.0407405
threshold=-1.0000000180025095e-35 0.58094750193111266 0.5508443777879547
decision_type=2 2 2
left_child=-1 2 -2
right_child=1 -3 -4
leaf_value=-0.0044825601489918137 0.0012529543616664142 0.0053514546894913783 0
leaf_weight=126 35 86 26
leaf_count=126 35 86 26
internal_value=0 0.00389159 0.000642979
internal_weight=0 147 61
internal_count=273 147 61
is_linear=0
shrinkage=0.03


Tree=18
num_leaves=5
num_cat=0
split_feature=6 6 2 6
split_gain=5.2261 0.349039 0.0389754 0.0189671
threshold=-1.0000000180025095e-35 0.58094750193111266 0.5508443777879547 -0.58094750193111244
decision_type=2 2 2 2
left_child=3 2 -2 -1
right_child=1 -3 -4 -5
leaf_value=-0.0049917053922176324 0.0012208665466708381 0.0052013814243811948 0 -0.0002862601299342271
leaf_weight=95 35 86 26 31
leaf_count=95 35 86 26 31
internal_value=0 0.00379275 0.000623343 -0.0043542
internal_weight=0 147 61 126
internal_count=273 147 61 126
is_linear=0
shrinkage=0.03


Tree=19
num_leaves=4
num_cat=0
split_feature=6 6 6
split_gain=4.9653 0.32965 0.00168004
threshold=-1.0000000180025095e-35 1.0000000180025095e-35 -0.58094750193111244
decision_type=2 2 2
left_child=2 -2 -1
right_child=1 -3 -4
leaf_value=-0.004850850402940028 0 0.0044604557800485053 -0.00027906495549187462
leaf_weight=95 33 114 31
leaf_count=95 33 114 31
internal_value=0 0.00369666 -0.0042444
internal_weight=0 147 126
internal_count=273 147 126
is_linear=0
shrinkage=0.03


Tree=20
num_leaves=5
num_cat=0
split_feature=6 1 6 6
split_gain=4.7105 0.311939 0.122801 0.000850217
threshold=-1.0000000180025095e-35 1.169982944217091 1.0000000180025095e-35 -0.96824583655185414
decision_type=2 2 2 2
left_child=3 2 -2 -1
right_child=1 -3 -4 -5
leaf_value=-0.0054868574738502502 0 0 0.0047976516850419268 -0.0015014237976934321
leaf_weight=64 28 22 97 62
leaf_count=64 28 22 97 62
internal_value=0 0.00359696 0.0041538 -0.0041377
internal_weight=0 147 125 126
internal_count=273 147 125 126
is_linear=0
shrinkage=0.03


Tree=21
num_leaves=4
num_cat=0
split_feature=6 6 2
split_gain=4.47927 0.298836 0.0347276
threshold=-1.0000000180025095e-35 0.58094750193111266 0.5508443777879547
decision_type=2 2 2
left_child=-1 2 -2
right_child=1 -3 -4
leaf_value=-0.0040367380041756067 0.0010812128003311865 0.0048146604624090955 0
leaf_weight=126 35 86 26
leaf_count=126 35 86 26
internal_value=0 0.00350571 0.000498879
internal_weight=0 147 61
internal_count=273 147 61
is_linear=0
shrinkage=0.03


Tree=22
num_leaves=6
num_cat=0
split_feature=6 1 2 6 6
split_gain=4.24007 0.294027 0.10567 0.0643229 0.00653834
threshold=-1.0000000180025095e-35 1.169982944217091 -1.15437259137177 1.0000000180025095e-35 -0.96824583655185414
decision_type=2 2 2 2 2
left_child=4 2 -2 -4 -1
right_child=1 -3 3 -5 -6
leaf_value=-0.0052256387480135473 0 0 0 0.004976501707615477 -0.001349938773919883
leaf_weight=64 20 22 22 83 62
leaf_count=64 20 22 22 83 62
internal_value=0 0.0034171 0.00395696 0.00439722 -0.00392114
internal_weight=0 147 125 105 126
internal_count=273 147 125 105 126
is_linear=0
shrinkage=0.03


Tree=23
num_leaves=5
num_cat=0
split_feature=6 1 2 6
split_gain=4.03911 0.279348 0.093782 0.0487513
threshold=-1.0000000180025095e-35 1.169982944217091 -1.15437259137177 1.0000000180025095e-35
decision_type=2 2 2 2
left_child=-1 2 -2 -4
right_child=1 -3 3 -5
leaf_value=-0.0038261093629989775 0 0 0 0.0048372716783530211
leaf_weight=126 20 22 22 83
leaf_count=126 20 22 22 83
internal_value=0 0.00333611 0.00386237 0.00428558
internal_weight=0 147 125 105
internal_count=273 147 125 105
is_linear=0
shrinkage=0.03


Tree=24
num_leaves=6
num_cat=0
split_feature=6 1 2 6 6
split_gain=3.82966 0.265439 0.0826759 0.0343437 0.0128052
threshold=-1.0000000180025095e-35 1.169982944217091 -1.15437259137177 1.0000000180025095e-35 -0.58094750193111244
decision_type=2 2 2 2 2
left_child=4 2 -2 -4 -1
right_child=1 -3 3 -5 -6
leaf_value=-0.0042621988487789534 0 0 0 0.0047019367110182975 -2.7474820652403994e-06
leaf_weight=95 20 22 22 83 31
leaf_count=95 20 22 22 83 31
internal_value=0 0.00325739 0.00377043 0.00417707 -0.00371654
internal_weight=0 147 125 105 126
internal_count=273 147 125 105 126
is_linear=0
shrinkage=0.03


Tree=25
num_leaves=6
num_cat=0
split_feature=6 1 2 6 6
split_gain=3.6468 0.252258 0.0723056 0.0210273 0.0105928
threshold=-1.0000000180025095e-35 1.169982944217091 -1.15437259137177 1.0000000180025095e-35 -0.96824583655185414
decision_type=2 2 2 2 2
left_child=4 2 -2 -4 -1
right_child=1 -3 3 -5 -6
leaf_value=-0.0048604561622653687 0 0 0 0.0045703881301948522 -0.0011500291651549666
leaf_weight=64 20 22 22 83 62
leaf_count=64 20 22 22 83 62
internal_value=0 0.00318087 0.00368106 0.0040716 -0.0036245
internal_weight=0 147 125 105 126
internal_count=273 147 125 105 126
is_linear=0
shrinkage=0.03


Tree=26
num_leaves=4
num_cat=0
split_feature=6 6 2
split_gain=3.47602 0.240765 0.0281537
threshold=-1.0000000180025095e-35 0.58094750193111266 0.5508443777879547
decision_type=2 2 2
left_child=-1 2 -2
right_child=1 -3 -4
leaf_value=-0.0035375969051330515 0.00088593805225838616 0.0042813220068447936 0
leaf_weight=126 35 86 26
leaf_count=126 35 86 26
internal_value=0 0.00310648 0.000319561
internal_weight=0 147 61
internal_count=273 147 61
is_linear=0
shrinkage=0.03


Tree=27
num_leaves=6
num_cat=0
split_feature=6 1 2 6 6
split_gain=3.29077 0.23898 0.0674733 0.0144244 0.00291726
threshold=-1.0000000180025095e-35 1.169982944217091 -1.15437259137177 -0.96824583655185414 1.0000000180025095e-35
decision_type=2 2 2 2 2
left_child=3 2 -2 -1 -4
right_child=1 -3 4 -5 -6
leaf_value=-0.004630109617486596 0 0 0 -0.0010218087774838374 0.0043465753537968973
leaf_weight=64 20 22 22 62 83
leaf_count=64 20 22 22 62 83
internal_value=0 0.00302821 0.00351453 -0.00343629 0.00388903
internal_weight=0 147 125 126 105
internal_count=273 147 125 126 105
is_linear=0
shrinkage=0.03


Tree=28
num_leaves=5
num_cat=0
split_feature=6 1 2 6
split_gain=3.13737 0.227426 0.0586451 0.00580468
threshold=-1.0000000180025095e-35 1.169982944217091 -1.15437259137177 -0.58094750193111244
decision_type=2 2 2 2
left_child=3 2 -2 -1
right_child=1 -3 -4 -5
leaf_value=-0.003841692788369658 0 0 0.0037915266728078992 0
leaf_weight=95 20 22 105 31
leaf_count=95 20 22 105 31
internal_value=0 0.00295747 0.00343191 -0.00335455
internal_weight=0 147 125 126
internal_count=273 147 125 126
is_linear=0
shrinkage=0.03


Tree=29
num_leaves=5
num_cat=0
split_feature=6 6 2 6
split_gain=2.9793 0.222026 0.023067 0.00135069
threshold=-1.0000000180025095e-35 0.58094750193111266 0.5508443777879547 -0.96824583655185414
decision_type=2 2 2 2
left_child=3 2 -2 -1
right_child=1 -3 -4 -5
leaf_value=-0.0043977402116371581 0.00075572707088346163 0.003991420203111256 0 -0.00094131852760363137
leaf_weight=64 35 86 26 62
leaf_count=64 35 86 26 62
internal_value=0 0.00287941 0.000199092 -0.0032716
internal_weight=0 147 61 126
internal_count=273 147 61 126
is_linear=0
shrinkage=0.03


Tree=30
num_leaves=4
num_cat=0
split_feature=6 1 2
split_gain=2.83598 0.214202 0.053502
threshold=-1.0000000180025095e-35 1.169982944217091 -1.15437259137177
decision_type=2 2 2
left_child=-1 2 -2
right_child=1 -3 -4
leaf_value=-0.0031943709569432857 0 0 0.0036097821571574721
leaf_weight=126 20 22 105
leaf_count=126 20 22 105
internal_value=0 0.00280692 0.00326704
internal_weight=0 147 125
internal_count=273 147 125
is_linear=0
shrinkage=0.03


Tree=31
num_leaves=5
num_cat=0
split_feature=6 6 2 6
split_gain=2.68151 0.211 0.0193811 0.00487122
threshold=-1.0000000180025095e-35 0.58094750193111266 0.5508443777879547 -0.96824583655185414
decision_type=2 2 2 2
left_child=3 2 -2 -1
right_child=1 -3 -4 -5
leaf_value=-0.0041894994398046816 0.00067034047352513518 0.0038041523350757019 0 -0.00082819529786801844
leaf_weight=64 35 86 26 62
leaf_count=64 35 86 26 62
internal_value=0 0.0027326 0.00012098 -0.0031029
internal_weight=0 147 61 126
internal_count=273 147 61 126
is_linear=0
shrinkage=0.03


Tree=32
num_leaves=5
num_cat=0
split_feature=6 1 2 6
split_gain=2.55312 0.201855 0.0487512 0.00423942
threshold=-1.0000000180025095e-35 1.169982944217091 -1.15437259137177 1.0000000180025095e-35
decision_type=2 2 2 2
left_child=-1 2 -2 -4
right_child=1 -3 3 -5
leaf_value=-0.0030302875698014924 0 0 0 0.0038439560151564771
leaf_weight=126 20 22 22 83
leaf_count=126 20 22 22 83
internal_value=0 0.00266385 0.0031104 0.00343701
internal_weight=0 147 125 105
internal_count=273 147 125 105
is_linear=0
shrinkage=0.03


Tree=33
num_leaves=5
num_cat=0
split_feature=6 1 2 6
split_gain=2.4211 0.192468 0.0419442 0.00987744
threshold=-1.0000000180025095e-35 1.169982944217091 -1.15437259137177 -0.58094750193111244
decision_type=2 2 2 2
left_child=3 2 -2 -1
right_child=1 -3 -4 -5
leaf_value=-0.0033781061396187186 0 0 0.0033507822753037196 0
leaf_weight=95 20 22 105 31
leaf_count=95 20 22 105 31
internal_value=0 0.00260129 0.00303734 -0.00294351
internal_weight=0 147 125 126
internal_count=273 147 125 126
is_linear=0
shrinkage=0.03


Tree=34
num_leaves=5
num_cat=0
split_feature=6 6 2 6
split_gain=2.2987 0.196194 0.0141711 0.00829169
threshold=-1.0000000180025095e-35 0.58094750193111266 0.5508443777879547 -0.96824583655185414
decision_type=2 2 2 2
left_child=3 2 -2 -1
right_child=1 -3 -4 -5
leaf_value=-0.0038988143987953665 0.00055812668770824261 0.0035473194630543255 0 -0.00067645387696650097
leaf_weight=64 35 86 26 62
leaf_count=64 35 86 26 62
internal_value=0 0.00253231 1.62578e-05 -0.00287057
internal_weight=0 147 61 126
internal_count=273 147 61 126
is_linear=0
shrinkage=0.03


Tree=35
num_leaves=6
num_cat=0
split_feature=6 1 2 2 2
split_gain=2.18945 0.181501 0.0379686 0.0117858 0.0996054
threshold=-1.0000000180025095e-35 1.169982944217091 -1.15437259137177 0.48826375739776068 0.79045666563626771
decision_type=2 2 2 2 2
left_child=-1 2 -2 -4 -5
right_child=1 -3 3 4 -6
leaf_value=-0.0028043329560155554 0 0 0.0041700210652958888 0 0.0017669492179993539
leaf_weight=126 20 22 59 20 26
leaf_count=126 20 22 59 20 26
internal_value=0 0.00246866 0.00289218 0.00319056 0.000444251
internal_weight=0 147 125 105 46
internal_count=273 147 125 105 46
is_linear=0
shrinkage=0.03


Tree=36
num_leaves=5
num_cat=0
split_feature=6 6 6 2
split_gain=2.07684 0.186132 0.0106155 0.0100891
threshold=-1.0000000180025095e-35 0.58094750193111266 -0.96824583655185414 0.5508443777879547
decision_type=2 2 2 2
left_child=2 3 -1 -2
right_child=1 -3 -4 -5
leaf_value=-0.0037149565883779099 0.0004706034759377561 0.0033898765223262751 -0.00058124410149449593 0
leaf_weight=64 35 86 62 26
leaf_count=64 35 86 62 26
internal_value=0 0.00241141 -0.00272403 0
internal_weight=0 147 126 61
internal_count=273 147 126 61
is_linear=0
shrinkage=0.03


Tree=37
num_leaves=7
num_cat=0
split_feature=6 1 2 2 2 6
split_gain=1.9788 0.172439 0.0351089 0.0138668 0.0912469 0.0029622
threshold=-1.0000000180025095e-35 1.169982944217091 -1.15437259137177 0.48826375739776068 0.79045666563626771 -0.58094750193111244
decision_type=2 2 2 2 2 2
left_child=5 2 -2 -4 -5 -1
right_child=1 -3 3 4 -6 -7
leaf_value=-0.0030473334702120236 0 0 0.0039964958028151434 0 0.0016666756800259462 0
leaf_weight=95 20 22 59 20 26 31
leaf_count=95 20 22 59 20 26 31
internal_value=0 0.00235102 0.00276409 0.00304984 0.00036076 -0.0026618
internal_weight=0 147 125 105 46 126
internal_count=273 147 125 105 46 126
is_linear=0
shrinkage=0.03


Tree=38
num_leaves=5
num_cat=0
split_feature=6 6 2 6
split_gain=1.88482 0.176305 0.00687117 0.00119013
threshold=-1.0000000180025095e-35 0.58094750193111266 0.5508443777879547 -0.96824583655185414
decision_type=2 2 2 2
left_child=3 2 -2 -1
right_child=1 -3 -4 -5
leaf_value=-0.0035294765076001309 0.00038836907743044737 0.0032394176495069153 0 -0.00052366853280759907
leaf_weight=64 35 86 26 62
leaf_count=64 35 86 26 62
internal_value=0 0.00229628 0 -0.00259601
internal_weight=0 147 61 126
internal_count=273 147 61 126
is_linear=0
shrinkage=0.03


Tree=39
num_leaves=6
num_cat=0
split_feature=6 1 2 2 2
split_gain=1.79644 0.1639 0.0323962 0.0160454 0.0832225
threshold=-1.0000000180025095e-35 1.169982944217091 -1.15437259137177 0.48826375739776068 0.79045666563626771
decision_type=2 2 2 2 2
left_child=-1 2 -2 -4 -5
right_child=1 -3 3 4 -6
leaf_value=-0.0025372894929552615 0 0 0.0038310372134527336 0 0.0015713853196939454
leaf_weight=126 20 22 59 20 26
leaf_count=126 20 22 59 20 26
internal_value=0 0.00223899 0.00264216 0.00291574 0.000281338
internal_weight=0 147 125 105 46
internal_count=273 147 125 105 46
is_linear=0
shrinkage=0.03


Tree=40
num_leaves=5
num_cat=0
split_feature=6 6 2 6
split_gain=1.70377 0.166731 0.00441033 0.00339841
threshold=-1.0000000180025095e-35 0.58094750193111266 0.5508443777879547 -0.96824583655185414
decision_type=2 2 2 2
left_child=3 2 -2 -1
right_child=1 -3 -4 -5
leaf_value=-0.0033630739511655906 0.00031114636159433823 0.003095626013211744 0 -0.00043994242024114903
leaf_weight=64 35 86 26 62
leaf_count=64 35 86 26 62
internal_value=0 0.00218666 0 -0.00246463
internal_weight=0 147 61 126
internal_count=273 147 61 126
is_linear=0
shrinkage=0.03


Tree=41
num_leaves=6
num_cat=0
split_feature=6 1 2 2 2
split_gain=1.62447 0.155849 0.0298268 0.0182964 0.0755228
threshold=-1.0000000180025095e-35 1.169982944217091 -1.15437259137177 0.48826375739776068 0.79045666563626771
decision_type=2 2 2 2 2
left_child=-1 2 -2 -4 -5
right_child=1 -3 3 4 -6
leaf_value=-0.0024095141445286575 0 0 0.0036732622188730881 0 0.001480843988538254
leaf_weight=126 20 22 59 20 26
leaf_count=126 20 22 59 20 26
internal_value=0 0.00213233 0.00252609 0.00278796 0.000205795
internal_weight=0 147 125 105 46
internal_count=273 147 125 105 46
is_linear=0
shrinkage=0.03


Tree=42
num_leaves=5
num_cat=0
split_feature=6 6 6 2
split_gain=1.54054 0.157437 0.00526577 0.00259504
threshold=-1.0000000180025095e-35 0.58094750193111266 -0.96824583655185414 0.5508443777879547
decision_type=2 2 2 2
left_child=2 3 -1 -2
right_child=1 -3 -4 -5
leaf_value=-0.0032047400537079996 0.00023867191553751869 0.0029581989217347102 -0.00036200135066310931 0
leaf_weight=64 35 86 62 26
leaf_count=64 35 86 62 26
internal_value=0 0.00208228 -0.00234051 0
internal_weight=0 147 126 61
internal_count=273 147 126 61
is_linear=0
shrinkage=0.03


Tree=43
num_leaves=7
num_cat=0
split_feature=6 1 2 2 2 6
split_gain=1.46941 0.148253 0.0273969 0.0205979 0.0681383 0.000600364
threshold=-1.0000000180025095e-35 1.169982944217091 -1.15437259137177 0.48826375739776068 0.79045666563626771 -0.58094750193111244
decision_type=2 2 2 2 2 2
left_child=5 2 -2 -4 -5 -1
right_child=1 -3 3 4 -6 -7
leaf_value=-0.002617601590521523 0 0 0.0035228063189066375 0 0.0013948289191466755 0
leaf_weight=95 20 22 59 20 26 31
leaf_count=95 20 22 59 20 26 31
internal_value=0 0.00203076 0.0024156 0.0026662 0.000133952 -0.0022888
internal_weight=0 147 125 105 46 126
internal_count=273 147 125 105 46 126
is_linear=0
shrinkage=0.03


Tree=44
num_leaves=4
num_cat=0
split_feature=6 6 2
split_gain=1.39927 0.148445 0.00132735
threshold=-1.0000000180025095e-35 0.58094750193111266 0.5508443777879547
decision_type=2 2 2
left_child=-1 2 -2
right_child=1 -3 -4
leaf_value=-0.0022322826040908693 0.00017069556398271787 0.002826847772559394 0
leaf_weight=126 35 86 26
leaf_count=126 35 86 26
internal_value=0 0.0019829 0
internal_weight=0 147 61
internal_count=273 147 61
is_linear=0
shrinkage=0.03


Tree=45
num_leaves=7
num_cat=0
split_feature=6 1 2 2 2 6
split_gain=1.32549 0.141083 0.0251021 0.0229309 0.0610596 0.00779484
threshold=-1.0000000180025095e-35 1.169982944217091 -1.15437259137177 0.48826375739776068 0.79045666563626771 -0.96824583655185414
decision_type=2 2 2 2 2 2
left_child=5 2 -2 -4 -5 -1
right_child=1 -3 3 4 -6 -7
leaf_value=-0.0029838131926953793 0 0 0.0033793224210922537 0 0.0013131268654251471 -0.00025524047484128354
leaf_weight=64 20 22 59 20 26 62
leaf_count=64 20 22 59 20 26 62
internal_value=0 0.00193406 0.00231042 0.00255017 6.56358e-05 -0.00216836
internal_weight=0 147 125 105 46 126
internal_count=273 147 125 105 46 126
is_linear=0
shrinkage=0.03


Tree=46
num_leaves=4
num_cat=0
split_feature=6 6 2
split_gain=1.26617 0.139771 0.000521371
threshold=-1.0000000180025095e-35 0.58094750193111266 0.5508443777879547
decision_type=2 2 2
left_child=-1 2 -2
right_child=1 -3 -4
leaf_value=-0.0021213607767872002 0.00010698000707368298 0.002701297221077687 0
leaf_weight=126 35 86 26
leaf_count=126 35 86 26
internal_value=0 0.00188827 0
internal_weight=0 147 61
internal_count=273 147 61
is_linear=0
shrinkage=0.03


Tree=47
num_leaves=7
num_cat=0
split_feature=6 1 2 2 2 6
split_gain=1.19956 0.134311 0.0229379 0.0252786 0.0542772 0.00896731
threshold=-1.0000000180025095e-35 1.169982944217091 -1.15437259137177 0.48826375739776068 0.79045666563626771 -0.96824583655185414
decision_type=2 2 2 2 2 2
left_child=5 2 -2 -4 -5 -1
right_child=1 -3 3 4 -6 -7
leaf_value=-0.002843785670319838 0 0 0.0032424796345428778 0 0.0012355350027792155 -0.00019023347634014069
leaf_weight=64 20 22 59 20 26 62
leaf_count=64 20 22 59 20 26 62
internal_value=0 0.00184198 0.00221031 0.00243961 6.82364e-07 -0.00206061
internal_weight=0 147 125 105 46 126
internal_count=273 147 125 105 46 126
is_linear=0
shrinkage=0.03


Tree=48
num_leaves=5
num_cat=0
split_feature=6 6 6 2
split_gain=1.14611 0.131427 0.00112608 0.000101917
threshold=-1.0000000180025095e-35 0.58094750193111266 -0.96824583655185414 0.5508443777879547
decision_type=2 2 2 2
left_child=2 3 -1 -2
right_child=1 -3 -4 -5
leaf_value=-0.0027657845020294188 4.7299099018479264e-05 0.0025812848619408096 -0.00018503001196008612 0
leaf_weight=64 35 86 62 26
leaf_count=64 35 86 62 26
internal_value=0 0.00179817 -0.00201657 0
internal_weight=0 147 126 61
internal_count=273 147 126 61
is_linear=0
shrinkage=0.03


Tree=49
num_leaves=6
num_cat=0
split_feature=6 1 2 2 2
split_gain=1.09456 0.127913 0.0208994 0.027411 0.0479971
threshold=-1.0000000180025095e-35 1.169982944217091 -1.15437259137177 0.48826375739776068 0.79045666563626771
decision_type=2 2 2 2 2
left_child=-1 2 -2 -4 -5
right_child=1 -3 3 4 -6
leaf_value=-0.0019737311519036835 0 0 0.0031119627973351339 0 0.0011618597929555108
leaf_weight=126 20 22 59 20 26
leaf_count=126 20 22 59 20 26
internal_value=0 0.00175432 0.00211502 0.00233425 0
internal_weight=0 147 125 105 46
internal_count=273 147 125 105 46
is_linear=0
shrinkage=0.03


Tree=50
num_leaves=4
num_cat=0
split_feature=6 6 6
split_gain=1.03759 0.12342 0.00244805
threshold=-1.0000000180025095e-35 0.58094750193111266 -0.96824583655185414
decision_type=2 2 2
left_child=2 -2 -1
right_child=1 -3 -4
leaf_value=-0.0026357864961693328 0 0.0024665600027219624 -0.00012598155680975382
leaf_weight=64 61 86 62
leaf_count=64 61 86 62
internal_value=0 0.0017124 -0.00191721
internal_weight=0 147 126
internal_count=273 147 126
is_linear=0
shrinkage=0.03


Tree=51
num_leaves=6
num_cat=0
split_feature=6 1 2 2 2
split_gain=0.991348 0.121857 0.0189903 0.0291243 0.0423922
threshold=-1.0000000180025095e-35 1.169982944217091 -1.15437259137177 0.48826375739776068 0.79045666563626771
decision_type=2 2 2 2 2
left_child=-1 2 -2 -4 -5
right_child=1 -3 3 4 -6
leaf_value=-0.0018770966772519221 0 0 0.0029873770938228027 0 0.0010919160763296532
leaf_weight=126 20 22 59 20 26
leaf_count=126 20 22 59 20 26
internal_value=0 0.0016708 0.00202425 0.0022338 0
internal_weight=0 147 125 105 46
internal_count=273 147 125 105 46
is_linear=0
shrinkage=0.03


Tree=52
num_leaves=5
num_cat=0
split_feature=6 1 6 6
split_gain=0.939654 0.117268 0.0232951 0.00356841
threshold=-1.0000000180025095e-35 1.1775172015237862 1.0000000180025095e-35 -0.96824583655185414
decision_type=2 2 2 2
left_child=3 2 -2 -1
right_child=1 -3 -4 -5
leaf_value=-0.0025120046778943752 0 0 0.0022645896046126902 -7.1191515342113292e-05
leaf_weight=64 29 20 98 62
leaf_count=64 29 20 98 62
internal_value=0 0.00163068 0.00196278 -0.00182334
internal_weight=0 147 127 126
internal_count=273 147 127 126
is_linear=0
shrinkage=0.03


Tree=53
num_leaves=4
num_cat=0
split_feature=6 6 6
split_gain=0.895977 0.113218 0.000842902
threshold=-1.0000000180025095e-35 0.58094750193111266 -0.58094750193111244
decision_type=2 2 2
left_child=2 -2 -1
right_child=1 -3 -4
leaf_value=-0.0020433867766549534 0 0.0023015010999718113 0
leaf_weight=95 61 86 31
leaf_count=95 61 86 31
internal_value=0 0.00158716 -0.0017858
internal_weight=0 147 126
internal_count=273 147 126
is_linear=0
shrinkage=0.03


Tree=54
num_leaves=6
num_cat=0
split_feature=6 1 2 2 2
split_gain=0.852465 0.111325 0.0187592 0.0370132 0.0341305
threshold=-1.0000000180025095e-35 1.169982944217091 -1.15437259137177 0.48826375739776068 0.79045666563626771
decision_type=2 2 2 2 2
left_child=-1 2 -2 -4 -5
right_child=1 -3 3 4 -6
leaf_value=-0.0017416834786788307 0 0 0.0028207714924445518 0 0.00097975575983582524
leaf_weight=126 20 22 59 20 26
leaf_count=126 20 22 59 20 26
internal_value=0 0.00154835 0.00188808 0.00208788 0
internal_weight=0 147 125 105 46
internal_count=273 147 125 105 46
is_linear=0
shrinkage=0.03


Tree=55
num_leaves=5
num_cat=0
split_feature=6 1 6 6
split_gain=0.807781 0.107176 0.0179026 0.00582827
threshold=-1.0000000180025095e-35 1.1775172015237862 1.0000000180025095e-35 -0.96824583655185414
decision_type=2 2 2 2
left_child=3 2 -2 -1
right_child=1 -3 -4 -5
leaf_value=-0.002339284791544612 0 0 0.0021071321430813092 0
leaf_weight=64 29 20 98 62
leaf_count=64 29 20 98 62
internal_value=0 0.00151072 0.0018305 -0.00169181
internal_weight=0 147 127 126
internal_count=273 147 127 126
is_linear=0
shrinkage=0.03


Tree=56
num_leaves=6
num_cat=0
split_feature=6 2 3 1 2
split_gain=0.770546 0.105159 0.0684826 0.0862161 0.0535675
threshold=-1.0000000180025095e-35 0.48826375739776068 -0.7210407361989396 1.169982944217091 -1.15437259137177
decision_type=2 2 2 2 2
left_child=-1 4 3 -3 -2
right_child=1 2 -4 -5 -6
leaf_value=-0.0016577819980342278 0 0.0020737637076526879 -0.00060397367837140338 0 0.0026992236765531392
leaf_weight=126 20 24 22 22 59
leaf_count=126 20 24 22 22 59
internal_value=0 0.00147023 0 0.000994411 0.00223703
internal_weight=0 147 68 46 79
internal_count=273 147 68 46 79
is_linear=0
shrinkage=0.03


Tree=57
num_leaves=4
num_cat=0
split_feature=6 6 6
split_gain=0.728856 0.106638 0.00633931
threshold=-1.0000000180025095e-35 0.58094750193111266 -0.96824583655185414
decision_type=2 2 2
left_child=2 -2 -1
right_child=1 -3 -4
leaf_value=-0.0022296509183943269 0 0.0021101621278902037 0
leaf_weight=64 61 86 62
leaf_count=64 61 86 62
internal_value=0 0.00143185 -0.00161031
internal_weight=0 147 126
internal_count=273 147 126
is_linear=0
shrinkage=0.03


Tree=58
num_leaves=7
num_cat=0
split_feature=6 2 3 1 2 6
split_gain=0.696584 0.10405 0.062508 0.0821868 0.0496074 0.000584037
threshold=-1.0000000180025095e-35 0.48826375739776068 -0.7210407361989396 1.169982944217091 -1.15437259137177 -0.96824583655185414
decision_type=2 2 2 2 2 2
left_child=5 4 3 -3 -2 -1
right_child=1 2 -4 -5 -6 -7
leaf_value=-0.0021684948014361514 0 0.0019944511172361669 -0.00062365045238818432 0 0.0025916345964830654 0
leaf_weight=64 20 24 22 22 59 62
leaf_count=64 20 24 22 22 59 62
internal_value=0 0.00139627 0 0.000934045 0.00214731 -0.00157788
internal_weight=0 147 68 46 79 126
internal_count=273 147 68 46 79 126
is_linear=0
shrinkage=0.03


Tree=59
num_leaves=4
num_cat=0
split_feature=6 6 6
split_gain=0.666222 0.0763876 0.0232834
threshold=1.0000000180025095e-35 -1.0000000180025095e-35 0.58094750193111266
decision_type=2 2 2
left_child=1 -1 -2
right_child=2 -3 -4
leaf_value=-0.0015463362497129393 0 0 0.0020153527750011086
leaf_weight=126 28 33 86
leaf_count=126 28 33 86
internal_value=0 -0.00122322 0.00171444
internal_weight=0 159 114
internal_count=273 159 114
is_linear=0
shrinkage=0.03


Tree=60
num_leaves=4
num_cat=0
split_feature=6 6 6
split_gain=0.631004 0.0735202 0.0198827
threshold=1.0000000180025095e-35 -0.96824583655185414 0.58094750193111266
decision_type=2 2 2
left_child=1 -1 -2
right_child=2 -3 -4
leaf_value=-0.0020666023257321542 0 0 0.0019588352626938696
leaf_weight=64 28 95 86
leaf_count=64 28 95 86
internal_value=0 -0.00118779 0.00167111
internal_weight=0 159 114
internal_count=273 159 114
is_linear=0
shrinkage=0.03


Tree=61
num_leaves=5
num_cat=0
split_feature=6 6 2 2
split_gain=0.602106 0.0695036 0.0208307 0.00336944
threshold=1.0000000180025095e-35 -1.0000000180025095e-35 0.48826375739776068 0.90163546651546012
decision_type=2 2 2 2
left_child=1 -1 -2 -4
right_child=2 -3 3 -5
leaf_value=-0.0014719951137191277 0.002260271164334633 0 0 0.00027884831132653811
leaf_weight=126 60 33 21 33
leaf_count=126 60 33 21 33
internal_value=0 -0.00116375 0.00162899 0
internal_weight=0 159 114 54
internal_count=273 159 114 54
is_linear=0
shrinkage=0.03


Tree=62
num_leaves=4
num_cat=0
split_feature=6 6 6
split_gain=0.572372 0.0675996 0.0186093
threshold=1.0000000180025095e-35 -0.96824583655185414 0.58094750193111266
decision_type=2 2 2
left_child=1 -1 -2
right_child=2 -3 -4
leaf_value=-0.0019695436452914559 0 0 0.0018684624494357113
leaf_weight=64 28 95 86
leaf_count=64 28 95 86
internal_value=0 -0.00113002 0.00159279
internal_weight=0 159 114
internal_count=273 159 114
is_linear=0
shrinkage=0.03


Tree=63
num_leaves=6
num_cat=0
split_feature=6 2 3 1 2
split_gain=0.546271 0.101801 0.053688 0.0771842 0.0485321
threshold=-1.0000000180025095e-35 0.48826375739776068 -0.7210407361989396 1.169982944217091 -1.15437259137177
decision_type=2 2 2 2 2
left_child=-1 4 3 -3 -2
right_child=1 2 -4 -5 -6
leaf_value=-0.0014011946122495416 0 0.0018611622571479529 -0.00070374619182465327 0 0.0023786937932555488
leaf_weight=126 20 24 22 22 59
leaf_count=126 20 24 22 22 59
internal_value=0 0.00123268 0 0.000813964 0.00195268
internal_weight=0 147 68 46 79
internal_count=273 147 68 46 79
is_linear=0
shrinkage=0.03


Tree=64
num_leaves=5
num_cat=0
split_feature=6 6 2 2
split_gain=0.522444 0.0594905 0.0188085 0.00207547
threshold=1.0000000180025095e-35 -0.96824583655185414 0.48826375739776068 0.90163546651546012
decision_type=2 2 2 2
left_child=1 -1 -2 -4
right_child=2 -3 3 -5
leaf_value=-0.0018770889985774246 0.0021106725448573178 0 0 0.00021885031879019851
leaf_weight=64 60 95 21 33
leaf_count=64 60 95 21 33
internal_value=0 -0.00108181 0.00151959 0
internal_weight=0 159 114 54
internal_count=273 159 114 54
is_linear=0
shrinkage=0.03


Tree=65
num_leaves=4
num_cat=0
split_feature=6 6 6
split_gain=0.500455 0.0549301 0.0189761
threshold=1.0000000180025095e-35 -1.0000000180025095e-35 0.58094750193111266
decision_type=2 2 2
left_child=1 -1 -2
right_child=2 -3 -4
leaf_value=-0.0013337663389260837 0 0 0.0017511059069479614
leaf_weight=126 28 33 86
leaf_count=126 28 33 86
internal_value=0 -0.00105997 0.00148612
internal_weight=0 159 114
internal_count=273 159 114
is_linear=0
shrinkage=0.03


Tree=66
num_leaves=5
num_cat=0
split_feature=6 6 2 2
split_gain=0.47402 0.0546592 0.0186832 0.00139807
threshold=1.0000000180025095e-35 -0.96824583655185414 0.48826375739776068 0.90163546651546012
decision_type=2 2 2 2
left_child=1 -1 -2 -4
right_child=2 -3 3 -5
leaf_value=-0.0017890198726672679 0.0020172908440740274 0 0 0.00017961977226570104
leaf_weight=64 60 95 21 33
leaf_count=64 60 95 21 33
internal_value=0 -0.00102941 0.00144848 0
internal_weight=0 159 114 54
internal_count=273 159 114 54
is_linear=0
shrinkage=0.03


Tree=67
num_leaves=4
num_cat=0
split_feature=6 6 6
split_gain=0.454116 0.0504137 0.0177882
threshold=1.0000000180025095e-35 -0.58094750193111244 0.58094750193111266
decision_type=2 2 2
left_child=1 -1 -2
right_child=2 -3 -4
leaf_value=-0.0014529589595190147 0 0 0.0016709330284894624
leaf_weight=95 28 64 86
leaf_count=95 28 64 86
internal_value=0 -0.00100859 0.00141673
internal_weight=0 159 114
internal_count=273 159 114
is_linear=0
shrinkage=0.03


Tree=68
num_leaves=5
num_cat=0
split_feature=6 6 2 2
split_gain=0.43155 0.0475211 0.0184027 0.000885218
threshold=1.0000000180025095e-35 -1.0000000180025095e-35 0.48826375739776068 0.90163546651546012
decision_type=2 2 2 2
left_child=1 -1 -2 -4
right_child=2 -3 3 -5
leaf_value=-0.0012381793282375754 0.0019280954560434275 0 0 0.0001429268935820661
leaf_weight=126 60 33 21 33
leaf_count=126 60 33 21 33
internal_value=0 -0.000983496 0.00138081 0
internal_weight=0 159 114 54
internal_count=273 159 114 54
is_linear=0
shrinkage=0.03


Tree=69
num_leaves=4
num_cat=0
split_feature=6 6 6
split_gain=0.410505 0.0486614 0.0166757
threshold=1.0000000180025095e-35 -0.96824583655185414 0.58094750193111266
decision_type=2 2 2
left_child=1 -1 -2
right_child=2 -3 -4
leaf_value=-0.0016661355582182295 0 0 0.0015946162793198195
leaf_weight=64 28 95 86
leaf_count=64 28 95 86
internal_value=0 -0.000955131 0.00135071
internal_weight=0 159 114
internal_count=273 159 114
is_linear=0
shrinkage=0.03


Tree=70
num_leaves=5
num_cat=0
split_feature=6 6 2 2
split_gain=0.391592 0.0437005 0.017996 0.000511382
threshold=1.0000000180025095e-35 -0.96824583655185414 0.48826375739776068 0.90163546651546012
decision_type=2 2 2 2
left_child=1 -1 -2 -4
right_child=2 -3 3 -5
leaf_value=-0.0016204358952984744 0.0018428940192097797 0 0 0.00010863300005439669
leaf_weight=64 60 95 21 33
leaf_count=64 60 95 21 33
internal_value=0 -0.000935743 0.00131642 0
internal_weight=0 159 114 54
internal_count=273 159 114 54
is_linear=0
shrinkage=0.03


Tree=71
num_leaves=4
num_cat=0
split_feature=6 6 6
split_gain=0.375278 0.0415042 0.0156339
threshold=1.0000000180025095e-35 -1.0000000180025095e-35 0.58094750193111266
decision_type=2 2 2
left_child=1 -1 -2
right_child=2 -3 -4
leaf_value=-0.0011549176696412774 0 0 0.0015219697094795738
leaf_weight=126 28 33 86
leaf_count=126 28 33 86
internal_value=0 -0.000916887 0.00128788
internal_weight=0 159 114
internal_count=273 159 114
is_linear=0
shrinkage=0.03


Tree=72
num_leaves=5
num_cat=0
split_feature=6 6 2 2
split_gain=0.355416 0.0401339 0.0174877 0.000254306
threshold=1.0000000180025095e-35 -0.96824583655185414 0.48826375739776068 0.90163546651546012
decision_type=2 2 2 2
left_child=1 -1 -2 -4
right_child=2 -3 3 -5
leaf_value=-0.001544311953109822 0.0017615020838142796 0 0 7.6606738282582507e-05
leaf_weight=64 60 95 21 33
leaf_count=64 60 95 21 33
internal_value=0 -0.000890429 0.00125516 0
internal_weight=0 159 114 54
internal_count=273 159 114 54
is_linear=0
shrinkage=0.03


Tree=73
num_leaves=4
num_cat=0
split_feature=6 6 6
split_gain=0.34065 0.0377171 0.014658
threshold=1.0000000180025095e-35 -1.0000000180025095e-35 0.58094750193111266
decision_type=2 2 2
left_child=1 -1 -2
right_child=2 -3 -4
leaf_value=-0.001099382357735356 0 0 0.0014528157765542583
leaf_weight=126 28 33 86
leaf_count=126 28 33 86
internal_value=0 -0.000872459 0.00122811
internal_weight=0 159 114
internal_count=273 159 114
is_linear=0
shrinkage=0.03


Tree=74
num_leaves=5
num_cat=0
split_feature=6 6 2 2
split_gain=0.32261 0.036872 0.0168993 9.45998e-05
threshold=1.0000000180025095e-35 -0.96824583655185414 0.48826375739776068 0.90163546651546012
decision_type=2 2 2 2
left_child=1 -1 -2 -4
right_child=2 -3 3 -5
leaf_value=-0.0014717990530521742 0.0016837443614547902 0 0 4.6723360115160734e-05
leaf_weight=64 60 95 21 33
leaf_count=64 60 95 21 33
internal_value=0 -0.000847273 0.00119687 0
internal_weight=0 159 114 54
internal_count=273 159 114 54
is_linear=0
shrinkage=0.03


Tree=75
num_leaves=5
num_cat=0
split_feature=6 6 2 2
split_gain=0.309247 0.0342785 0.0138102 8.98578e-05
threshold=1.0000000180025095e-35 -1.0000000180025095e-35 0.48826375739776068 0.90163546651546012
decision_type=2 2 2 2
left_child=1 -1 -2 -4
right_child=2 -3 3 -5
leaf_value=-0.0010464920570269565 0.001637824125672606 0 0 4.553726614596179e-05
leaf_weight=126 60 33 21 33
leaf_count=126 60 33 21 33
internal_value=0 -0.000830146 0.00117123 0
internal_weight=0 159 114 54
internal_count=273 159 114 54
is_linear=0
shrinkage=0.03


Tree=76
num_leaves=4
num_cat=0
split_feature=6 6 6
split_gain=0.294347 0.0338879 0.014592
threshold=1.0000000180025095e-35 -0.96824583655185414 0.58094750193111266
decision_type=2 2 2
left_child=1 -1 -2
right_child=2 -3 -4
leaf_value=-0.001402726037560829 0 0 0.0013625812151788167
leaf_weight=64 28 95 86
leaf_count=64 28 95 86
internal_value=0 -0.000806172 0.00114629
internal_weight=0 159 114
internal_count=273 159 114
is_linear=0
shrinkage=0.03


Tree=77
num_leaves=5
num_cat=0
split_feature=6 6 2 2
split_gain=0.280731 0.0311563 0.0133192 1.43188e-05
threshold=1.0000000180025095e-35 -1.0000000180025095e-35 0.48826375739776068 0.90163546651546012
decision_type=2 2 2 2
left_child=1 -1 -2 -4
right_child=2 -3 3 -5
leaf_value=-0.00099612097922627892 0.0015652851392091674 0 0 1.8177838490093841e-05
leaf_weight=126 60 33 21 33
leaf_count=126 60 33 21 33
internal_value=0 -0.000789849 0.00111699 0
internal_weight=0 159 114 54
internal_count=273 159 114 54
is_linear=0
shrinkage=0.03


Tree=78
num_leaves=4
num_cat=0
split_feature=6 6 6
split_gain=0.267253 0.0311572 0.0136964
threshold=1.0000000180025095e-35 -0.96824583655185414 0.58094750193111266
decision_type=2 2 2
left_child=1 -1 -2
right_child=2 -3 -4
leaf_value=-0.0013369290735572577 0 0 0.0013012526035764377
leaf_weight=64 28 95 86
leaf_count=64 28 95 86
internal_value=0 -0.000767029 0.00109336
internal_weight=0 159 114
internal_count=273 159 114
is_linear=0
shrinkage=0.03


Tree=79
num_leaves=4
num_cat=0
split_feature=6 6 2
split_gain=0.25487 0.0283212 0.012777
threshold=1.0000000180025095e-35 -1.0000000180025095e-35 0.48826375739776068
decision_type=2 2 2
left_child=1 -1 -2
right_child=2 -3 -4
leaf_value=-0.00094814943371933282 0.0014959790561856195 0 0
leaf_weight=126 60 33 54
leaf_count=126 60 33 54
internal_value=0 -0.000751472 0.00106539
internal_weight=0 159 114
internal_count=273 159 114
is_linear=0
shrinkage=0.03


Tree=80
num_leaves=4
num_cat=0
split_feature=6 6 6
split_gain=0.242663 0.0286576 0.0128583
threshold=1.0000000180025095e-35 -0.96824583655185414 0.58094750193111266
decision_type=2 2 2
left_child=1 -1 -2
right_child=2 -3 -4
leaf_value=-0.0012742526501949344 0 0 0.001242809043842894
leaf_weight=64 28 95 86
leaf_count=64 28 95 86
internal_value=0 -0.000729751 0.00104295
internal_weight=0 159 114
internal_count=273 159 114
is_linear=0
shrinkage=0.03


Tree=81
num_leaves=4
num_cat=0
split_feature=6 6 2
split_gain=0.2314 0.0260233 0.0122134
threshold=1.0000000180025095e-35 -0.58094750193111244 0.48826375739776068
decision_type=2 2 2
left_child=1 -1 -2
right_child=2 -3 -4
leaf_value=-0.0010328992295752066 0.0014297585921700705 0 0
leaf_weight=95 60 64 54
leaf_count=95 60 64 54
internal_value=0 -0.000714923 0.00101623
internal_weight=0 159 114
internal_count=273 159 114
is_linear=0
shrinkage=0.03


Tree=82
num_leaves=4
num_cat=0
split_feature=6 6 6
split_gain=0.221031 0.0249712 0.0120774
threshold=1.0000000180025095e-35 -0.96824583655185414 0.58094750193111266
decision_type=2 2 2
left_child=1 -1 -2
right_child=2 -3 -4
leaf_value=-0.0012109707860010008 0 0 0.0011869763014407868
leaf_weight=64 28 95 86
leaf_count=64 28 95 86
internal_value=0 -0.000697082 0.000994779
internal_weight=0 159 114
internal_count=273 159 114
is_linear=0
shrinkage=0.03


Tree=83
num_leaves=4
num_cat=0
split_feature=6 6 2
split_gain=0.210783 0.0235977 0.0116724
threshold=1.0000000180025095e-35 -1.0000000180025095e-35 0.48826375739776068
decision_type=2 2 2
left_child=1 -1 -2
right_child=2 -3 -4
leaf_value=-0.00086254802648909389 0.0013664861842566593 0 0
leaf_weight=126 60 33 54
leaf_count=126 60 33 54
internal_value=0 -0.000682991 0.000969259
internal_weight=0 159 114
internal_count=273 159 114
is_linear=0
shrinkage=0.03


Tree=84
num_leaves=4
num_cat=0
split_feature=6 6 6
split_gain=0.200664 0.0229516 0.0113494
threshold=1.0000000180025095e-35 -0.96824583655185414 0.58094750193111266
decision_type=2 2 2
left_child=1 -1 -2
right_child=2 -3 -4
leaf_value=-0.0011540970440421785 0 0 0.0011336376204448954
leaf_weight=64 28 95 86
leaf_count=64 28 95 86
internal_value=0 -0.000663231 0.000948762
internal_weight=0 159 114
internal_count=273 159 114
is_linear=0
shrinkage=0.03


Tree=85
num_leaves=4
num_cat=0
split_feature=6 6 2
split_gain=0.191344 0.021463 0.0111532
threshold=1.0000000180025095e-35 -1.0000000180025095e-35 0.48826375739776068
decision_type=2 2 2
left_child=1 -1 -2
right_child=2 -3 -4
leaf_value=-0.00082106090735495937 0.0013060301447033204 0 0
leaf_weight=126 60 33 54
leaf_count=126 60 33 54
internal_value=0 -0.000649801 0.000924389
internal_weight=0 159 114
internal_count=273 159 114
is_linear=0
shrinkage=0.03


Tree=86
num_leaves=4
num_cat=0
split_feature=6 6 6
split_gain=0.182149 0.0211034 0.0106702
threshold=1.0000000180025095e-35 -0.96824583655185414 0.58094750193111266
decision_type=2 2 2
left_child=1 -1 -2
right_child=2 -3 -4
leaf_value=-0.0010999212531106813 0 0 0.0010826818557942044
leaf_weight=64 28 95 86
leaf_count=64 28 95 86
internal_value=0 -0.000630992 0.000904798
internal_weight=0 159 114
internal_count=273 159 114
is_linear=0
shrinkage=0.03


Tree=87
num_leaves=4
num_cat=0
split_feature=6 6 2
split_gain=0.173673 0.0195239 0.0106551
threshold=1.0000000180025095e-35 -1.0000000180025095e-35 0.48826375739776068
decision_type=2 2 2
left_child=1 -1 -2
right_child=2 -3 -4
leaf_value=-0.00078154982633846389 0.001248265334659002 0 0
leaf_weight=126 60 33 54
leaf_count=126 60 33 54
internal_value=0 -0.000618192 0.000881521
internal_weight=0 159 114
internal_count=273 159 114
is_linear=0
shrinkage=0.03


Tree=88
num_leaves=4
num_cat=0
split_feature=6 6 6
split_gain=0.165319 0.0194117 0.0100364
threshold=1.0000000180025095e-35 -0.96824583655185414 0.58094750193111266
decision_type=2 2 2
left_child=1 -1 -2
right_child=2 -3 -4
leaf_value=-0.0010483152163880212 0 0 0.0010340028279460967
leaf_weight=64 28 95 86
leaf_count=64 28 95 86
internal_value=0 -0.000600288 0.000862797
internal_weight=0 159 114
internal_count=273 159 114
is_linear=0
shrinkage=0.03


Tree=89
num_leaves=4
num_cat=0
split_feature=6 6 2
split_gain=0.157612 0.0177624 0.0101774
threshold=1.0000000180025095e-35 -1.0000000180025095e-35 0.48826375739776068
decision_type=2 2 2
left_child=1 -1 -2
right_child=2 -3 -4
leaf_value=-0.00074392090874343089 0.0011930717197670177 0 0
leaf_weight=126 60 33 54
leaf_count=126 60 33 54
internal_value=0 -0.000588089 0.000840566
internal_weight=0 159 114
internal_count=273 159 114
is_linear=0
shrinkage=0.03


Tree=90
num_leaves=6
num_cat=0
split_feature=6 2 6 1 6
split_gain=0.150022 0.0188695 0.00944437 0.00420668 0.00564678
threshold=1.0000000180025095e-35 0.86358578155248755 0.58094750193111266 0.088218973056903391 -0.58094750193111244
decision_type=2 2 2 2 2
left_child=1 3 -2 4 -1
right_child=2 -3 -4 -5 -6
leaf_value=-0.00042541966488470834 0 -0.0013303016012068836 0.00098749866860959202 0 0
leaf_weight=43 28 34 86 53 29
leaf_count=43 28 34 86 53 29
internal_value=0 -0.000571047 0.000822669 0 -0.000220315
internal_weight=0 159 114 125 72
internal_count=273 159 114 125 72
is_linear=0
shrinkage=0.03


Tree=91
num_leaves=7
num_cat=0
split_feature=6 2 2 3 1 6
split_gain=0.143434 0.0555286 0.049694 0.0447045 0.066235 0.00153137
threshold=-1.0000000180025095e-35 0.48826375739776068 -1.15437259137177 -0.7210407361989396 1.169982944217091 -0.96824583655185414
decision_type=2 2 2 2 2 2
left_child=5 2 -2 4 -3 -1
right_child=1 3 -4 -5 -6 -7
leaf_value=-0.00098625218548945015 0 0.0015670830032613592 0.0015545516197498028 -0.00096682655891137449 0 0
leaf_weight=64 20 24 59 22 22 62
leaf_count=64 20 24 59 22 22 62
internal_value=0 0.000638527 0.00114971 0 0.000520003 -0.000710902
internal_weight=0 147 79 68 46 126
internal_count=273 147 79 68 46 126
is_linear=0
shrinkage=0.03


Tree=92
num_leaves=6
num_cat=0
split_feature=6 2 6 1 6
split_gain=0.137164 0.0178785 0.00903675 0.00376464 0.00485596
threshold=1.0000000180025095e-35 0.86358578155248755 0.58094750193111266 0.088218973056903391 -0.58094750193111244
decision_type=2 2 2 2 2
left_child=1 3 -2 4 -1
right_child=2 -3 -4 -5 -6
leaf_value=-0.000397916494355518 0 -0.0012888240792090072 0.00093963858610747941 0 0
leaf_weight=43 28 34 86 53 29
leaf_count=43 28 34 86 53 29
internal_value=0 -0.000552417 0.000780468 0 -0.000208418
internal_weight=0 159 114 125 72
internal_count=273 159 114 125 72
is_linear=0
shrinkage=0.03


Tree=93
num_leaves=7
num_cat=0
split_feature=6 2 2 3 1 6
split_gain=0.13086 0.0528096 0.0470789 0.0424196 0.0631506 0.000842759
threshold=-1.0000000180025095e-35 0.48826375739776068 -1.15437259137177 -0.7210407361989396 1.169982944217091 -0.96824583655185414
decision_type=2 2 2 2 2 2
left_child=5 2 -2 4 -3 -1
right_child=1 3 -4 -5 -6 -7
leaf_value=-0.00094686329790524078 0 0.0015201844254042953 0.0014970412346032949 -0.00095775755721011339 0 0
leaf_weight=64 20 24 59 22 22 62
leaf_count=64 20 24 59 22 22 62
internal_value=0 0.000603768 0.00110242 0 0.000490158 -0.000685345
internal_weight=0 147 79 68 46 126
internal_count=273 147 79 68 46 126
is_linear=0
shrinkage=0.03


Tree=94
num_leaves=6
num_cat=0
split_feature=6 2 2 1 6
split_gain=0.125426 0.016917 0.00893873 0.00336982 0.00415586
threshold=1.0000000180025095e-35 0.86358578155248755 0.48826375739776068 0.088218973056903391 -0.58094750193111244
decision_type=2 2 2 2 2
left_child=1 3 -2 4 -1
right_child=2 -3 -4 -5 -6
leaf_value=-0.00037178858088291421 0.0010573087477082895 -0.0012487190596293658 0 0 0
leaf_weight=43 60 34 54 53 29
leaf_count=43 60 34 54 53 29
internal_value=0 -0.000534544 0.000740139 0 -0.000197187
internal_weight=0 159 114 125 72
internal_count=273 159 114 125 72
is_linear=0
shrinkage=0.03


Tree=95
num_leaves=6
num_cat=0
split_feature=6 2 6 1 6
split_gain=0.120267 0.0154896 0.00893499 0.00316293 0.00397171
threshold=1.0000000180025095e-35 0.86358578155248755 0.58094750193111266 0.088218973056903391 -0.58094750193111244
decision_type=2 2 2 2 2
left_child=1 3 -2 4 -1
right_child=2 -3 -4 -5 -6
leaf_value=-0.00036200057068953709 0 -0.0012168766916147433 0.00087843204170222507 0 0
leaf_weight=43 28 34 86 53 29
leaf_count=43 28 34 86 53 29
internal_value=0 -0.000523918 0.000724279 0 -0.000191038
internal_weight=0 159 114 125 72
internal_count=273 159 114 125 72
is_linear=0
shrinkage=0.03


Tree=96
num_leaves=7
num_cat=0
split_feature=6 2 2 3 1 6
split_gain=0.115454 0.0477399 0.0444025 0.0404982 0.0602773 0.000624123
threshold=-1.0000000180025095e-35 0.48826375739776068 -1.15437259137177 -0.7210407361989396 1.169982944217091 -0.96824583655185414
decision_type=2 2 2 2 2 2
left_child=5 2 -2 4 -3 -1
right_child=1 3 -4 -5 -6 -7
leaf_value=-0.00089760767774922504 0 0.0014787987882737069 0.0014196381414165863 -0.00094665775607739172 0 0
leaf_weight=64 20 24 59 22 22 62
leaf_count=64 20 24 59 22 22 62
internal_value=0 0.000560527 0.0010349 0 0.000467313 -0.000650392
internal_weight=0 147 79 68 46 126
internal_count=273 147 79 68 46 126
is_linear=0
shrinkage=0.03


Tree=97
num_leaves=6
num_cat=0
split_feature=6 2 6 1 6
split_gain=0.109952 0.0146335 0.00855141 0.00282812 0.00337831
threshold=1.0000000180025095e-35 0.86358578155248755 0.58094750193111266 0.088218973056903391 -0.58094750193111244
decision_type=2 2 2 2 2
left_child=1 3 -2 4 -1
right_child=2 -3 -4 -5 -6
leaf_value=-0.00033763237335548106 0 -0.0011790388679191893 0.00083547459085188478 0 0
leaf_weight=43 28 34 86 53 29
leaf_count=43 28 34 86 53 29
internal_value=0 -0.000507132 0.000686303 0 -0.000180644
internal_weight=0 159 114 125 72
internal_count=273 159 114 125 72
is_linear=0
shrinkage=0.03


Tree=98
num_leaves=7
num_cat=0
split_feature=6 2 2 3 1 6
split_gain=0.105334 0.0453402 0.0421037 0.0384588 0.0574821 7.22537e-05
threshold=-1.0000000180025095e-35 0.48826375739776068 -1.15437259137177 -0.7210407361989396 1.169982944217091 -0.96824583655185414
decision_type=2 2 2 2 2 2
left_child=5 2 -2 4 -3 -1
right_child=1 3 -4 -5 -6 -7
leaf_value=-0.00086200650515300885 0 0.001435148138552904 0.0013674841268131366 -0.00093650778822068658 0 0
leaf_weight=64 20 24 59 22 22 62
leaf_count=64 20 24 59 22 22 62
internal_value=0 0.00052922 0.000992071 0 0.000439747 -0.000627337
internal_weight=0 147 79 68 46 126
internal_count=273 147 79 68 46 126
is_linear=0
shrinkage=0.03


Tree=99
num_leaves=6
num_cat=0
split_feature=6 2 6 1 6
split_gain=0.100539 0.0138051 0.00818508 0.00252953 0.00285539
threshold=1.0000000180025095e-35 0.86358578155248755 0.58094750193111266 0.088218973056903391 -0.58094750193111244
decision_type=2 2 2 2 2
left_child=1 3 -2 4 -1
right_child=2 -3 -4 -5 -6
leaf_value=-0.00031449417526624641 0 -0.0011424489354249089 0.0007944667876860045 0 0
leaf_weight=43 28 34 86 53 29
leaf_count=43 28 34 86 53 29
internal_value=0 -0.000491029 0.000650011 0 -0.000170842
internal_weight=0 159 114 125 72
internal_count=273 159 114 125 72
is_linear=0
shrinkage=0.03


Tree=100
num_leaves=6
num_cat=0
split_feature=6 2 2 3 1
split_gain=0.0961073 0.0430296 0.0399356 0.0365419 0.0548164
threshold=-1.0000000180025095e-35 0.48826375739776068 -1.15437259137177 -0.7210407361989396 1.169982944217091
decision_type=2 2 2 2 2
left_child=-1 2 -2 4 -3
right_child=1 3 -4 -5 -6
leaf_value=-0.00060523409637178041 0 0.0013930093138478695 0.001317412850088798 -0.00092597708538440715 0
leaf_weight=126 20 24 59 22 22
leaf_count=126 20 24 59 22 22
internal_value=0 0.000499306 0.000950978 0 0.000413231
internal_weight=0 147 79 68 46
internal_count=273 147 79 68 46
is_linear=0
shrinkage=0.03


Tree=101
num_leaves=6
num_cat=0
split_feature=6 2 6 1 6
split_gain=0.0912153 0.0134785 0.00783469 0.0021344 0.00245326
threshold=1.0000000180025095e-35 0.86358578155248755 0.58094750193111266 0.088218973056903391 -0.58094750193111244
decision_type=2 2 2 2 2
left_child=1 3 -2 4 -1
right_child=2 -3 -4 -5 -6
leaf_value=-0.00029028100436743424 0 -0.0011044081191066652 0.00075532134440120145 0 0
leaf_weight=43 28 34 86 53 29
leaf_count=43 28 34 86 53 29
internal_value=0 -0.000471349 0.00061533 0 -0.000156932
internal_weight=0 159 114 125 72
internal_count=273 159 114 125 72
is_linear=0
shrinkage=0.03


Tree=102
num_leaves=6
num_cat=0
split_feature=6 2 2 1 6
split_gain=0.0870288 0.0123061 0.00840595 0.00200581 0.00234347
threshold=1.0000000180025095e-35 0.86358578155248755 0.48826375739776068 0.088218973056903391 -0.58094750193111244
decision_type=2 2 2 2 2
left_child=1 3 -2 4 -1
right_child=2 -3 -4 -5 -6
leaf_value=-0.00028263884121362045 0.00087589356773109595 -0.001076245771284448 0 0 0
leaf_weight=43 60 34 54 53 29
leaf_count=43 60 34 54 53 29
internal_value=0 -0.000462252 0.000599091 0 -0.000152131
internal_weight=0 159 114 125 72
internal_count=273 159 114 125 72
is_linear=0
shrinkage=0.03


Tree=103
num_leaves=8
num_cat=0
split_feature=6 1 2 2 1 1 6
split_gain=0.0839719 0.0395455 0.0707537 0.0356189 0.0356774 0.0175609 0.00109487
threshold=-1.0000000180025095e-35 -0.64906964649788157 -1.15437259137177 0.12791982288196124 1.1775172015237862 0.73555610972848939 -0.96824583655185414
decision_type=2 2 2 2 2 2 2
left_child=6 2 -2 -3 5 -5 -1
right_child=1 3 -4 4 -6 -7 -8
leaf_value=-0.00079155492064143925 0 -0.00085886606086905178 0.0020307805028278378 0 0 0.0015005255376713143 0
leaf_weight=64 20 20 26 40 20 21 62
leaf_count=64 20 20 26 40 20 21 62
internal_value=0 0.000462311 0.001146 0 0.000384739 0.000819426 -0.000569913
internal_weight=0 147 46 101 81 61 126
internal_count=273 147 46 101 81 61 126
is_linear=0
shrinkage=0.03


Tree=104
num_leaves=6
num_cat=0
split_feature=6 2 2 1 6
split_gain=0.0804662 0.0118801 0.00790554 0.00177057 0.00196994
threshold=1.0000000180025095e-35 0.86358578155248755 0.48826375739776068 0.088218973056903391 -0.58094750193111244
decision_type=2 2 2 2 2
left_child=1 3 -2 4 -1
right_child=2 -3 -4 -5 -6
leaf_value=-0.00026211307935264643 0.00083979021122848434 -0.0010449917600490154 0 0 0
leaf_weight=43 60 34 54 53 29
leaf_count=43 60 34 54 53 29
internal_value=0 -0.000447134 0.000573232 0 -0.000142932
internal_weight=0 159 114 125 72
internal_count=273 159 114 125 72
is_linear=0
shrinkage=0.03


Tree=105
num_leaves=7
num_cat=0
split_feature=6 2 2 3 1 6
split_gain=0.0774292 0.0372026 0.0365934 0.0342372 0.050665 0.000637727
threshold=-1.0000000180025095e-35 0.48826375739776068 -1.15437259137177 -0.7210407361989396 1.169982944217091 -0.96824583655185414
decision_type=2 2 2 2 2 2
left_child=5 2 -2 4 -3 -1
right_child=1 3 -4 -5 -6 -7
leaf_value=-0.00076054071821272376 0 0.00133016955293715 0.00121647067898168 -0.00091283356671088497 0 0
leaf_weight=64 20 24 59 22 22 62
leaf_count=64 20 24 59 22 22 62
internal_value=0 0.000441112 0.000862643 0 0.000379322 -0.000549901
internal_weight=0 147 79 68 46 126
internal_count=273 147 79 68 46 126
is_linear=0
shrinkage=0.03


Tree=106
num_leaves=7
num_cat=0
split_feature=6 4 2 1 6 1
split_gain=0.0743211 0.0500743 0.0312187 0.0220922 0.0111012 0.00696992
threshold=0.58094750193111266 1.0000000180025095e-35 0.86358578155248755 0.11313786993747334 -0.96824583655185414 -0.50626793493839128
decision_type=2 2 2 2 2 2
left_child=2 -2 3 5 -5 -1
right_child=1 -3 -4 4 -6 -7
leaf_value=0 0 0.0012180537577339652 -0.0010459943249588833 0 0.00060540938151202033 -0.00080531614323263055
leaf_weight=62 33 53 42 21 36 26
leaf_count=62 33 53 42 21 36 26
internal_value=0 0.000679424 -0.00035571 0 0.000292846 -0.000392485
internal_weight=0 86 187 145 57 88
internal_count=273 86 187 145 57 88
is_linear=0
shrinkage=0.03


Tree=107
num_leaves=6
num_cat=0
split_feature=6 2 6 1 6
split_gain=0.070865 0.00982251 0.00682944 0.00145667 0.00161976
threshold=1.0000000180025095e-35 0.86358578155248755 0.58094750193111266 0.088218973056903391 -0.58094750193111244
decision_type=2 2 2 2 2
left_child=1 3 -2 4 -1
right_child=2 -3 -4 -5 -6
leaf_value=-0.00023770988215597309 0 -0.00098599415668286375 0.00065837287177007806 0 0
leaf_weight=43 28 34 86 53 29
leaf_count=43 28 34 86 53 29
internal_value=0 -0.000426736 0.000530184 0 -0.000129645
internal_weight=0 159 114 125 72
internal_count=273 159 114 125 72
is_linear=0
shrinkage=0.03


Tree=108
num_leaves=8
num_cat=0
split_feature=6 1 2 2 1 1 6
split_gain=0.068259 0.0365483 0.0651375 0.0350505 0.0326653 0.0171829 0.000225983
threshold=-1.0000000180025095e-35 -0.64906964649788157 -1.15437259137177 0.12791982288196124 1.1775172015237862 0.73555610972848939 -0.96824583655185414
decision_type=2 2 2 2 2 2 2
left_child=6 2 -2 -3 5 -5 -1
right_child=1 3 -4 4 -6 -7 -8
leaf_value=-0.00072197648217635487 0 -0.00089689249889208719 0.0019094027698156424 0 0 0.0014336432790797618 0
leaf_weight=64 20 20 26 40 20 21 62
leaf_count=64 20 20 26 40 20 21 62
internal_value=0 0.000405428 0.0010565 0 0.000349558 0.000772951 -0.00052429
internal_weight=0 147 46 101 81 61 126
internal_count=273 147 46 101 81 61 126
is_linear=0
shrinkage=0.03


Tree=109
num_leaves=6
num_cat=0
split_feature=6 2 2 1 6
split_gain=0.0652022 0.00946458 0.0073234 0.00128124 0.00134232
threshold=1.0000000180025095e-35 0.86358578155248755 0.48826375739776068 0.088218973056903391 -0.58094750193111244
decision_type=2 2 2 2 2
left_child=1 3 -2 4 -1
right_child=2 -3 -4 -5 -6
leaf_value=-0.00021951703202663633 0.00074988339853668793 -0.00095757147960830473 0 0 0
leaf_weight=43 60 34 54 53 29
leaf_count=43 60 34 54 53 29
internal_value=0 -0.000413115 0.000504335 0 -0.000121587
internal_weight=0 159 114 125 72
internal_count=273 159 114 125 72
is_linear=0
shrinkage=0.03


Tree=110
num_leaves=7
num_cat=0
split_feature=6 1 2 2 1 1
split_gain=0.0629344 0.0339553 0.0622234 0.0340308 0.0316561 0.0163721
threshold=-1.0000000180025095e-35 -0.64906964649788157 -1.15437259137177 0.12791982288196124 1.1775172015237862 0.73555610972848939
decision_type=2 2 2 2 2 2
left_child=-1 2 -2 -3 5 -5
right_child=1 3 -4 4 -6 -7
leaf_value=-0.00050620222850491039 0 -0.00089003899063055329 0.0018488007943960837 0 0 0.0014044474572357205
leaf_weight=126 20 20 26 40 20 21
leaf_count=126 20 20 26 40 20 21
internal_value=0 0.000386176 0.00101315 0 0.000339563 0.000758256
internal_weight=0 147 46 101 81 61
internal_count=273 147 46 101 81 61
is_linear=0
shrinkage=0.03


Tree=111
num_leaves=6
num_cat=0
split_feature=6 4 2 1 1
split_gain=0.060155 0.0457213 0.0278047 0.0206108 0.00594419
threshold=0.58094750193111266 1.0000000180025095e-35 0.86358578155248755 0.11313786993747334 -0.50626793493839128
decision_type=2 2 2 2 2
left_child=2 -2 3 4 -1
right_child=1 -3 -4 -5 -6
leaf_value=0 0 0.0011247823559047685 -0.00097542609961237753 0.00029640575826522846 -0.000757556107637356
leaf_weight=62 33 53 42 57 26
leaf_count=62 33 53 42 57 26
internal_value=0 0.000603377 -0.000327066 0 -0.000372095
internal_weight=0 86 187 145 88
internal_count=273 86 187 145 88
is_linear=0
shrinkage=0.03


Tree=112
num_leaves=7
num_cat=0
split_feature=6 2 2 3 1 6
split_gain=0.0574078 0.0323268 0.0325559 0.0315141 0.0442671 0.00074797
threshold=-1.0000000180025095e-35 0.48826375739776068 -1.15437259137177 -0.7210407361989396 1.169982944217091 -0.96824583655185414
decision_type=2 2 2 2 2 2
left_child=5 2 -2 4 -3 -1
right_child=1 3 -4 -5 -6 -7
leaf_value=-0.0006742214613727161 0 0.0012260281518101691 0.0011018474528995844 -0.00090846723876893522 0 0
leaf_weight=64 20 24 59 22 22 62
leaf_count=64 20 24 59 22 22 62
internal_value=0 0.000366221 0.000764 0 0.000317863 -0.00048576
internal_weight=0 147 79 68 46 126
internal_count=273 147 79 68 46 126
is_linear=0
shrinkage=0.03


Tree=113
num_leaves=8
num_cat=0
split_feature=6 4 13 2 1 1 1
split_gain=0.0550014 0.0423851 0.0264888 0.0265782 0.00374327 0.0177346 0.00358786
threshold=0.58094750193111266 1.0000000180025095e-35 -0.48858283507282091 0.68168901623160916 0.11313786993747334 -0.50626793493839128 0.58221087596651622
decision_type=2 2 2 2 2 2 2
left_child=2 -2 4 -4 5 -1 -6
right_child=1 -3 3 -5 6 -7 -8
leaf_value=0 0 0.0010740330930990641 0 -0.0013141141058160707 0.00041218189586853156 -0.00074229790436220356 0
leaf_weight=25 33 53 49 33 23 26 31
leaf_count=25 33 53 49 33 23 26 31
internal_value=0 0.000570209 -0.000318583 -0.0007025 0 -0.000171223 0.000168219
internal_weight=0 86 187 82 105 51 54
internal_count=273 86 187 82 105 51 54
is_linear=0
shrinkage=0.03


Tree=114
num_leaves=8
num_cat=0
split_feature=6 1 2 2 1 1 6
split_gain=0.052327 0.0312802 0.0572067 0.0330555 0.0295107 0.014987 0.000510556
threshold=-1.0000000180025095e-35 -0.64906964649788157 -1.15437259137177 0.12791982288196124 1.1775172015237862 0.73555610972848939 -0.96824583655185414
decision_type=2 2 2 2 2 2 2
left_child=6 2 -2 -3 5 -5 -1
right_child=1 3 -4 4 -6 -7 -8
leaf_value=-0.00064822498469480452 0 -0.00090473353719482054 0.0017480193462688475 0 0 0.0013404777589150602 0
leaf_weight=64 20 20 26 40 20 21 62
leaf_count=64 20 20 26 40 20 21 62
internal_value=0 0.000344329 0.000943523 0 0.00031198 0.000723048 -0.000468348
internal_weight=0 147 46 101 81 61 126
internal_count=273 147 46 101 81 61 126
is_linear=0
shrinkage=0.03


Tree=115
num_leaves=6
num_cat=0
split_feature=6 2 2 1 1
split_gain=0.0503887 0.00847186 0.00663114 0.0208333 0.000755446
threshold=1.0000000180025095e-35 0.86358578155248755 0.48826375739776068 0.73555610972848939 0.088218973056903391
decision_type=2 2 2 2 2
left_child=1 4 -2 -4 -1
right_child=2 -3 3 -5 -6
leaf_value=-9.3363161342075232e-05 0.0006562081796900284 -0.00087353220256045463 -0.00047185152569519622 0.00057390467949995866 0
leaf_weight=72 60 34 22 32 53
leaf_count=72 60 34 22 32 53
internal_value=0 -0.000372523 0.000432552 0 0
internal_weight=0 159 114 54 125
internal_count=273 159 114 54 125
is_linear=0
shrinkage=0.03


Tree=116
num_leaves=8
num_cat=0
split_feature=6 4 13 2 1 1 1
split_gain=0.0483105 0.0392391 0.0254496 0.0243512 0.00349441 0.0165743 0.00338808
threshold=0.58094750193111266 1.0000000180025095e-35 -0.48858283507282091 0.68168901623160916 0.11313786993747334 -0.50626793493839128 0.58221087596651622
decision_type=2 2 2 2 2 2 2
left_child=2 -2 4 -4 5 -1 -6
right_child=1 -3 3 -5 6 -7 -8
leaf_value=0 0 0.0010171442036615622 0 -0.001266683626633424 0.00040645638641355363 -0.0007141451486677397 0
leaf_weight=25 33 53 49 33 23 26 31
leaf_count=25 33 53 49 33 23 26 31
internal_value=0 0.000528792 -0.000303301 -0.00067973 0 -0.000156903 0.000170378
internal_weight=0 86 187 82 105 51 54
internal_count=273 86 187 82 105 51 54
is_linear=0
shrinkage=0.03


Tree=117
num_leaves=8
num_cat=0
split_feature=6 1 2 2 1 1 6
split_gain=0.046415 0.0287979 0.0542757 0.0318882 0.028631 0.0136536 0.000498899
threshold=-1.0000000180025095e-35 -0.64906964649788157 -1.15437259137177 0.12791982288196124 1.1775172015237862 0.73555610972848939 -0.96824583655185414
decision_type=2 2 2 2 2 2 2
left_child=6 2 -2 -3 5 -5 -1
right_child=1 3 -4 4 -6 -7 -8
leaf_value=-0.00061692292855254236 0 -0.00090008602979091499 0.0016802826466573606 0 0 0.0013008754095062613 0
leaf_weight=64 20 20 26 40 20 21 62
leaf_count=64 20 20 26 40 20 21 62
internal_value=0 0.000319118 0.000893341 0 0.000296247 0.000706085 -0.000445453
internal_weight=0 147 46 101 81 61 126
internal_count=273 147 46 101 81 61 126
is_linear=0
shrinkage=0.03


Tree=118
num_leaves=6
num_cat=0
split_feature=6 2 2 1 1
split_gain=0.0442078 0.00753906 0.00647948 0.018777 0.000590459
threshold=1.0000000180025095e-35 0.86358578155248755 0.48826375739776068 0.73555610972848939 0.088218973056903391
decision_type=2 2 2 2 2
left_child=1 4 -2 -4 -1
right_child=2 -3 3 -5 -6
leaf_value=-8.2540820675114027e-05 0.00061539397458545866 -0.000827781742438674 -0.00046389942057430741 0.00053492886872079804 0
leaf_weight=72 60 34 22 32 53
leaf_count=72 60 34 22 32 53
internal_value=0 -0.000353543 0.000399618 0 0
internal_weight=0 159 114 54 125
internal_count=273 159 114 54 125
is_linear=0
shrinkage=0.03


Tree=119
num_leaves=8
num_cat=0
split_feature=6 2 2 3 1 1 6
split_gain=0.0426955 0.0274255 0.0289875 0.0267035 0.0388018 0.0265607 0.000365127
threshold=-1.0000000180025095e-35 0.48826375739776068 -1.15437259137177 -0.7210407361989396 1.169982944217091 -0.81673239948914989 -0.58094750193111244
decision_type=2 2 2 2 2 2 2
left_child=6 2 -2 4 -3 -4 -1
right_child=1 3 5 -5 -6 -7 -8
leaf_value=-0.000495681883121776 0 0.0011280436133965851 0.0018461514587621562 -0.00086148155254444909 0 0 0
leaf_weight=95 20 24 20 22 22 39 31
leaf_count=95 20 24 20 22 22 39 31
internal_value=0 0.000301833 0.000674073 0 0.000250111 0.000997771 -0.000430707
internal_weight=0 147 79 68 46 59 126
internal_count=273 147 79 68 46 59 126
is_linear=0
shrinkage=0.03


end of trees

feature_importances:
Column_6=277
Column_2=132
Column_1=77
Column_3=11
Column_4=4
Column_13=2

parameters:
[boosting: gbdt]
[objective: regression]
[metric: rmse]
[tree_learner: serial]
[device_type: cpu]
[data_sample_strategy: bagging]
[data: ]
[valid: ]
[num_iterations: 120]
[learning_rate: 0.03]
[num_leaves: 16]
[num_threads: 0]
[seed: 0]
[deterministic: 0]
[force_col_wise: 1]
[force_row_wise: 0]
[histogram_pool_size: -1]
[max_depth: -1]
[min_data_in_leaf: 20]
[min_sum_hessian_in_leaf: 0.001]
[bagging_fraction: 1]
[pos_bagging_fraction: 1]
[neg_bagging_fraction: 1]
[bagging_freq: 0]
[bagging_seed: 3]
[feature_fraction: 1]
[feature_fraction_bynode: 1]
[feature_fraction_seed: 2]
[extra_trees: 0]
[extra_seed: 6]
[early_stopping_round: 0]
[early_stopping_min_delta: 0]
[first_metric_only: 0]
[max_delta_step: 0]
[lambda_l1: 2]
[lambda_l2: 6]
[linear_lambda: 0]
[min_gain_to_split: 0]
[drop_rate: 0.1]
[max_drop: 50]
[skip_drop: 0.5]
[xgboost_dart_mode: 0]
[uniform_drop: 0]
[drop_seed: 4]
[top_rate: 0.2]
[other_rate: 0.1]
[min_data_per_group: 100]
[max_cat_threshold: 32]
[cat_l2: 10]
[cat_smooth: 10]
[max_cat_to_onehot: 4]
[top_k: 20]
[monotone_constraints: ]
[monotone_constraints_method: basic]
[monotone_penalty: 0]
[feature_contri: ]
[forcedsplits_filename: ]
[refit_decay_rate: 0.9]
[cegb_tradeoff: 1]
[cegb_penalty_split: 0]
[cegb_penalty_feature_lazy: ]
[cegb_penalty_feature_coupled: ]
[path_smooth: 0]
[interaction_constraints: ]
[verbosity: -1]
[saved_feature_importance_type: 0]
[use_quantized_grad: 0]
[num_grad_quant_bins: 4]
[quant_train_renew_leaf: 0]
[stochastic_rounding: 1]
[linear_tree: 0]
[max_bin: 255]
[max_bin_by_feature: ]
[min_data_in_bin: 3]
[bin_construct_sample_cnt: 200000]
[data_random_seed: 1]
[is_enable_sparse: 1]
[enable_bundle: 1]
[use_missing: 1]
[zero_as_missing: 0]
[feature_pre_filter: 1]
[pre_partition: 0]
[two_round: 0]
[header: 0]
[label_column: ]
[weight_column: ]
[group_column: ]
[ignore_column: ]
[categorical_feature: ]
[forcedbins_filename: ]
[precise_float_parser: 0]
[parser_config_file: ]
[objective_seed: 5]
[num_class: 1]
[is_unbalance: 0]
[scale_pos_weight: 1]
[sigmoid: 1]
[boost_from_average: 1]
[reg_sqrt: 0]
[alpha: 0.9]
[fair_c: 1]
[poisson_max_delta_step: 0.7]
[tweedie_variance_power: 1.5]
[lambdarank_truncation_level: 30]
[lambdarank_norm: 1]
[label_gain: ]
[lambdarank_position_bias_regularization: 0]
[eval_at: ]
[multi_error_top_k: 1]
[auc_mu_weights: ]
[num_machines: 1]
[local_listen_port: 12400]
[time_out: 120]
[machine_list_filename: ]
[machines: ]
[gpu_platform_id: -1]
[gpu_device_id: -1]
[gpu_use_dp: 0]
[num_gpu: 1]

end of parameters

pandas_categorical:null
